{"learner":{"attributes":{"best_iteration":"99","best_ntree_limit":"100","best_score":"0.966537"},"feature_names":[],"feature_types":[],"gradient_booster":{"model":{"gbtree_model_param":{"num_trees":"100","size_leaf_vector":"0"},"tree_info":[0,0,0,0,0,0,0,0,0,0,0,0,0,0,0,0,0,0,0,0,0,0,0,0,0,0,0,0,0,0,0,0,0,0,0,0,0,0,0,0,0,0,0,0,0,0,0,0,0,0,0,0,0,0,0,0,0,0,0,0,0,0,0,0,0,0,0,0,0,0,0,0,0,0,0,0,0,0,0,0,0,0,0,0,0,0,0,0,0,0,0,0,0,0,0,0,0,0,0,0],"trees":[{"base_weights":[-1.8003855E0,-1.844276E0,9.306931E-1,-1.8646168E0,8.288288E-1,1.0924093E0,-3.883495E-2,-1.8729122E0,1.2758621E0,7.650273E-2,1.1047227E0,7.278481E-1,1.479452E0,-3.0232558E-1,1.1578947E0,-1.880148E0,8.995633E-1,1.7217392E0,8.0991733E-1,-2.2818792E-1,1.2631578E0,6.458333E-1,1.3846154E0,7.940692E-1,-7.586207E-1,1.5563506E0,-2.0689656E-1,1.2E0,-4.347826E-1,1.5E0,-4E-1,-1.8862756E0,1.0107527E0,-1.2E0,9.7757846E-1,6.666667E-1,1.7757009E0,1E0,-5.882353E-1,-4.64E-1,8.5714287E-1,-0E0,1.6E0,7.692308E-1,-1.1428572E0,1.552E0,4.9056605E-1,8.389262E-1,-1.2E0,5E-1,-1.04E0,1.6226416E0,3.030303E-1,-9.4736844E-1,8.5714287E-1,7.2E-1,-6.2857145E-1,1.7142857E0,-0E0,-1.8911098E0,1.3846154E0,2.9333332E-1,1.4434782E0,1.0754716E0,-6.666667E-1,-0E0,1E0,8.888889E-1,1.8709677E0,-8E-1,1.137255E0,6.666667E-1,-1.3333334E0,-1.4666667E0,-1.4141414E-1,1.3043479E0,-6.666667E-1,1E0,-1E0,-8.888889E-1,9.285714E-1,1.6065574E0,-4E-1,-9.0909094E-1,7.826087E-1,9.241877E-1,-2.6086956E-1,-0E0,-1.2380953E0,1.648855E0,-4E-1,-8.5714287E-1,9.5652175E-1,-1.3333334E0,-1.8181819E-1,1.2E0,-0E0,1.2380953E0,-1E0,-8.869565E-1,4.827586E-1],"categories":[],"categories_nodes":[],"categories_segments":[],"categories_sizes":[],"default_left":[true,true,true,true,false,true,true,true,true,false,true,true,true,false,true,true,false,false,true,true,false,true,true,true,false,true,true,false,false,true,false,true,false,false,true,false,true,false,false,false,true,false,false,false,false,true,false,true,false,false,false,true,false,false,true,true,true,false,false,false,false,false,false,false,false,false,false,false,false,false,false,false,false,false,false,false,false,false,false,false,false,false,false,false,false,false,false,false,false,false,false,false,false,false,false,false,false,false,false,false,false],"id":0,"left_children":[1,3,5,7,9,11,13,15,17,19,21,23,25,27,29,31,33,35,37,39,41,43,45,47,49,51,53,-1,55,57,-1,59,61,-1,63,65,67,69,71,73,75,77,-1,79,-1,81,83,85,-1,-1,87,89,91,93,95,97,99,-1,-1,-1,-1,-1,-1,-1,-1,-1,-1,-1,-1,-1,-1,-1,-1,-1,-1,-1,-1,-1,-1,-1,-1,-1,-1,-1,-1,-1,-1,-1,-1,-1,-1,-1,-1,-1,-1,-1,-1,-1,-1,-1,-1],"loss_changes":[2.6757344E3,1.1953359E3,5.5467102E1,5.700469E2,3.44746E1,4.1676697E1,1.6589405E1,4.376875E2,1.0655266E1,1.6829733E1,1.4743301E1,1.6155228E1,1.9254944E1,9.078463E0,5.6631575E0,3.8589844E2,1.0550514E1,4.5304108E-1,8.627613E0,9.93126E0,4.0421057E0,1.1473671E1,1.0424988E1,1.4580429E1,3.0875864E0,1.1119232E1,6.5242414E0,0E0,9.459875E0,2.5714283E0,0E0,3.4464844E2,1.4012306E1,0E0,9.690529E0,6.666666E-1,5.968628E-1,7.580391E0,4.8627453E0,9.900282E0,5.639752E0,4E0,0E0,1.2846767E1,0E0,7.2986145E0,6.1275268E0,1.4212868E1,0E0,0E0,1.2876186E0,7.6847534E0,7.0747223E0,1.1610847E0,1.0285714E0,6.807619E0,1.0478476E1,0E0,0E0,0E0,0E0,0E0,0E0,0E0,0E0,0E0,0E0,0E0,0E0,0E0,0E0,0E0,0E0,0E0,0E0,0E0,0E0,0E0,0E0,0E0,0E0,0E0,0E0,0E0,0E0,0E0,0E0,0E0,0E0,0E0,0E0,0E0,0E0,0E0,0E0,0E0,0E0,0E0,0E0,0E0,0E0],"parents":[2147483647,0,0,1,1,2,2,3,3,4,4,5,5,6,6,7,7,8,8,9,9,10,10,11,11,12,12,13,13,14,14,15,15,16,16,17,17,18,18,19,19,20,20,21,21,22,22,23,23,24,24,25,25,26,26,28,28,29,29,31,31,32,32,34,34,35,35,36,36,37,37,38,38,39,39,40,40,41,41,43,43,45,45,46,46,47,47,50,50,51,51,52,52,53,53,54,54,55,55,56,56],"right_children":[2,4,6,8,10,12,14,16,18,20,22,24,26,28,30,32,34,36,38,40,42,44,46,48,50,52,54,-1,56,58,-1,60,62,-1,64,66,68,70,72,74,76,78,-1,80,-1,82,84,86,-1,-1,88,90,92,94,96,98,100,-1,-1,-1,-1,-1,-1,-1,-1,-1,-1,-1,-1,-1,-1,-1,-1,-1,-1,-1,-1,-1,-1,-1,-1,-1,-1,-1,-1,-1,-1,-1,-1,-1,-1,-1,-1,-1,-1,-1,-1,-1,-1,-1,-1],"split_conditions":[3.0018415E-2,4.576561E-2,4.322038E-2,6.283225E-2,9.354623E-2,5.0727658E-2,8.723356E-2,9.068056E-2,1.85E1,1.0729091E-1,2.3526695E-2,1.9958845E-1,6.5155886E-2,2.762596E-1,3.999167E-2,4.9156696E-2,9.4761723E-1,4.588841E-2,3.2825887E-2,5.212876E-2,2.8439417E-2,8.006589E-2,4.756376E-2,4.8610687E-2,4.6722305E-1,5.723211E-2,1.4503735E-1,1.20000005E-1,2.2416165E-2,1.26162E-1,-4.0000003E-2,4.197143E-2,1.3641506E-1,-1.20000005E-1,4.020427E-2,4.5E0,2.45E1,1.1662093E-1,3.1919483E-2,1.4949271E-1,2.738075E-2,8.012715E-2,1.6000001E-1,3.7487157E-2,-1.1428572E-1,8.7911606E-2,5.7984963E-2,3.8527004E-2,-1.20000005E-1,5E-2,3.767385E-1,7.257126E-2,6.7286864E-2,6.733092E-2,2.7151418E-1,2.6908126E-2,5.0687544E-2,1.7142858E-1,-0E0,-1.8911098E-1,1.3846155E-1,2.9333333E-2,1.4434783E-1,1.07547164E-1,-6.666667E-2,-0E0,1E-1,8.888889E-2,1.8709677E-1,-8.0000006E-2,1.137255E-1,6.666667E-2,-1.3333334E-1,-1.4666668E-1,-1.4141413E-2,1.304348E-1,-6.666667E-2,1E-1,-1E-1,-8.888889E-2,9.2857145E-2,1.6065574E-1,-4.0000003E-2,-9.090909E-2,7.826087E-2,9.2418775E-2,-2.6086956E-2,-0E0,-1.2380953E-1,1.648855E-1,-4.0000003E-2,-8.571429E-2,9.565218E-2,-1.3333334E-1,-1.818182E-2,1.20000005E-1,-0E0,1.2380953E-1,-1E-1,-8.869565E-2,4.8275862E-2],"split_indices":[170313,170452,761,96119,170452,419097,170387,347284,7,2,419097,362948,406033,45243,7909,82241,195173,43443,164362,328737,419097,236708,193983,82735,170373,408407,170387,0,43443,763,0,157461,82241,0,208017,5,0,406672,359024,103125,105556,11,0,6848,0,247363,211574,378638,0,0,173922,229118,419097,2,2,370570,11,0,0,0,0,0,0,0,0,0,0,0,0,0,0,0,0,0,0,0,0,0,0,0,0,0,0,0,0,0,0,0,0,0,0,0,0,0,0,0,0,0,0,0,0],"split_type":[0,0,0,0,0,0,0,0,0,0,0,0,0,0,0,0,0,0,0,0,0,0,0,0,0,0,0,0,0,0,0,0,0,0,0,0,0,0,0,0,0,0,0,0,0,0,0,0,0,0,0,0,0,0,0,0,0,0,0,0,0,0,0,0,0,0,0,0,0,0,0,0,0,0,0,0,0,0,0,0,0,0,0,0,0,0,0,0,0,0,0,0,0,0,0,0,0,0,0,0,0],"sum_hessian":[2.2307E4,2.19545E4,3.525E2,2.1789E4,1.655E2,3.02E2,5.05E1,2.1732E4,5.7E1,4.475E1,1.2075E2,1.57E2,1.45E2,4.2E1,8.5E0,2.167575E4,5.625E1,2.775E1,2.925E1,3.625E1,8.5E0,4.7E1,7.375E1,1.5075E2,6.25E0,1.3875E2,6.25E0,2.75E0,3.925E1,7E0,1.5E0,2.163025E4,4.55E1,1.5E0,5.475E1,2E0,2.575E1,2.6E1,3.25E0,3.025E1,6E0,2E0,6.5E0,4.45E1,2.5E0,6.15E1,1.225E1,1.48E2,2.75E0,1E0,5.25E0,1.315E2,7.25E0,3.75E0,2.5E0,5.25E0,3.4E1,6E0,1E0,2.159875E4,3.15E1,1.775E1,2.775E1,5.2E1,2.75E0,1E0,1E0,3.5E0,2.225E1,1.5E0,2.45E1,1.25E0,2E0,6.5E0,2.375E1,4.75E0,1.25E0,1E0,1E0,3.5E0,4.1E1,6E1,1.5E0,1.75E0,1.05E1,1.375E2,1.05E1,1E0,4.25E0,1.3E2,1.5E0,2.5E0,4.75E0,2E0,1.75E0,1.5E0,1E0,4.25E0,1E0,2.775E1,6.25E0],"tree_param":{"num_deleted":"0","num_feature":"426016","num_nodes":"101","size_leaf_vector":"0"}},{"base_weights":[-1.6345574E0,-1.6619285E0,9.859743E-1,-1.6746498E0,1.3190072E0,2.98388E-1,1.1015376E0,-1.685452E0,5.000125E-1,1.3762143E0,-2.1591453E-1,-1.3485287E0,4.5525685E-1,-4.2413303E-1,1.1353917E0,-1.6931823E0,6.47007E-1,6.9514185E-1,-5.308712E-1,-6.5337E-1,1.4119134E0,7.289093E-1,-9.958281E-1,7.111404E-1,-7.226893E-1,-1.2429107E0,4.0056345E-1,1.1926936E0,1.5023212E-1,-1.7039354E0,-9.217752E-2,7.8247064E-1,-7.361052E-1,8.2599616E-1,-6.952782E-1,-3.0455021E-2,-1.4109038E0,-8.20271E-2,1.4469328E0,-8.448691E-1,9.047008E-1,-1.3007274E0,4.8834708E-1,1.2143388E0,-8.4804976E-1,-1.0026629E0,6.6067314E-1,-1.7102057E0,8.6411166E-1,-5.655615E-1,8.705131E-1,-2.18368E-1,9.939562E-1,-1.4207721E0,6.498753E-1,9.0139675E-1,-6.369496E-1,-1.1445462E0,6.596735E-1,-8.019564E-1,6.9011813E-1,1.4820452E0,-3.649546E-2,-2.0997785E-1,-1.1032856E0,1.0524746E0,-8.171572E-1,1.2359285E0,-8.161316E-1,-1.2881594E0,-2.0769753E-1,-8.104089E-1,1.0778862E0],"categories":[],"categories_nodes":[],"categories_segments":[],"categories_sizes":[],"default_left":[true,true,false,true,true,false,false,true,true,false,false,false,true,false,true,true,true,true,true,false,false,false,false,false,true,false,false,true,false,true,true,false,false,true,true,true,false,false,true,false,true,false,false,true,false,false,false,false,false,false,false,false,false,false,false,false,false,false,false,false,false,false,false,false,false,false,false,false,false,false,false,false,false],"id":1,"left_children":[1,3,5,7,9,11,13,15,17,19,21,-1,23,25,27,29,31,33,35,-1,37,-1,-1,39,41,-1,-1,43,45,47,49,51,53,55,57,59,-1,-1,61,63,65,-1,-1,67,-1,69,71,-1,-1,-1,-1,-1,-1,-1,-1,-1,-1,-1,-1,-1,-1,-1,-1,-1,-1,-1,-1,-1,-1,-1,-1,-1,-1],"loss_changes":[1.5906172E3,8.336133E2,1.7917114E1,5.136992E2,8.527039E0,9.504126E0,1.0615936E1,3.9279688E2,2.223078E1,7.479141E0,3.8443887E0,0E0,1.0209442E1,3.8655689E0,1.067215E1,3.7260938E2,1.4156778E1,1.727959E1,7.8241854E0,0E0,4.787735E0,0E0,0E0,8.875177E0,5.000874E0,0E0,0E0,9.047699E0,7.553757E0,3.478125E2,6.680686E1,1.4293331E1,7.548031E0,9.881382E0,5.8931646E0,7.4527574E0,0E0,0E0,4.5989075E0,3.4198403E-1,7.0770416E0,0E0,0E0,8.900299E0,0E0,6.3820934E-1,6.2251363E0,0E0,0E0,0E0,0E0,0E0,0E0,0E0,0E0,0E0,0E0,0E0,0E0,0E0,0E0,0E0,0E0,0E0,0E0,0E0,0E0,0E0,0E0,0E0,0E0,0E0,0E0],"parents":[2147483647,0,0,1,1,2,2,3,3,4,4,5,5,6,6,7,7,8,8,9,9,10,10,12,12,13,13,14,14,15,15,16,16,17,17,18,18,20,20,23,23,24,24,27,27,28,28,29,29,30,30,31,31,32,32,33,33,34,34,35,35,38,38,39,39,40,40,43,43,45,45,46,46],"right_children":[2,4,6,8,10,12,14,16,18,20,22,-1,24,26,28,30,32,34,36,-1,38,-1,-1,40,42,-1,-1,44,46,48,50,52,54,56,58,60,-1,-1,62,64,66,-1,-1,68,-1,70,72,-1,-1,-1,-1,-1,-1,-1,-1,-1,-1,-1,-1,-1,-1,-1,-1,-1,-1,-1,-1,-1,-1,-1,-1,-1,-1],"split_conditions":[4.794893E-2,4.7407687E-2,7.52036E-2,4.2233095E-2,8.698645E-2,3.8413174E-2,3.0982912E-1,5.1695876E-2,2.1874595E-2,8.335444E-2,7.536173E-2,-1.3485287E-1,2.8440032E-2,1.2068728E-1,3.6114573E-2,4.809609E-2,5.7353243E-2,7.660942E-2,2.6955798E-2,-6.5337E-2,1.905574E-1,7.289093E-2,-9.958281E-2,2.2456631E-2,4.1673988E-2,-1.2429108E-1,4.0056344E-2,7.263416E-2,4.9696617E-2,8.061604E-2,4.5815364E-2,9.40258E-2,1.45E1,4.375026E-2,4.976148E-2,3.4365393E-2,-1.4109038E-1,-8.20271E-3,4.932907E-2,3.4285437E-2,2.2613235E-2,-1.3007274E-1,4.8834708E-2,5.204781E-2,-8.4804974E-2,5.8802307E-2,1.5514638E-1,-1.7102057E-1,8.641117E-2,-5.6556147E-2,8.705131E-2,-2.18368E-2,9.9395625E-2,-1.4207721E-1,6.498753E-2,9.013968E-2,-6.369496E-2,-1.1445462E-1,6.596735E-2,-8.019564E-2,6.9011815E-2,1.4820452E-1,-3.6495458E-3,-2.0997785E-2,-1.10328555E-1,1.0524746E-1,-8.1715725E-2,1.2359285E-1,-8.161316E-2,-1.2881593E-1,-2.0769753E-2,-8.104089E-2,1.0778862E-1],"split_indices":[170452,170387,170452,81931,236708,400192,279750,347284,80019,419098,419097,0,270540,356167,102254,345954,193983,761,211574,0,403068,0,0,419097,64089,0,0,136576,164362,195956,419097,347284,1,24936,421127,419097,0,0,258427,22394,391648,0,0,91048,0,43443,401020,0,0,0,0,0,0,0,0,0,0,0,0,0,0,0,0,0,0,0,0,0,0,0,0,0,0],"split_type":[0,0,0,0,0,0,0,0,0,0,0,0,0,0,0,0,0,0,0,0,0,0,0,0,0,0,0,0,0,0,0,0,0,0,0,0,0,0,0,0,0,0,0,0,0,0,0,0,0,0,0,0,0,0,0,0,0,0,0,0,0,0,0,0,0,0,0,0,0,0,0,0,0],"sum_hessian":[2.2152172E4,2.1923549E4,2.2862329E2,2.1830822E4,9.272538E1,3.341146E1,1.9521182E2,2.1723143E4,1.0768075E2,8.9493324E1,3.2320552E0,2.2450328E0,3.116643E1,3.9873943E0,1.9122444E2,2.1651658E4,7.1484505E1,9.0816376E1,1.6864365E1,1.2478483E0,8.8245476E1,1.4910837E0,1.7409713E0,2.5929985E1,5.236445E0,1.7464075E0,2.2409868E0,1.8051414E2,1.0710283E1,2.1507143E4,1.4451521E2,6.55033E1,5.9812016E0,8.337572E1,7.4406624E0,1.1410549E1,5.453816E0,1.9904337E0,8.625504E1,2.4964483E0,2.3433537E1,3.4944518E0,1.7419931E0,1.7902032E2,1.4938287E0,2.9908245E0,7.7194586E0,2.145509E4,5.205225E1,9.715413E1,4.736109E1,1.1421137E1,5.408217E1,3.986694E0,1.9945076E0,7.965417E1,3.7215493E0,5.704485E0,1.7361774E0,5.4559956E0,5.9545536E0,8.426153E1,1.9935144E0,1.2465109E0,1.2499374E0,2.1939402E1,1.494134E0,1.7752403E2,1.4962834E0,1.744076E0,1.2467483E0,1.4973629E0,6.222096E0],"tree_param":{"num_deleted":"0","num_feature":"426016","num_nodes":"73","size_leaf_vector":"0"}},{"base_weights":[-1.5088135E0,-1.5470502E0,8.433707E-1,-1.5561875E0,1.349019E0,9.6476954E-1,-1.6788596E-1,-1.5620749E0,1.4051583E0,1.3969419E0,-6.716269E-1,1.0166919E0,-5.998388E-1,7.2582054E-1,-4.2467138E-1,-1.5682445E0,1.1253853E0,-8.939638E-1,1.5248297E0,1.4792849E0,3.9886993E-1,4.332394E-1,1.1088336E0,-1.1363413E0,9.802896E-1,-6.933505E-1,1.0462259E0,-6.0467637E-1,1.1358302E0,-1.5752403E0,7.643854E-1,-5.276116E-1,1.2530204E0,1.6050464E0,8.956881E-2,-3.619796E-1,1.5315176E0,-5.7689774E-1,9.578538E-1,6.6723496E-1,-5.00171E-1,1.1446818E0,-3.6353308E-1,-1.3877581E0,-1.0906336E-1,1.3547544E0,-3.0655238E-1,-8.5563195E-1,5.7605267E-1,-1.584297E0,8.118793E-2,3.392136E-1,1.2636722E0,2.0070551E-1,-1.1184865E0,-1.1184865E0,1.3574821E0,1.6636177E0,3.503823E-1,1.5730289E0,-2.2885709E-1,1.4120339E0,-1.291939E-1,7.93701E-1,-9.427043E-1,-1.2592003E0,3.1680557E-1,-8.0642915E-1,1.1652288E0,-9.2880505E-1,1.590047E-1,-1.0074513E0,8.242647E-1,1.2690469E0,-8.910654E-2],"categories":[],"categories_nodes":[],"categories_segments":[],"categories_sizes":[],"default_left":[true,true,true,true,true,true,false,true,false,true,false,false,true,false,true,true,false,false,true,false,false,true,true,true,false,false,true,true,false,true,false,true,false,true,false,false,true,false,false,true,false,false,false,false,false,false,false,true,false,false,false,false,false,false,false,false,false,false,false,false,false,false,false,false,false,false,false,false,false,false,false,false,false,false,false],"id":2,"left_children":[1,3,5,7,9,11,13,15,17,19,-1,21,23,25,27,29,31,-1,33,35,37,39,41,43,-1,-1,45,47,-1,49,51,53,55,57,-1,-1,59,-1,61,63,65,67,69,-1,-1,-1,-1,71,73,-1,-1,-1,-1,-1,-1,-1,-1,-1,-1,-1,-1,-1,-1,-1,-1,-1,-1,-1,-1,-1,-1,-1,-1,-1,-1],"loss_changes":[1.9562305E3,5.6808203E2,4.292505E1,3.739336E2,7.5041656E0,2.588678E1,9.071623E0,3.5459375E2,1.3147934E1,4.8800507E0,0E0,1.5729523E1,1.0119364E1,4.768747E0,9.196359E0,3.4767578E2,1.106702E1,0E0,4.586136E0,6.432266E0,4.0662575E0,9.674141E0,1.4126648E1,2.016449E0,0E0,0E0,3.6094046E0,8.734359E0,0E0,3.176914E2,1.3191158E1,2.0487397E0,1.2934425E1,2.2719955E0,0E0,0E0,4.716934E0,0E0,2.3901005E0,7.7972336E0,6.06879E0,1.1115387E1,2.1955452E0,0E0,0E0,0E0,0E0,6.7832146E0,2.63587E0,0E0,0E0,0E0,0E0,0E0,0E0,0E0,0E0,0E0,0E0,0E0,0E0,0E0,0E0,0E0,0E0,0E0,0E0,0E0,0E0,0E0,0E0,0E0,0E0,0E0,0E0],"parents":[2147483647,0,0,1,1,2,2,3,3,4,4,5,5,6,6,7,7,8,8,9,9,11,11,12,12,13,13,14,14,15,15,16,16,18,18,19,19,20,20,21,21,22,22,23,23,26,26,27,27,29,29,30,30,31,31,32,32,33,33,36,36,38,38,39,39,40,40,41,41,42,42,47,47,48,48],"right_children":[2,4,6,8,10,12,14,16,18,20,-1,22,24,26,28,30,32,-1,34,36,38,40,42,44,-1,-1,46,48,-1,50,52,54,56,58,-1,-1,60,-1,62,64,66,68,70,-1,-1,-1,-1,72,74,-1,-1,-1,-1,-1,-1,-1,-1,-1,-1,-1,-1,-1,-1,-1,-1,-1,-1,-1,-1,-1,-1,-1,-1,-1,-1],"split_conditions":[2.9959597E-2,7.0226885E-2,1.5576957E-2,4.587312E-2,3.5364337E-2,7.8359604E-2,5.8932114E-1,7.3985875E-2,2.3044147E-2,3.091047E-2,-6.716269E-2,2.4491137E-1,1.0400754E-1,1.2148718E-1,3.7270993E-2,7.697961E-2,7.137613E-2,-8.939638E-2,7.25E1,4.9448192E-2,6.333117E-2,3.2831974E-2,8.8908926E-2,6.933761E-2,9.802896E-2,-6.933505E-2,3.2993555E-2,8.697479E-2,1.1358302E-1,5.243975E-2,1.3640276E-1,2.3739945E-2,1.098976E-1,4.3805256E-2,8.956881E-3,-3.619796E-2,6.1391182E-2,-5.7689775E-2,8.336717E-2,3.2305837E-2,3.6331568E-2,9.596629E-2,1.8638992E-1,-1.3877581E-1,-1.0906336E-2,1.3547544E-1,-3.0655239E-2,3.750331E-2,5.361925E-2,-1.584297E-1,8.118793E-3,3.392136E-2,1.2636723E-1,2.0070551E-2,-1.1184865E-1,-1.1184865E-1,1.3574821E-1,1.6636178E-1,3.503823E-2,1.573029E-1,-2.2885708E-2,1.4120339E-1,-1.2919391E-2,7.9370104E-2,-9.427043E-2,-1.2592004E-1,3.1680558E-2,-8.0642916E-2,1.16522886E-1,-9.288051E-2,1.590047E-2,-1.00745134E-1,8.242647E-2,1.269047E-1,-8.910654E-3],"split_indices":[170313,96119,10267,157461,194183,406033,170387,82241,41037,164362,0,761,170387,183852,423150,195956,168992,0,1,82735,64089,261436,22394,2,0,0,208017,2,0,328737,195956,43443,182128,359024,0,0,97034,0,22394,304303,208017,338186,170313,0,0,0,0,406672,193983,0,0,0,0,0,0,0,0,0,0,0,0,0,0,0,0,0,0,0,0,0,0,0,0,0,0],"split_type":[0,0,0,0,0,0,0,0,0,0,0,0,0,0,0,0,0,0,0,0,0,0,0,0,0,0,0,0,0,0,0,0,0,0,0,0,0,0,0,0,0,0,0,0,0,0,0,0,0,0,0,0,0,0,0,0,0,0,0,0,0,0,0,0,0,0,0,0,0,0,0,0,0,0,0],"sum_hessian":[2.1734906E4,2.1387574E4,3.4733167E2,2.132077E4,6.680522E1,3.1014542E2,3.7186226E1,2.1278938E4,4.183208E1,6.5559044E1,1.2461745E0,3.005226E2,9.622821E0,7.8921423E0,2.9294085E1,2.1230615E4,4.8321663E1,1.7495557E0,4.0082527E1,6.011712E1,5.441927E0,4.176472E1,2.5875787E2,7.39339E0,2.2294304E0,1.2392324E0,6.6529098E0,2.6813625E1,2.4804592E0,2.1167457E4,6.315885E1,3.2390552E0,4.5082607E1,3.784886E1,2.233664E0,1.4947644E0,5.8622353E1,1.9703747E0,3.4715521E0,3.3621384E1,8.143339E0,2.5282483E2,5.933065E0,5.65779E0,1.7356001E0,5.416179E0,1.2367305E0,2.234062E1,4.4730043E0,2.1052395E4,1.1506242E2,3.5018208E1,2.8140644E1,1.7465583E0,1.4924968E0,1.4924968E0,4.359011E1,3.584936E1,1.9995002E0,5.7375805E1,1.2465512E0,2.2376683E0,1.2338839E0,3.164274E1,1.9786433E0,3.9407809E0,4.2025585E0,2.236154E0,2.5058867E2,2.4765205E0,3.4565442E0,2.085606E1,1.48456E0,1.746027E0,2.7269776E0],"tree_param":{"num_deleted":"0","num_feature":"426016","num_nodes":"75","size_leaf_vector":"0"}},{"base_weights":[-1.4061887E0,-1.442585E0,8.135319E-1,-1.4590367E0,8.0548346E-1,1.99408E-1,9.850011E-1,-1.4657927E0,1.2081603E0,6.720101E-1,1.5341333E0,3.7620813E-1,-1.2463851E0,1.0435089E0,-4.1388795E-1,-1.4727857E0,7.21895E-1,1.3419968E0,5.0311064E-4,8.4267527E-1,1.3141999E-1,-4.5515195E-2,1.6483438E0,1.6118684E-1,1.2492095E0,-1.5247155E0,1.9985434E-1,1.0741246E0,-9.0802103E-1,1.1316024E0,-7.632978E-1,-1.4806681E0,2.6411226E-1,8.120256E-1,-8.868108E-1,1.4392697E0,1.8245315E-2,1.1965977E0,-8.396022E-1,5.3949714E-1,1.2339023E0,3.3389887E-1,-1.2751362E0,3.9587685E-1,-6.863599E-1,1.432196E0,1.4876753E-2,1.1022466E0,-2.6291296E-1,-2.1484338E-1,-1.1062732E0,-1.10984236E-1,-1.2213405E0,-1.4859296E0,9.1978073E-1,6.15351E-1,-4.1862452E-1,9.6777827E-1,-4.8301235E-1,-1.1674885E0,-1.4974844E-1,1.491174E0,-2.5205893E-2,8.0557585E-1,-8.511527E-1,-2.786163E-2,-1.2738061E0,-7.0428556E-1,6.7876804E-1,1.3108954E0,-7.140018E-1,6.149784E-1,-4.170482E-1,7.336514E-1,-3.5569257E-1,-1.0240823E0,8.731625E-1,1.5896145E0,5.216788E-2,1.1244514E0,-5.1896435E-1,-1.1454207E0,1.1930802E0,6.6613746E-1,-8.1428856E-1,-1.4297309E0,-3.7657183E-1],"categories":[],"categories_nodes":[],"categories_segments":[],"categories_sizes":[],"default_left":[true,true,false,true,true,true,true,true,true,true,false,true,true,true,false,true,true,true,true,true,true,false,false,true,true,false,false,true,true,false,true,true,true,true,true,true,false,false,true,false,true,true,false,true,true,true,false,true,false,false,false,true,false,false,false,false,false,false,false,false,false,false,false,false,false,false,false,false,false,false,false,false,false,false,false,false,false,false,false,false,false,false,false,false,false,false,false],"id":3,"left_children":[1,3,5,7,9,11,13,15,17,19,21,23,25,27,29,31,33,35,37,39,41,-1,-1,43,45,-1,-1,47,49,-1,51,53,55,57,59,61,63,-1,65,67,69,71,-1,73,75,77,-1,79,81,-1,-1,83,85,-1,-1,-1,-1,-1,-1,-1,-1,-1,-1,-1,-1,-1,-1,-1,-1,-1,-1,-1,-1,-1,-1,-1,-1,-1,-1,-1,-1,-1,-1,-1,-1,-1,-1],"loss_changes":[1.688582E3,7.612031E2,3.5352463E1,3.6938672E2,1.3551392E1,1.9624205E1,2.2010391E1,3.1238672E2,8.419029E0,1.1745102E1,4.122387E0,1.2476936E1,3.6848564E0,1.6112213E1,6.9660006E0,2.781172E2,1.0219055E1,6.0122375E0,7.2322154E0,1.0897217E1,9.54483E0,0E0,0E0,1.1279618E1,2.9600353E0,0E0,0E0,9.685822E0,3.7455416E-1,0E0,2.7966728E0,2.5641797E2,2.2437225E1,1.3085972E1,6.4310527E-1,3.3572388E0,3.5762968E0,0E0,1.4547777E0,1.0299797E1,7.202751E0,6.33179E0,0E0,1.1424263E1,7.4076214E0,2.4120827E0,0E0,9.40097E0,9.018504E0,0E0,0E0,3.356249E0,4.5895672E-1,0E0,0E0,0E0,0E0,0E0,0E0,0E0,0E0,0E0,0E0,0E0,0E0,0E0,0E0,0E0,0E0,0E0,0E0,0E0,0E0,0E0,0E0,0E0,0E0,0E0,0E0,0E0,0E0,0E0,0E0,0E0,0E0,0E0,0E0],"parents":[2147483647,0,0,1,1,2,2,3,3,4,4,5,5,6,6,7,7,8,8,9,9,10,10,11,11,12,12,13,13,14,14,15,15,16,16,17,17,18,18,19,19,20,20,23,23,24,24,27,27,28,28,30,30,31,31,32,32,33,33,34,34,35,35,36,36,38,38,39,39,40,40,41,41,43,43,44,44,45,45,47,47,48,48,51,51,52,52],"right_children":[2,4,6,8,10,12,14,16,18,20,22,24,26,28,30,32,34,36,38,40,42,-1,-1,44,46,-1,-1,48,50,-1,52,54,56,58,60,62,64,-1,66,68,70,72,-1,74,76,78,-1,80,82,-1,-1,84,86,-1,-1,-1,-1,-1,-1,-1,-1,-1,-1,-1,-1,-1,-1,-1,-1,-1,-1,-1,-1,-1,-1,-1,-1,-1,-1,-1,-1,-1,-1,-1,-1,-1,-1],"split_conditions":[3.072643E-2,6.2137842E-2,7.663107E-2,7.38596E-2,1.05757214E-1,3.3902723E-2,2.1496433E-1,6.613047E-2,2.9428702E-2,3.8120598E-2,4.0486023E-2,6.072957E-2,2.9802632E-2,2.0193368E-1,3.9308953E-1,7.097033E-2,3.8764764E-2,3.5561703E-2,4.5E0,3.319685E-2,4.3183587E-2,-4.5515196E-3,1.6483438E-1,1.6918868E-2,3.0216027E-2,-1.5247156E-1,1.9985436E-2,9.209034E-2,5.9E1,1.13160245E-1,3.478524E-2,5.9443563E-2,2.3393929E-2,5.7353243E-2,2.6913196E-2,6.090287E-2,1.9167702E-1,1.19659774E-1,2.005E2,2.5934583E-1,6.30138E-2,5.367922E-2,-1.2751363E-1,4.469376E-2,2.0181278E-2,6.566553E-2,1.4876754E-3,3.3657205E-1,1.963005E-1,-2.1484338E-2,-1.10627316E-1,1.4818142E-1,2.4623656E-1,-1.4859296E-1,9.197807E-2,6.15351E-2,-4.1862454E-2,9.677783E-2,-4.8301235E-2,-1.1674885E-1,-1.4974845E-2,1.491174E-1,-2.5205894E-3,8.0557585E-2,-8.511528E-2,-2.786163E-3,-1.2738061E-1,-7.042856E-2,6.787681E-2,1.3108955E-1,-7.140018E-2,6.1497837E-2,-4.170482E-2,7.3365144E-2,-3.5569258E-2,-1.0240823E-1,8.731625E-2,1.5896146E-1,5.216788E-3,1.1244514E-1,-5.1896434E-2,-1.1454207E-1,1.1930802E-1,6.661375E-2,-8.1428856E-2,-1.429731E-1,-3.7657183E-2],"split_indices":[170313,170452,170313,96119,419824,102254,362948,347284,198407,193983,211574,170452,75615,45238,330186,345954,211579,18315,1,43443,211574,0,0,266623,335734,0,0,236708,0,0,2,82241,211574,193983,356167,192555,2,0,0,401020,211574,2,0,763,411523,225326,0,170359,170313,0,0,406440,2,0,0,0,0,0,0,0,0,0,0,0,0,0,0,0,0,0,0,0,0,0,0,0,0,0,0,0,0,0,0,0,0,0,0],"split_type":[0,0,0,0,0,0,0,0,0,0,0,0,0,0,0,0,0,0,0,0,0,0,0,0,0,0,0,0,0,0,0,0,0,0,0,0,0,0,0,0,0,0,0,0,0,0,0,0,0,0,0,0,0,0,0,0,0,0,0,0,0,0,0,0,0,0,0,0,0,0,0,0,0,0,0,0,0,0,0,0,0,0,0,0,0,0,0],"sum_hessian":[2.0885469E4,2.0548883E4,3.365856E2,2.0399945E4,1.4893884E2,7.393769E1,2.6264792E2,2.0348852E4,5.109294E1,1.2750489E2,2.1433952E1,6.654051E1,7.3971763E0,2.5234766E2,1.0300265E1,2.0284338E4,6.451283E1,4.589542E1,5.19752E0,9.648547E1,3.1019415E1,1.4857656E0,1.9948187E1,5.434092E1,1.2199597E1,6.157832E0,1.2393441E0,2.4889261E2,3.4550426E0,1.4865277E0,8.813738E0,2.0192848E4,9.149079E1,6.1559105E1,2.9537277E0,4.2672466E1,3.222956E0,1.9693408E0,3.2281792E0,5.570012E1,4.0785355E1,2.7782618E1,3.2367966E0,4.2974087E1,1.136683E1,1.0484935E1,1.7146626E0,2.4393745E2,4.9551525E0,1.2318021E0,2.2232404E0,4.1483045E0,4.6654334E0,2.0149064E4,4.3784187E1,6.047678E1,3.1014008E1,5.5175873E1,6.3832335E0,1.7162099E0,1.237518E0,4.1194218E1,1.4782474E0,1.729827E0,1.493129E0,1.4958562E0,1.7323229E0,5.2003713E0,5.049975E1,3.9549152E1,1.236202E0,2.0347582E1,7.4350367E0,2.9665497E1,1.3308593E1,9.625677E0,1.7411525E0,9.275065E0,1.2098689E0,2.409438E2,2.9936607E0,3.2179763E0,1.7371762E0,1.9958358E0,2.1524687E0,3.1868408E0,1.4785928E0],"tree_param":{"num_deleted":"0","num_feature":"426016","num_nodes":"87","size_leaf_vector":"0"}},{"base_weights":[-1.3215932E0,-1.3567257E0,7.0297503E-1,-1.3735062E0,6.916044E-1,3.8130024E-1,1.0811677E0,-1.3826106E0,5.407877E-1,-9.7473085E-1,7.4961543E-1,2.6035208E-1,1.3561866E0,1.4729168E-1,1.1635771E0,-1.3885064E0,1.0024076E0,9.193261E-1,-2.0977537E-1,-1.3825794E0,3.135559E-1,1.47236E0,6.152022E-1,1.257098E-1,1.1119702E0,1.5597967E0,1.0455932E-1,-2.2729E-1,1.0888354E0,1.2228107E0,-1.035078E-1,-1.3950278E0,6.1081076E-1,-3.9670107E-1,1.1507518E0,-4.455145E-1,1.0915868E0,-3.899279E-1,1.4130071E0,1.5439149E0,7.3696874E-2,7.1449876E-1,-3.7845507E-1,9.123006E-1,-2.3774298E-2,1.3329116E0,-9.254367E-2,1.712559E0,-2.5515231E-1,-6.7974466E-1,1.0036199E0,-7.378188E-1,6.1055696E-1,1.2591333E0,-7.2338146E-1,-9.083625E-1,3.624273E-1,-1.3991492E0,1.4311516E0,7.3224115E-1,-9.003394E-1,-1.085932E0,5.3792375E-1,1.2710259E0,-2.119009E-1,9.4725627E-1,-9.243407E-1,-7.8437495E-1,1.1989766E0,-6.7199486E-1,3.487181E-1,1.5817387E0,4.774982E-1,7.4980044E-1,-1.2759659E0,-6.2752056E-1,7.827109E-1,-7.658992E-2,1.2512115E0,-1.01901524E-1,1.4891065E0,1.458794E0,-2.7177337E-1,5.792735E-1,-8.61643E-1,-1.1881558E0,2.9687598E-1,-1.0641765E-2,1.069345E0,1.2930038E0,-2.0805694E-1,-3.029891E-1,6.8841386E-1],"categories":[],"categories_nodes":[],"categories_segments":[],"categories_sizes":[],"default_left":[true,true,true,true,false,true,false,true,true,true,false,true,true,false,true,true,false,false,true,false,false,true,true,false,true,true,true,false,false,true,false,true,true,true,true,false,false,false,false,true,false,true,true,false,true,true,true,false,false,false,false,true,false,true,false,false,false,false,false,false,false,false,false,false,false,false,false,false,false,false,false,false,false,false,false,false,false,false,false,false,false,false,false,false,false,false,false,false,false,false,false,false,false],"id":4,"left_children":[1,3,5,7,9,11,13,15,17,19,21,23,25,27,29,31,33,35,37,-1,-1,39,41,43,45,47,49,51,-1,53,55,57,59,61,63,65,67,69,-1,71,-1,73,75,77,79,81,83,-1,-1,-1,-1,85,87,89,-1,-1,91,-1,-1,-1,-1,-1,-1,-1,-1,-1,-1,-1,-1,-1,-1,-1,-1,-1,-1,-1,-1,-1,-1,-1,-1,-1,-1,-1,-1,-1,-1,-1,-1,-1,-1,-1,-1],"loss_changes":[1.4285117E3,6.790469E2,4.131534E1,3.4178906E2,1.6291023E1,2.1683708E1,1.1919464E1,2.752578E2,2.671352E1,3.5073357E0,1.4260742E1,1.9066841E1,5.033188E0,5.1443043E0,1.0950943E1,2.5415625E2,1.0544949E1,1.5118465E1,9.937821E0,0E0,0E0,2.2645378E0,1.3428261E1,1.7161034E1,6.1750317E0,5.2793274E0,3.449678E0,5.05305E0,0E0,1.0656113E1,3.0903745E0,2.2757422E2,1.2377462E1,4.064814E0,7.514019E0,6.000563E0,1.2131683E1,6.418894E0,0E0,1.545906E-1,0E0,9.500248E0,4.1841536E0,7.905672E0,1.4744509E1,4.2910767E0,2.803419E0,0E0,0E0,0E0,0E0,3.6791642E0,1.3284223E0,7.0124054E0,0E0,0E0,1.37518E0,0E0,0E0,0E0,0E0,0E0,0E0,0E0,0E0,0E0,0E0,0E0,0E0,0E0,0E0,0E0,0E0,0E0,0E0,0E0,0E0,0E0,0E0,0E0,0E0,0E0,0E0,0E0,0E0,0E0,0E0,0E0,0E0,0E0,0E0,0E0,0E0],"parents":[2147483647,0,0,1,1,2,2,3,3,4,4,5,5,6,6,7,7,8,8,9,9,10,10,11,11,12,12,13,13,14,14,15,15,16,16,17,17,18,18,21,21,22,22,23,23,24,24,25,25,26,26,27,27,29,29,30,30,31,31,32,32,33,33,34,34,35,35,36,36,37,37,39,39,41,41,42,42,43,43,44,44,45,45,46,46,51,51,52,52,53,53,56,56],"right_children":[2,4,6,8,10,12,14,16,18,20,22,24,26,28,30,32,34,36,38,-1,-1,40,42,44,46,48,50,52,-1,54,56,58,60,62,64,66,68,70,-1,72,-1,74,76,78,80,82,84,-1,-1,-1,-1,86,88,90,-1,-1,92,-1,-1,-1,-1,-1,-1,-1,-1,-1,-1,-1,-1,-1,-1,-1,-1,-1,-1,-1,-1,-1,-1,-1,-1,-1,-1,-1,-1,-1,-1,-1,-1,-1,-1,-1,-1],"split_conditions":[3.0267594E-2,4.6253867E-2,5.0661672E-2,4.2608354E-2,2.059403E-2,2.7355105E-2,1.358663E-1,6.405483E-2,1.729342E-2,1.0760283E-2,9.8309076E-1,6.992904E-2,4.3784596E-2,2.05E1,6.5155886E-2,6.858137E-2,6.411024E-2,3.769565E-2,7.002157E-2,-1.3825795E-1,3.135559E-2,4.8232973E-2,4.531025E-2,6.343621E-1,3.9936032E-2,3.2883517E-2,3.6844485E-2,5.931317E-2,1.0888354E-1,7.374172E-2,6.463343E-2,5.85711E-2,4.4075757E-2,3.801036E-2,3.1291313E-2,4.4775043E-2,1.9458525E-1,5.9608318E-2,1.4130072E-1,6.0152583E-2,7.3696873E-3,8.57964E-2,6.4652845E-2,4.059067E-2,5.414562E-2,4.5960885E-1,3.6908027E-2,1.712559E-1,-2.5515232E-2,-6.797447E-2,1.00361995E-1,3.817013E-2,6.486914E-2,1.4755157E-1,-7.233815E-2,-9.083625E-2,2.5E0,-1.3991491E-1,1.4311516E-1,7.322412E-2,-9.003394E-2,-1.085932E-1,5.3792376E-2,1.271026E-1,-2.119009E-2,9.472563E-2,-9.243407E-2,-7.84375E-2,1.1989766E-1,-6.719949E-2,3.4871813E-2,1.5817387E-1,4.774982E-2,7.498004E-2,-1.275966E-1,-6.275206E-2,7.827109E-2,-7.658992E-3,1.2512116E-1,-1.0190153E-2,1.4891066E-1,1.458794E-1,-2.7177338E-2,5.792735E-2,-8.61643E-2,-1.1881558E-1,2.9687598E-2,-1.0641766E-3,1.069345E-1,1.2930039E-1,-2.0805694E-2,-3.029891E-2,6.884139E-2],"split_indices":[170313,170452,419097,81931,419097,388485,761,96119,356167,196092,419824,175564,193983,1,406033,347284,374089,350349,328737,0,0,419102,141586,328737,419097,378638,2,6848,0,176092,6848,157461,378638,419097,164362,247363,247484,419097,0,410436,0,41037,328737,374089,96119,2,193983,0,0,0,0,193983,419097,22408,0,0,4,0,0,0,0,0,0,0,0,0,0,0,0,0,0,0,0,0,0,0,0,0,0,0,0,0,0,0,0,0,0,0,0,0,0,0,0],"split_type":[0,0,0,0,0,0,0,0,0,0,0,0,0,0,0,0,0,0,0,0,0,0,0,0,0,0,0,0,0,0,0,0,0,0,0,0,0,0,0,0,0,0,0,0,0,0,0,0,0,0,0,0,0,0,0,0,0,0,0,0,0,0,0,0,0,0,0,0,0,0,0,0,0,0,0,0,0,0,0,0,0,0,0,0,0,0,0,0,0,0,0,0,0],"sum_hessian":[2.0069193E4,1.9727195E4,3.419992E2,1.9567225E4,1.5997061E2,1.8589389E2,1.561053E2,1.9474879E4,9.2344185E1,4.8501487E0,1.5512047E2,1.6650385E2,1.9390049E1,1.2884409E1,1.4322089E2,1.9427271E4,4.7607376E1,6.123575E1,3.110844E1,3.6283011E0,1.2218478E0,2.276394E1,1.3235652E2,1.4476402E2,2.1739822E1,1.6465319E1,2.9247313E0,9.760078E0,3.1243298E0,1.36858E2,6.362893E0,1.9364412E4,6.2859516E1,4.4033136E0,4.320406E1,6.6848297E0,5.455092E1,2.8683834E1,2.4246073E0,2.1557236E1,1.206706E0,1.2058715E2,1.176938E1,2.2302813E1,1.22461205E2,1.8280138E1,3.459683E0,1.5239077E1,1.2262421E0,1.6923409E0,1.2323905E0,6.138853E0,3.6212258E0,1.3469711E2,2.1608791E0,1.9848034E0,4.37809E0,1.9336719E4,2.769433E1,5.8661167E1,4.1983523E0,2.4411893E0,1.9621246E0,3.976174E1,3.4423175E0,1.4599519E0,5.224878E0,2.6123588E0,5.1938557E1,2.0822554E1,7.861281E0,2.0352154E1,1.2050803E0,1.190982E2,1.4889497E0,1.0069161E1,1.7002181E0,5.890179E0,1.6412634E1,1.1733453E2,5.126671E0,1.7034735E1,1.2454042E0,1.9783698E0,1.4813132E0,4.173903E0,1.9649502E0,1.9532843E0,1.6679415E0,1.317738E2,2.923311E0,1.4627714E0,2.9153185E0],"tree_param":{"num_deleted":"0","num_feature":"426016","num_nodes":"93","size_leaf_vector":"0"}},{"base_weights":[-1.2492584E0,-1.2724744E0,6.90936E-1,-1.285736E0,5.083836E-1,8.699203E-1,1.7769459E-1,-1.2921156E0,1.3507977E0,1.9267593E-1,1.3540756E0,5.7255614E-1,1.101052E0,-4.085738E-1,5.04504E-1,-1.3001957E0,6.702264E-1,1.4349493E0,-5.2950038E-3,3.2329142E-1,-8.921917E-1,-6.816337E-2,1.6017426E0,-8.882444E-1,6.442816E-1,-7.6166993E-1,1.1333625E0,-5.683008E-1,1.0867497E0,7.1343493E-1,-1.0129828E0,-1.306807E0,9.5121616E-1,1.2161199E-1,1.1374302E0,-3.022142E-1,1.4934161E0,-8.836622E-1,9.827627E-1,5.44978E-1,-3.237449E-1,-1.3250883E0,5.4571337E-1,-1.1000513E0,5.621359E-1,-2.9215336E-1,1.6975207E0,7.4675065E-1,-5.5363023E-1,1.1741332E0,-3.9186636E-1,-8.1579226E-1,4.589762E-1,8.890932E-1,-4.8294365E-1,2.1523482E-1,-1.441773E0,-1.311871E0,1.4628851E0,1.3854792E0,3.637662E-1,-5.8336633E-1,5.4427445E-1,-8.0370927E-1,1.2392714E0,1.5548775E0,-2.9000342E-1,7.563916E-1,-3.5809234E-1,-5.3705364E-1,1.046824E0,-3.4066617E-1,-1.422487E0,9.2391443E-1,-8.12182E-2,9.6480143E-1,-1.2072639E-1,1.7813463E0,-2.603106E-1,-9.911182E-1,8.201215E-1,1.4278093E-1,-1.2898754E0,-1.4705467E-1,1.2196693E0,-9.978327E-1,6.8483496E-1,9.636814E-1,-5.2961206E-1,-7.6106673E-1,1.0525727E0,-1.3008902E0,3.2017723E-1],"categories":[],"categories_nodes":[],"categories_segments":[],"categories_sizes":[],"default_left":[true,true,true,true,true,true,true,true,true,true,false,true,false,true,true,true,false,false,false,true,true,false,false,false,true,false,true,false,false,true,false,true,true,true,false,false,true,false,false,true,true,true,false,false,true,false,true,false,true,false,false,true,true,false,false,false,false,false,false,false,false,false,false,false,false,false,false,false,false,false,false,false,false,false,false,false,false,false,false,false,false,false,false,false,false,false,false,false,false,false,false,false,false],"id":5,"left_children":[1,3,5,7,9,11,13,15,17,19,21,23,25,27,29,31,33,35,37,39,41,43,45,-1,47,-1,49,51,-1,53,55,57,59,61,63,-1,65,-1,-1,67,69,71,73,-1,75,-1,77,79,81,83,-1,85,87,89,91,-1,-1,-1,-1,-1,-1,-1,-1,-1,-1,-1,-1,-1,-1,-1,-1,-1,-1,-1,-1,-1,-1,-1,-1,-1,-1,-1,-1,-1,-1,-1,-1,-1,-1,-1,-1,-1,-1],"loss_changes":[8.6408984E2,4.4789844E2,2.072091E1,3.1792578E2,3.7303955E1,1.0932312E1,1.170483E1,2.982168E2,5.2414856E0,1.4970963E1,1.3522636E1,8.4995E0,6.495102E0,5.8800488E0,1.3081835E1,2.7924023E2,1.9741566E1,4.837776E0,4.058836E0,1.3547274E1,7.8195753E0,4.915519E0,6.3863907E0,0E0,9.336885E0,0E0,6.2048187E0,5.602486E0,0E0,7.7534256E0,3.012446E0,2.6311328E2,1.3593807E1,1.1280342E1,9.2531395E0,0E0,5.0491257E0,0E0,0E0,1.3597389E1,7.699982E0,3.8354015E-1,8.684797E-1,0E0,1.4262474E0,0E0,5.5606537E0,9.406208E0,3.4157572E0,5.6075287E0,0E0,5.308488E0,2.821612E0,9.093996E0,3.7732441E0,0E0,0E0,0E0,0E0,0E0,0E0,0E0,0E0,0E0,0E0,0E0,0E0,0E0,0E0,0E0,0E0,0E0,0E0,0E0,0E0,0E0,0E0,0E0,0E0,0E0,0E0,0E0,0E0,0E0,0E0,0E0,0E0,0E0,0E0,0E0,0E0,0E0,0E0],"parents":[2147483647,0,0,1,1,2,2,3,3,4,4,5,5,6,6,7,7,8,8,9,9,10,10,11,11,12,12,13,13,14,14,15,15,16,16,17,17,18,18,19,19,20,20,21,21,22,22,24,24,26,26,27,27,29,29,30,30,31,31,32,32,33,33,34,34,36,36,39,39,40,40,41,41,42,42,44,44,46,46,47,47,48,48,49,49,51,51,52,52,53,53,54,54],"right_children":[2,4,6,8,10,12,14,16,18,20,22,24,26,28,30,32,34,36,38,40,42,44,46,-1,48,-1,50,52,-1,54,56,58,60,62,64,-1,66,-1,-1,68,70,72,74,-1,76,-1,78,80,82,84,-1,86,88,90,92,-1,-1,-1,-1,-1,-1,-1,-1,-1,-1,-1,-1,-1,-1,-1,-1,-1,-1,-1,-1,-1,-1,-1,-1,-1,-1,-1,-1,-1,-1,-1,-1,-1,-1,-1,-1,-1,-1],"split_conditions":[4.1186236E-2,4.8296664E-2,1.9335937E-2,6.631996E-2,5.480449E-2,3.4318987E-2,3.5510518E-2,5.143802E-2,5.6E1,2.5285263E-2,1.4036964E-1,4.5E0,5.6255355E-2,3.4146238E-2,5.5041365E-2,6.330174E-2,1.0990742E-1,2.5121915E-1,7.6726407E-1,3.6448687E-2,8.8076696E-2,7.7556565E-2,9.426888E-2,-8.882444E-2,4.0505707E-2,-7.6166995E-2,8.8315286E-2,8.638263E-2,1.08674966E-1,3.5592884E-2,3.8934723E-2,7.3696315E-2,1.315E2,2.2428907E-2,6.762975E-2,-3.0221421E-2,5.1392365E-2,-8.8366225E-2,9.827627E-2,2.0204622E-2,1.5E0,3.5E0,1.065243E-1,-1.1000513E-1,3.1506546E-2,-2.9215336E-2,6.745818E-2,5.1092997E-2,1.9972617E-2,8.359659E-2,-3.9186638E-2,5.8343917E-2,2E0,2.5558375E-2,8.565937E-2,2.1523481E-2,-1.441773E-1,-1.3118711E-1,1.4628851E-1,1.3854793E-1,3.637662E-2,-5.8336634E-2,5.4427445E-2,-8.0370925E-2,1.2392714E-1,1.5548776E-1,-2.9000342E-2,7.563916E-2,-3.5809234E-2,-5.3705364E-2,1.046824E-1,-3.4066617E-2,-1.422487E-1,9.2391446E-2,-8.12182E-3,9.6480146E-2,-1.207264E-2,1.7813464E-1,-2.603106E-2,-9.911182E-2,8.2012154E-2,1.4278093E-2,-1.2898754E-1,-1.4705467E-2,1.21966936E-1,-9.978327E-2,6.8483494E-2,9.636814E-2,-5.2961208E-2,-7.6106675E-2,1.0525727E-1,-1.3008903E-1,3.2017723E-2],"split_indices":[170452,328737,350349,157461,419097,419097,419097,195956,1,10267,208017,7,374912,22396,763,82241,195956,356053,2,6848,328745,27803,423150,0,412685,0,419108,2,0,268798,419097,128570,0,419097,412685,0,378638,0,0,183095,3,5,419097,0,41037,0,393789,369559,359024,176158,0,141180,3,406033,317299,0,0,0,0,0,0,0,0,0,0,0,0,0,0,0,0,0,0,0,0,0,0,0,0,0,0,0,0,0,0,0,0,0,0,0,0,0,0],"split_type":[0,0,0,0,0,0,0,0,0,0,0,0,0,0,0,0,0,0,0,0,0,0,0,0,0,0,0,0,0,0,0,0,0,0,0,0,0,0,0,0,0,0,0,0,0,0,0,0,0,0,0,0,0,0,0,0,0,0,0,0,0,0,0,0,0,0,0,0,0,0,0,0,0,0,0,0,0,0,0,0,0,0,0,0,0,0,0,0,0,0,0,0,0],"sum_hessian":[1.916285E4,1.8936602E4,2.26248E2,1.8796906E4,1.3969685E2,1.6723328E2,5.901472E1,1.8752041E4,4.4864033E1,1.026166E2,3.708025E1,7.46583E1,9.257498E1,2.1033041E1,3.798168E1,1.867548E4,7.656046E1,4.218793E1,2.6761012E0,9.221601E1,1.0400588E1,5.606939E0,3.147331E1,2.9613757E0,7.169692E1,1.1935326E0,9.138145E1,1.9563284E1,1.4697564E0,3.3850876E1,4.130805E0,1.8621219E4,5.4262123E1,3.579199E1,4.0768475E1,1.2379197E0,4.095001E1,1.4726217E0,1.2034795E0,6.880118E1,2.3414827E1,8.0542345E0,2.3463535E0,1.8435333E0,3.7634053E0,1.4163511E0,3.005696E1,6.639421E1,5.3027153E0,8.922653E1,2.154913E0,1.59310465E1,3.632237E0,2.9741E1,4.1098766E0,1.1978242E0,2.9329805E0,1.858776E4,3.345947E1,3.041779E1,2.3844334E1,1.3273044E1,2.2518944E1,1.6887299E0,3.9079746E1,3.9709656E1,1.2403536E0,5.5881462E1,1.2919722E1,2.0787683E1,2.6271427E0,1.1300746E0,6.92416E0,1.168025E0,1.1783283E0,2.107683E0,1.6557225E0,2.8909334E1,1.1476257E0,2.1828463E0,6.4211365E1,3.1393173E0,2.163398E0,2.8985422E0,8.6327995E1,1.4506344E1,1.4247026E0,2.4212883E0,1.210949E0,2.3513248E0,2.7389675E1,1.7290819E0,2.3807948E0],"tree_param":{"num_deleted":"0","num_feature":"426016","num_nodes":"93","size_leaf_vector":"0"}},{"base_weights":[-1.1882205E0,-1.2231456E0,6.803673E-1,-1.2392349E0,5.875243E-1,7.7840775E-1,-2.1652304E-1,-1.2488499E0,5.3350943E-1,-9.447453E-1,6.5172833E-1,4.8792794E-1,9.9572116E-1,6.423986E-1,-5.4860467E-1,-1.2588569E0,2.175033E-1,-2.4700359E-2,9.148412E-1,4.290942E-1,-1.3095651E0,7.251491E-1,-3.2981795E-1,6.181995E-1,-5.2122587E-1,-5.5395895E-1,1.0671986E0,-1.4368074E-1,1.0723908E0,-1.0414792E0,-2.1270446E-2,-1.2833039E0,-7.901179E-1,-1.9891295E-1,1.2128226E0,-1.6867629E-1,1.4876482E0,5.763271E-1,1.3444008E0,1.2519345E-2,8.236189E-1,-8.821507E-1,5.7423407E-1,7.229242E-1,-4.6008635E-1,5.369623E-1,-8.619054E-1,1.1017071E0,-1.2032518E0,1.089717E0,-8.751583E-1,6.501666E-1,-1.036809E0,1.2840647E0,6.9233224E-2,-1.2028179E0,2.94788E-1,7.8532594E-1,-5.860485E-1,-1.2861885E0,1.9255888E0,-9.2129683E-1,-8.527714E-2,-4.756023E-1,6.3009703E-1,-5.601667E-1,1.3658181E0,-3.0414152E-1,1.528534E0,8.7085766E-1,-7.3946536E-1,-5.412691E-1,1.4633034E0,4.547982E-1,-7.8372896E-1,8.586889E-1,-1.2473161E0,5.497632E-1,-1.2492579E0,9.811502E-1,-3.4977597E-1,1.3577054E0,5.220498E-1,1.0054514E0,-8.2649297E-1,-2.784496E-1,9.385454E-1,4.818181E-1,-1.0515743E0,-2.9367635E-1,-1.4694097E0,1.121962E0,-1.9532867E-1,-2.7173862E-2,-1.3344922E0,-5.008393E-1,1.2056967E0,-9.625856E-1,5.689219E-1],"categories":[],"categories_nodes":[],"categories_segments":[],"categories_sizes":[],"default_left":[true,true,true,true,false,true,true,true,false,false,true,true,false,false,true,false,false,true,true,false,false,false,false,true,false,false,true,true,true,true,false,true,true,true,false,true,false,true,false,true,true,false,true,false,false,true,false,false,true,true,false,false,false,false,false,false,false,true,true,false,false,false,false,false,false,false,false,false,false,false,false,false,false,false,false,false,false,false,false,false,false,false,false,false,false,false,false,false,false,false,false,false,false,false,false,false,false,false,false],"id":6,"left_children":[1,3,5,7,9,11,13,15,17,19,21,23,25,27,29,31,33,35,37,-1,-1,39,41,43,45,47,49,51,53,55,57,59,61,63,65,67,-1,69,71,73,75,77,79,81,83,85,87,-1,89,91,-1,-1,-1,-1,-1,93,-1,95,97,-1,-1,-1,-1,-1,-1,-1,-1,-1,-1,-1,-1,-1,-1,-1,-1,-1,-1,-1,-1,-1,-1,-1,-1,-1,-1,-1,-1,-1,-1,-1,-1,-1,-1,-1,-1,-1,-1,-1,-1],"loss_changes":[1.1887637E3,5.213008E2,2.959253E1,3.025703E2,1.6165588E1,1.856961E1,9.980773E0,2.5878125E2,2.0510618E1,3.9525208E0,1.1214638E1,1.7563354E1,1.9612213E1,3.4911332E0,6.4453077E0,1.9949414E2,5.0086292E1,8.9690075E0,7.5443726E0,0E0,0E0,9.954971E0,6.142372E0,1.3500614E1,6.0638485E0,1.0172476E1,8.14827E0,3.774409E0,1.2913146E0,3.1230211E0,6.4016566E0,1.564043E2,8.035718E1,1.994555E1,1.0425884E1,9.076607E0,0E0,1.3722229E1,6.2772293E0,6.785541E0,1.0131729E1,4.5769544E0,2.180344E0,1.2893665E1,6.702307E0,1.7021267E0,3.5998783E0,0E0,1.1152573E0,6.975403E0,0E0,0E0,0E0,0E0,0E0,1.7678928E0,0E0,3.7389805E0,4.132746E0,0E0,0E0,0E0,0E0,0E0,0E0,0E0,0E0,0E0,0E0,0E0,0E0,0E0,0E0,0E0,0E0,0E0,0E0,0E0,0E0,0E0,0E0,0E0,0E0,0E0,0E0,0E0,0E0,0E0,0E0,0E0,0E0,0E0,0E0,0E0,0E0,0E0,0E0,0E0,0E0],"parents":[2147483647,0,0,1,1,2,2,3,3,4,4,5,5,6,6,7,7,8,8,9,9,10,10,11,11,12,12,13,13,14,14,15,15,16,16,17,17,18,18,21,21,22,22,23,23,24,24,25,25,26,26,27,27,28,28,29,29,30,30,31,31,32,32,33,33,34,34,35,35,37,37,38,38,39,39,40,40,41,41,42,42,43,43,44,44,45,45,46,46,48,48,49,49,55,55,57,57,58,58],"right_children":[2,4,6,8,10,12,14,16,18,20,22,24,26,28,30,32,34,36,38,-1,-1,40,42,44,46,48,50,52,54,56,58,60,62,64,66,68,-1,70,72,74,76,78,80,82,84,86,88,-1,90,92,-1,-1,-1,-1,-1,94,-1,96,98,-1,-1,-1,-1,-1,-1,-1,-1,-1,-1,-1,-1,-1,-1,-1,-1,-1,-1,-1,-1,-1,-1,-1,-1,-1,-1,-1,-1,-1,-1,-1,-1,-1,-1,-1,-1,-1,-1,-1,-1],"split_conditions":[2.6959876E-2,5.0749674E-2,1.5864354E-2,3.618559E-2,2.3526695E-2,4.3145627E-2,2.445178E-2,4.83576E-2,1.01402715E-1,2.498458E-2,6.257807E-2,5.3936973E-2,8.9473784E-2,7.476078E-2,3.7394468E-2,4.255435E-1,1.2775591E-1,8.3177894E-2,4.0070623E-2,4.290942E-2,-1.3095652E-1,7.66298E-2,1.0643697E-1,2.973681E-2,1.2763861E-1,3.5385694E-2,8.7582484E-2,7.90303E-1,2.9994633E-2,3.206703E-2,4.3782555E-2,7.7706866E-2,5.387096E-2,4.881542E-2,6.946553E-2,3.393138E-2,1.4876483E-1,5.838561E-2,1.8283314E-1,3.1131733E-2,1.0828037E-1,1.547001E-1,7.973643E-2,7.51103E-1,1.483979E-1,3.784806E-2,1.7280425E-1,1.10170715E-1,2.226952E-2,2.148884E-1,-8.751583E-2,6.501666E-2,-1.036809E-1,1.2840647E-1,6.9233226E-3,8.870973E-2,2.9478801E-2,6.9237745E-1,2.9994626E-2,-1.2861885E-1,1.9255888E-1,-9.2129685E-2,-8.527714E-3,-4.756023E-2,6.30097E-2,-5.6016672E-2,1.3658182E-1,-3.0414153E-2,1.5285341E-1,8.708577E-2,-7.3946536E-2,-5.4126915E-2,1.4633034E-1,4.547982E-2,-7.8372896E-2,8.586889E-2,-1.24731615E-1,5.497632E-2,-1.2492579E-1,9.811502E-2,-3.4977596E-2,1.3577054E-1,5.2204978E-2,1.00545146E-1,-8.26493E-2,-2.784496E-2,9.385454E-2,4.8181813E-2,-1.05157435E-1,-2.9367635E-2,-1.4694098E-1,1.121962E-1,-1.9532867E-2,-2.7173862E-3,-1.3344923E-1,-5.008393E-2,1.2056967E-1,-9.6258566E-2,5.6892194E-2],"split_indices":[170313,170452,8108,81931,419097,419097,11891,345954,81931,88239,763,41037,352472,170313,419097,2,345954,11,419097,0,0,140364,170452,141588,362948,268798,291367,9,359024,210503,419097,87901,419097,419097,350349,77658,0,247363,75660,236708,141588,2739,22396,175564,23028,406033,61210,0,11891,362948,0,0,0,0,0,78395,0,9,225645,0,0,0,0,0,0,0,0,0,0,0,0,0,0,0,0,0,0,0,0,0,0,0,0,0,0,0,0,0,0,0,0,0,0,0,0,0,0,0,0],"split_type":[0,0,0,0,0,0,0,0,0,0,0,0,0,0,0,0,0,0,0,0,0,0,0,0,0,0,0,0,0,0,0,0,0,0,0,0,0,0,0,0,0,0,0,0,0,0,0,0,0,0,0,0,0,0,0,0,0,0,0,0,0,0,0,0,0,0,0,0,0,0,0,0,0,0,0,0,0,0,0,0,0,0,0,0,0,0,0,0,0,0,0,0,0,0,0,0,0,0,0],"sum_hessian":[1.820187E4,1.7868244E4,3.3362387E2,1.7711182E4,1.5706265E2,3.0086768E2,3.27562E1,1.7615932E4,9.5249756E1,5.764902E0,1.5129776E2,1.3014711E2,1.7072055E2,8.8727E0,2.3883501E1,1.749667E4,1.1926298E2,3.90386E1,5.621116E1,1.1726713E0,4.592231E0,1.4101118E2,1.0286575E1,1.1561039E2,1.4536727E1,7.2295294E0,1.6349103E2,3.372748E0,5.499952E0,1.1841146E1,1.2042354E1,1.6627719E4,8.689498E2,8.464839E1,3.4614582E1,3.645641E1,2.582191E0,3.2746765E1,2.3464392E1,1.7256002E1,1.2375518E2,6.400438E0,3.8861372E0,1.056765E2,9.9338875E0,3.3999517E0,1.1136776E1,1.8402356E0,5.3892937E0,1.6205128E2,1.4397355E0,1.9296415E0,1.4431064E0,4.3104014E0,1.1895504E0,1.0654595E1,1.1865515E0,4.798623E0,7.2437305E0,1.6613383E4,1.433583E1,7.32345E2,1.3660486E2,6.378567E1,2.0862724E1,2.5382907E0,3.207629E1,3.45218E1,1.9346075E0,2.7033632E1,5.713133E0,1.1811057E0,2.2283287E1,1.1369563E1,5.8864393E0,1.2226997E2,1.485203E0,1.2045388E0,5.195899E0,2.6550608E0,1.2310765E0,2.4018114E1,8.165839E1,1.6380394E0,8.295848E0,1.2230918E0,2.1768599E0,1.1870097E0,9.949766E0,1.6961646E0,3.693129E0,1.5820836E2,3.842935E0,1.1946471E0,9.459948E0,1.1348909E0,3.6637323E0,5.588402E0,1.655329E0],"tree_param":{"num_deleted":"0","num_feature":"426016","num_nodes":"99","size_leaf_vector":"0"}},{"base_weights":[-1.133487E0,-1.16677E0,6.247958E-1,-1.1763114E0,1.1277186E0,1.0235921E-1,7.692852E-1,-1.1856465E0,6.960854E-1,1.2359675E0,-2.4596986E-1,-1.0262885E-1,8.993534E-1,8.742477E-1,1.5210971E-1,-1.1952714E0,5.5510306E-1,2.131711E-1,1.1717747E0,1.2900187E0,-7.115904E-1,4.641576E-1,-1.03142E0,-2.5249472E-1,1.2479676E0,-5.2696204E-1,1.1564062E0,6.3575983E-1,1.0829428E0,3.1457493E-1,-8.0600417E-1,-1.2057045E0,2.56664E-1,-1.3588029E-1,9.6643823E-1,-6.5316105E-1,5.7808596E-1,-9.759583E-1,1.2597653E0,-5.3019917E-1,1.3362992E0,-2.8223106E-1,8.8937336E-1,9.893976E-3,-9.784319E-1,2.322018E-1,1.4607624E0,-3.632638E-1,1.3831112E0,7.2622406E-1,-5.18445E-1,1.117703E0,-6.1434704E-1,4.9096823E-1,-6.7903566E-1,-6.7953154E-2,-1.0188862E0,-1.2114986E0,1.0359511E0,-1.0267344E-1,1.1607374E0,2.88324E-1,-6.925567E-1,1.0632789E0,-4.115179E-1,1.0781473E0,-8.975969E-1,9.5813745E-1,-4.0864018E-1,1.3572097E0,-3.1829968E-1,1.382644E0,2.6776168E-1,-1.1962824E0,2.0024446E-1,7.374314E-1,-1.2706112E0,1.5842582E0,-1.4394024E-1,7.7076507E-1,-8.040083E-1,-1.2365627E0,4.5809743E-1,-1.08771876E-1,1.1593869E0,6.385723E-1,-8.857912E-1,-1.116576E0,4.6826503E-1],"categories":[],"categories_nodes":[],"categories_segments":[],"categories_sizes":[],"default_left":[true,true,false,true,true,true,true,true,false,true,true,true,true,true,true,true,false,true,false,false,false,false,false,true,false,false,false,true,true,true,false,true,true,true,true,true,true,false,true,false,true,false,false,false,false,false,false,false,true,true,false,false,false,true,true,false,false,false,false,false,false,false,false,false,false,false,false,false,false,false,false,false,false,false,false,false,false,false,false,false,false,false,false,false,false,false,false,false,false],"id":7,"left_children":[1,3,5,7,9,11,13,15,17,19,21,23,25,27,29,31,33,35,37,39,-1,41,-1,43,45,-1,47,49,51,53,55,57,59,61,63,65,67,-1,69,-1,71,-1,-1,73,75,-1,-1,-1,77,79,81,83,-1,85,87,-1,-1,-1,-1,-1,-1,-1,-1,-1,-1,-1,-1,-1,-1,-1,-1,-1,-1,-1,-1,-1,-1,-1,-1,-1,-1,-1,-1,-1,-1,-1,-1,-1,-1],"loss_changes":[1.00973047E3,3.7178906E2,2.4149483E1,2.953828E2,1.0800285E1,1.1641163E1,1.614444E1,2.8161914E2,1.9099728E1,7.823181E0,3.8198235E0,1.1877745E1,5.9492064E0,9.989349E0,6.1270475E0,2.5293555E2,2.6533337E1,1.39781E1,9.206512E0,6.115135E0,0E0,1.468313E0,0E0,9.962402E0,9.30459E-1,0E0,4.861723E0,1.1083591E1,7.353073E0,6.113923E0,8.344033E-1,2.1632227E2,3.903981E1,8.592124E0,8.224121E0,6.56235E0,1.194209E1,0E0,6.734604E0,0E0,2.7433472E0,0E0,0E0,9.27858E0,7.896652E0,0E0,0E0,0E0,3.6740131E0,7.1293297E0,6.202259E0,5.805069E0,0E0,6.375456E0,3.2295926E0,0E0,0E0,0E0,0E0,0E0,0E0,0E0,0E0,0E0,0E0,0E0,0E0,0E0,0E0,0E0,0E0,0E0,0E0,0E0,0E0,0E0,0E0,0E0,0E0,0E0,0E0,0E0,0E0,0E0,0E0,0E0,0E0,0E0,0E0],"parents":[2147483647,0,0,1,1,2,2,3,3,4,4,5,5,6,6,7,7,8,8,9,9,10,10,11,11,12,12,13,13,14,14,15,15,16,16,17,17,18,18,19,19,21,21,23,23,24,24,26,26,27,27,28,28,29,29,30,30,31,31,32,32,33,33,34,34,35,35,36,36,38,38,40,40,43,43,44,44,48,48,49,49,50,50,51,51,53,53,54,54],"right_children":[2,4,6,8,10,12,14,16,18,20,22,24,26,28,30,32,34,36,38,40,-1,42,-1,44,46,-1,48,50,52,54,56,58,60,62,64,66,68,-1,70,-1,72,-1,-1,74,76,-1,-1,-1,78,80,82,84,-1,86,88,-1,-1,-1,-1,-1,-1,-1,-1,-1,-1,-1,-1,-1,-1,-1,-1,-1,-1,-1,-1,-1,-1,-1,-1,-1,-1,-1,-1,-1,-1,-1,-1,-1,-1],"split_conditions":[3.072643E-2,3.6927275E-2,7.691628E-2,5.143802E-2,2.6793227E-2,1.5E0,1.08955726E-1,4.077901E-2,1.109492E-1,5.559083E-2,2.4346177E-2,3.2993354E-2,5.35E1,4.8904248E-2,8.861346E-2,4.8388578E-2,9.38074E-2,2.2430263E-2,1.3816895E-1,9.243362E-2,-7.115904E-2,2.944659E-1,-1.03142E-1,3.0098628E-2,7.654366E-2,-5.2696206E-2,2.6123963E-2,4.797458E-2,1.742816E-1,3.4644805E-2,1.02222614E-1,8.392652E-2,4.9889743E-2,2.1680735E-2,6.235026E-2,7.12963E-1,2.1689245E-2,-9.759583E-2,3.59156E-2,-5.301992E-2,3.6385886E-2,-2.8223107E-2,8.8937335E-2,4.286056E-2,4.706162E-2,2.322018E-2,1.4607625E-1,-3.632638E-2,4.5339935E-2,5.3677663E-2,1.2757963E-1,7.7550456E-2,-6.1434705E-2,4.0495187E-2,5.5261947E-2,-6.7953155E-3,-1.0188862E-1,-1.2114986E-1,1.03595115E-1,-1.0267344E-2,1.1607374E-1,2.88324E-2,-6.925567E-2,1.0632789E-1,-4.1151788E-2,1.0781473E-1,-8.975969E-2,9.5813744E-2,-4.0864017E-2,1.3572097E-1,-3.1829968E-2,1.382644E-1,2.6776168E-2,-1.1962824E-1,2.0024447E-2,7.374314E-2,-1.2706111E-1,1.5842582E-1,-1.4394024E-2,7.707651E-2,-8.040083E-2,-1.2365627E-1,4.5809742E-2,-1.0877187E-2,1.15938686E-1,6.385723E-2,-8.857912E-2,-1.116576E-1,4.6826504E-2],"split_indices":[170313,96119,170313,195956,14821,3,362948,81931,195956,283748,378638,92659,7,419097,406033,345954,81931,419097,72223,141827,0,193988,0,406033,13075,0,334158,7909,45238,268798,208017,136151,419097,208017,193983,9,18315,0,10267,0,37617,0,0,152278,140559,0,0,0,13,356053,170313,352472,0,37617,391912,0,0,0,0,0,0,0,0,0,0,0,0,0,0,0,0,0,0,0,0,0,0,0,0,0,0,0,0,0,0,0,0,0,0],"split_type":[0,0,0,0,0,0,0,0,0,0,0,0,0,0,0,0,0,0,0,0,0,0,0,0,0,0,0,0,0,0,0,0,0,0,0,0,0,0,0,0,0,0,0,0,0,0,0,0,0,0,0,0,0,0,0,0,0,0,0,0,0,0,0,0,0,0,0,0,0,0,0,0,0,0,0,0,0,0,0,0,0,0,0,0,0,0,0,0,0],"sum_hessian":[1.7240715E4,1.6920754E4,3.1996085E2,1.6851168E4,6.958677E1,6.96896E1,2.5027124E2,1.6767936E4,8.3231895E1,6.4596695E1,4.990074E0,5.6125317E1,1.3564283E1,2.135384E2,3.6732826E1,1.6676045E4,9.1891014E1,4.2020897E1,4.1211E1,6.318084E1,1.4158523E0,2.8355246E0,2.1545498E0,5.1251373E1,4.8739433E0,1.9109468E0,1.1653337E1,1.015443E2,1.1199412E2,3.198147E1,4.751354E0,1.655724E4,1.1880467E2,3.4539433E1,5.7351578E1,1.2219971E1,2.9800926E1,1.2247528E0,3.9986244E1,1.3073275E0,6.1873512E1,1.1511517E0,1.6843729E0,3.8369247E1,1.2882127E1,1.2064086E0,3.6675346E0,1.4345784E0,1.0218759E1,9.4507774E1,7.036524E0,1.10081154E2,1.9129585E0,2.7589457E1,4.3920145E0,1.358995E0,3.3923593E0,1.6515012E4,4.2227818E1,8.5648735E1,3.3155937E1,1.987565E1,1.4663784E1,5.3799026E1,3.5525484E0,1.0898612E0,1.113011E1,2.1535282E1,8.265645E0,3.7792534E1,2.19371E0,5.9019737E1,2.8537748E0,4.5095253E0,3.3859722E1,1.6526737E0,1.1229453E1,8.996284E0,1.2224752E0,9.231698E1,2.1907947E0,3.901339E0,3.1351848E0,3.5654294E0,1.06515724E2,2.540223E1,2.1872265E0,3.198861E0,1.1931536E0],"tree_param":{"num_deleted":"0","num_feature":"426016","num_nodes":"89","size_leaf_vector":"0"}},{"base_weights":[-1.0860012E0,-1.1202847E0,5.8814454E-1,-1.1331631E0,6.412963E-1,-1.6207032E-1,6.890936E-1,-1.1424237E0,9.2452663E-1,8.5645366E-1,-4.0168177E-2,-3.3608708E-1,1.0894567E0,7.848239E-1,1.8284509E-1,-1.1571653E0,-2.0923615E-2,-7.8126425E-1,1.0400753E0,4.388343E-2,1.0758191E0,-2.2551347E-1,7.966973E-1,-6.982523E-1,1.4350295E-1,8.3687127E-1,1.1736148E-1,-1.0490693E0,2.778697E-1,-1.1648165E0,7.994499E-1,-8.213725E-2,2.0828993E0,-1.054048E0,1.2579961E-1,-7.495475E-1,1.1076994E0,1.1014894E0,-3.3745193E-1,-4.0437484E-1,1.1941686E0,-4.8231986E-1,7.107662E-1,1.710451E0,1.0781986E-1,-8.4068406E-1,8.815737E-1,6.593602E-1,-6.1988395E-1,-4.8629105E-2,8.842302E-1,-6.9086707E-1,5.7855797E-1,4.2622212E-1,-6.0728663E-1,-1.1712055E0,1.014447E0,9.3113697E-1,-7.359941E-1,-1.696178E-1,1.233935E0,1.1606498E0,-6.959418E-1,1.6112874E0,-1.5421306E-1,-6.874464E-1,9.3879455E-1,-1.1843317E0,6.563323E-1,1.3004022E0,-6.9816366E-2,9.176846E-1,-6.2812334E-1,1.4033582E0,-5.529567E-1,-5.165098E-1,5.491832E-1,4.851335E-1,-1.0146911E0,1.1304035E0,-7.702402E-1,5.980775E-1,-9.7334224E-1,-4.9601552E-1,7.9856104E-1,9.0984476E-1,-5.1390857E-1,-1.0790894E0,-9.809022E-3,-6.408154E-1,8.882962E-1,5.7245374E-1,-6.7420095E-1,-9.929929E-1,7.537692E-1],"categories":[],"categories_nodes":[],"categories_segments":[],"categories_sizes":[],"default_left":[true,true,false,true,true,true,true,true,false,false,true,true,false,true,false,true,true,true,false,false,false,false,false,true,false,false,true,false,true,true,true,true,false,false,false,false,true,true,false,true,true,false,false,false,false,true,false,true,false,true,true,false,false,true,true,false,false,false,false,false,false,false,false,false,false,false,false,false,false,false,false,false,false,false,false,false,false,false,false,false,false,false,false,false,false,false,false,false,false,false,false,false,false,false,false],"id":8,"left_children":[1,3,5,7,9,11,13,15,17,19,21,23,-1,25,27,29,31,33,35,37,39,41,43,45,47,49,51,-1,53,55,57,59,-1,-1,-1,-1,61,63,65,67,69,71,73,-1,75,77,-1,79,81,83,85,87,89,91,93,-1,-1,-1,-1,-1,-1,-1,-1,-1,-1,-1,-1,-1,-1,-1,-1,-1,-1,-1,-1,-1,-1,-1,-1,-1,-1,-1,-1,-1,-1,-1,-1,-1,-1,-1,-1,-1,-1,-1,-1],"loss_changes":[9.3321094E2,3.6194336E2,2.4854195E1,3.0227148E2,1.707132E1,8.981181E0,1.3821106E1,2.6014258E2,1.4880512E1,1.5702599E1,4.6527233E0,6.264953E0,0E0,8.309509E0,5.8082643E0,2.3345898E2,2.6595232E1,1.3942866E0,8.9719925E0,8.367329E0,1.2663628E1,6.2068872E0,3.2458389E0,5.329776E0,6.7489805E0,9.451462E0,7.3590875E0,0E0,6.10794E0,2.1661328E2,1.3038597E1,2.3275143E1,0E0,0E0,0E0,0E0,7.037323E0,3.7619433E0,7.4960556E0,5.65423E0,8.77018E0,4.604803E0,5.7244606E0,0E0,1.4339262E0,4.925845E0,0E0,7.6669188E0,3.5990157E0,5.0723133E0,8.096161E0,1.9033895E0,5.264398E0,6.6192746E0,4.3214936E0,0E0,0E0,0E0,0E0,0E0,0E0,0E0,0E0,0E0,0E0,0E0,0E0,0E0,0E0,0E0,0E0,0E0,0E0,0E0,0E0,0E0,0E0,0E0,0E0,0E0,0E0,0E0,0E0,0E0,0E0,0E0,0E0,0E0,0E0,0E0,0E0,0E0,0E0,0E0,0E0],"parents":[2147483647,0,0,1,1,2,2,3,3,4,4,5,5,6,6,7,7,8,8,9,9,10,10,11,11,13,13,14,14,15,15,16,16,17,17,18,18,19,19,20,20,21,21,22,22,23,23,24,24,25,25,26,26,28,28,29,29,30,30,31,31,36,36,37,37,38,38,39,39,40,40,41,41,42,42,44,44,45,45,47,47,48,48,49,49,50,50,51,51,52,52,53,53,54,54],"right_children":[2,4,6,8,10,12,14,16,18,20,22,24,-1,26,28,30,32,34,36,38,40,42,44,46,48,50,52,-1,54,56,58,60,-1,-1,-1,-1,62,64,66,68,70,72,74,-1,76,78,-1,80,82,84,86,88,90,92,94,-1,-1,-1,-1,-1,-1,-1,-1,-1,-1,-1,-1,-1,-1,-1,-1,-1,-1,-1,-1,-1,-1,-1,-1,-1,-1,-1,-1,-1,-1,-1,-1,-1,-1,-1,-1,-1,-1,-1,-1],"split_conditions":[3.0267594E-2,4.7638427E-2,7.060003E-2,5.1695876E-2,3.0213859E-2,3.6107823E-2,2.5740141E-2,4.5437273E-1,1.096261E-1,7.336854E-2,4.223889E-2,3.0217255E-2,1.0894567E-1,5.575002E-2,4.5079447E-2,8.0620944E-2,1.0351699E-1,2.6141524E-2,1.2849125E-1,3.3752954E-1,1.04399435E-1,7.2E1,1.9511679E-1,4.3072984E-2,4.0209662E-2,9.007109E-2,2.4827586E-2,-1.0490693E-1,3.7512477E-2,4.8962973E-2,4.6245582E-2,6.590681E-2,2.0828994E-1,-1.05404794E-1,1.2579962E-2,-7.495475E-2,4.578878E-2,3.061737E-2,3.55E1,2.0332232E-2,3.2501843E-2,1.4799917E-1,1.4847624E-1,1.7104511E-1,3.728496E-2,3.5E0,8.815737E-2,1.7576009E-2,1.1580401E-1,2.7247474E-2,3.3657205E-1,7.53552E-2,5.1709015E-2,6.0096137E-2,3.2278307E-2,-1.1712056E-1,1.014447E-1,9.31137E-2,-7.359941E-2,-1.6961781E-2,1.233935E-1,1.1606498E-1,-6.959418E-2,1.6112874E-1,-1.5421306E-2,-6.8744645E-2,9.3879454E-2,-1.1843317E-1,6.563323E-2,1.3004021E-1,-6.981637E-3,9.1768466E-2,-6.2812336E-2,1.4033583E-1,-5.5295672E-2,-5.165098E-2,5.491832E-2,4.851335E-2,-1.01469114E-1,1.1304035E-1,-7.702402E-2,5.9807748E-2,-9.733423E-2,-4.960155E-2,7.9856105E-2,9.098448E-2,-5.1390857E-2,-1.0790894E-1,-9.809022E-4,-6.408154E-2,8.882962E-2,5.7245374E-2,-6.7420095E-2,-9.929929E-2,7.537692E-2],"split_indices":[170313,328737,80019,347284,208017,96119,406033,2,82735,247363,11891,43443,0,41037,8108,195956,156707,208017,194057,266168,372651,1,421127,195358,255837,352472,2,0,136327,96119,211574,75615,0,0,0,0,371703,43443,1,356167,14821,194183,328737,0,198407,5,0,335734,416321,421127,170359,41037,208017,763,58019,0,0,0,0,0,0,0,0,0,0,0,0,0,0,0,0,0,0,0,0,0,0,0,0,0,0,0,0,0,0,0,0,0,0,0,0,0,0,0,0],"split_type":[0,0,0,0,0,0,0,0,0,0,0,0,0,0,0,0,0,0,0,0,0,0,0,0,0,0,0,0,0,0,0,0,0,0,0,0,0,0,0,0,0,0,0,0,0,0,0,0,0,0,0,0,0,0,0,0,0,0,0,0,0,0,0,0,0,0,0,0,0,0,0,0,0,0,0,0,0,0,0,0,0,0,0,0,0,0,0,0,0,0,0,0,0,0,0],"sum_hessian":[1.6246858E4,1.5921153E4,3.2570502E2,1.5805957E4,1.1519615E2,3.8557194E1,2.8714783E2,1.5735583E4,7.037397E1,8.735801E1,2.7838139E1,3.4492672E1,4.0645247E0,2.4102109E2,4.612674E1,1.5531399E4,2.0418407E2,4.0991254E0,6.627485E1,1.8825384E1,6.853262E1,2.3388649E1,4.4494896E0,1.9392427E1,1.5100244E1,2.2335083E2,1.7670261E1,2.5842416E0,4.35425E1,1.5471304E4,6.0094963E1,1.993448E2,4.839255E0,3.0268188E0,1.0723068E0,2.0459633E0,6.422888E1,4.48846E0,1.4336925E1,4.894937E0,6.3637688E1,1.873484E1,4.653809E0,1.2751402E0,3.1743493E0,1.8217833E1,1.174595E0,9.092365E0,6.007878E0,1.1337602E1,2.1201323E2,6.238881E0,1.143138E1,3.7736355E1,5.8061438E0,1.5426541E4,4.476353E1,5.5710533E1,4.3844304E0,1.8773688E2,1.1607927E1,6.2743393E1,1.48549E0,2.9909854E0,1.4974746E0,1.1613439E1,2.7234857E0,2.75361E0,2.1413274E0,5.8677258E1,4.9604316E0,1.2677664E0,1.7467073E1,2.9348495E0,1.7189595E0,1.2441622E0,1.9301871E0,1.9061598E0,1.6311672E1,6.9963903E0,2.0959747E0,1.1956799E0,4.812198E0,7.690761E0,3.6468408E0,2.0854189E2,3.4713364E0,3.601496E0,2.6373851E0,2.0990343E0,9.332345E0,3.3733418E1,4.002937E0,4.7347884E0,1.0713555E0],"tree_param":{"num_deleted":"0","num_feature":"426016","num_nodes":"95","size_leaf_vector":"0"}},{"base_weights":[-1.0425931E0,-1.075505E0,5.789258E-1,-1.0938122E0,6.0481066E-1,3.5695282E-1,9.1734433E-1,-1.1014814E0,1.2172312E0,7.101966E-1,-4.16062E-1,2.4186103E-1,1.0853825E0,-4.048728E-1,9.992204E-1,-1.1124765E0,4.6135056E-1,-4.2850664E-1,1.402725E0,8.887788E-1,1.3386041E-1,-8.4181976E-1,4.4345707E-1,1.5801278E-1,1.124292E0,1.1791002E0,-3.0088532E-1,-8.579199E-1,8.7774044E-1,1.0534637E0,-3.1660268E-1,-1.1204138E0,8.14318E-1,-8.638985E-2,1.0928179E0,-1.0718477E0,1.1919409E0,1.5829978E0,-1.8906195E-1,4.176071E-1,1.1834693E0,-1.1645754E-2,1.2697946E0,7.3413295E-1,-1.1006067E0,1.0218823E0,-7.518686E-1,2.9692996E-2,7.3934346E-1,1.3437338E0,-7.774882E-2,1.2748889E0,-3.515187E-1,-1.1719306E0,2.9532246E-2,1.0948873E0,-3.79642E-1,-8.484692E-1,6.6749597E-1,-1.1291741E0,4.9980074E-1,-8.9331603E-1,1.1748564E0,1.8761586E-1,-7.058159E-1,-4.4411924E-1,1.3187625E0,-7.121427E-1,1.6678956E0,1.0920162E0,-7.3520976E-1,-3.606541E-1,5.8993506E-1,1.2504653E0,-4.8187447E-1,1.3246138E-1,-1.2858564E0,4.3838316E-1,-1.3445415E0,2.5276664E-1,1.2384945E0,-8.256987E-1,1.6833915E-1,8.463548E-1,-8.6399144E-1,1.4115354E0,3.7259284E-1,1.4880073E0,7.6801264E-1,-3.636219E-1,-1.411429E0,-7.7947736E-1,1.1264262E0,-1.1163323E0,5.187707E-1,-1.9623488E-1,-1.0707213E0],"categories":[],"categories_nodes":[],"categories_segments":[],"categories_sizes":[],"default_left":[true,true,true,true,true,true,false,true,false,true,false,true,true,true,true,true,true,true,true,true,true,false,false,true,true,true,false,false,false,true,false,true,true,true,false,false,false,false,true,false,true,true,false,false,false,false,false,false,true,true,false,false,false,true,false,false,false,true,false,false,false,false,false,false,false,false,false,false,false,false,false,false,false,false,false,false,false,false,false,false,false,false,false,false,false,false,false,false,false,false,false,false,false,false,false,false,false],"id":9,"left_children":[1,3,5,7,9,11,13,15,17,19,21,23,25,27,29,31,33,35,37,39,41,43,45,47,49,51,-1,53,-1,55,57,59,61,63,65,-1,-1,67,69,71,73,75,-1,-1,77,79,-1,81,83,85,-1,87,-1,89,-1,91,93,95,-1,-1,-1,-1,-1,-1,-1,-1,-1,-1,-1,-1,-1,-1,-1,-1,-1,-1,-1,-1,-1,-1,-1,-1,-1,-1,-1,-1,-1,-1,-1,-1,-1,-1,-1,-1,-1,-1,-1],"loss_changes":[8.151387E2,4.6083594E2,2.2529182E1,2.6362305E2,1.7710331E1,1.5279402E1,1.3383064E1,2.539668E2,1.5687935E1,1.5020294E1,6.1468544E0,1.1762653E1,3.6036835E0,5.2287946E0,8.411903E0,2.2491992E2,3.598024E1,7.2949386E0,1.3111465E1,1.5073517E1,5.9606457E0,5.251682E0,4.8346367E0,1.1058333E1,3.7551155E0,3.912281E0,0E0,1.7617011E0,0E0,6.8823776E0,3.3142548E0,2.0761523E2,3.840203E1,9.71961E0,1.7346676E1,0E0,0E0,9.023415E0,4.6058106E0,6.20599E0,8.237663E0,6.207746E0,0E0,0E0,4.25311E0,4.178605E-1,0E0,1.4693201E1,5.332327E0,2.4827766E-1,0E0,1.2825356E0,0E0,3.777504E-1,0E0,7.1519394E0,3.0959768E0,3.4775162E-1,0E0,0E0,0E0,0E0,0E0,0E0,0E0,0E0,0E0,0E0,0E0,0E0,0E0,0E0,0E0,0E0,0E0,0E0,0E0,0E0,0E0,0E0,0E0,0E0,0E0,0E0,0E0,0E0,0E0,0E0,0E0,0E0,0E0,0E0,0E0,0E0,0E0,0E0,0E0],"parents":[2147483647,0,0,1,1,2,2,3,3,4,4,5,5,6,6,7,7,8,8,9,9,10,10,11,11,12,12,13,13,14,14,15,15,16,16,17,17,18,18,19,19,20,20,21,21,22,22,23,23,24,24,25,25,27,27,29,29,30,30,31,31,32,32,33,33,34,34,37,37,38,38,39,39,40,40,41,41,44,44,45,45,47,47,48,48,49,49,51,51,53,53,55,55,56,56,57,57],"right_children":[2,4,6,8,10,12,14,16,18,20,22,24,26,28,30,32,34,36,38,40,42,44,46,48,50,52,-1,54,-1,56,58,60,62,64,66,-1,-1,68,70,72,74,76,-1,-1,78,80,-1,82,84,86,-1,88,-1,90,-1,92,94,96,-1,-1,-1,-1,-1,-1,-1,-1,-1,-1,-1,-1,-1,-1,-1,-1,-1,-1,-1,-1,-1,-1,-1,-1,-1,-1,-1,-1,-1,-1,-1,-1,-1,-1,-1,-1,-1,-1,-1],"split_conditions":[4.4035114E-2,4.384029E-2,5.4349784E-2,8.109769E-2,4.6556443E-2,6.992904E-2,1.358663E-1,4.4692595E-2,1.8627621E-1,3.8120598E-2,9.353909E-2,8.088282E-2,1.3513118E-1,1.4147577E-1,6.5936655E-2,9.0071306E-2,3.8675018E-2,2.8106863E-2,7.824992E-2,3.04793E-2,1.3714129E-1,2.0936122E-2,1.340656E-1,3.0159209E-2,4.4233307E-2,3.6438257E-2,-3.0088533E-2,1.2E1,8.7774046E-2,1.459129E-1,3.25E1,4.273837E-2,3.1584486E-2,2.9058492E-2,6.391518E-2,-1.0718477E-1,1.1919409E-1,9.6994525E-1,8.5935485E-1,6.0889043E-2,7.21607E-2,4.288713E-2,1.2697946E-1,7.34133E-2,2.245314E-2,1.0781269E-1,-7.518686E-2,6.942654E-2,4.5991447E-2,6.82406E-2,-7.774882E-3,9.02284E-2,-3.515187E-2,8.360215E-1,2.9532246E-3,1.20093584E-1,6.768927E-2,6.65E1,6.6749595E-2,-1.12917416E-1,4.9980074E-2,-8.9331605E-2,1.1748564E-1,1.8761586E-2,-7.058159E-2,-4.4411924E-2,1.3187626E-1,-7.121427E-2,1.6678956E-1,1.09201625E-1,-7.352098E-2,-3.606541E-2,5.8993507E-2,1.2504654E-1,-4.8187446E-2,1.3246139E-2,-1.2858564E-1,4.383832E-2,-1.3445416E-1,2.5276665E-2,1.2384945E-1,-8.256987E-2,1.6833914E-2,8.463548E-2,-8.6399145E-2,1.4115354E-1,3.7259284E-2,1.4880073E-1,7.680126E-2,-3.636219E-2,-1.411429E-1,-7.7947736E-2,1.1264262E-1,-1.11633234E-1,5.187707E-2,-1.9623488E-2,-1.0707213E-1],"split_indices":[170313,170452,419097,136151,763,175564,761,328737,80019,193983,170452,388485,170359,170387,406033,75660,419097,18263,761,419097,419824,11891,761,170452,193983,219635,0,1,0,22408,1,81931,419097,6848,141588,0,0,38377,9,255837,351459,105556,0,0,273204,170452,0,80019,136327,247363,0,22394,0,9,0,414148,419097,0,0,0,0,0,0,0,0,0,0,0,0,0,0,0,0,0,0,0,0,0,0,0,0,0,0,0,0,0,0,0,0,0,0,0,0,0,0,0,0],"split_type":[0,0,0,0,0,0,0,0,0,0,0,0,0,0,0,0,0,0,0,0,0,0,0,0,0,0,0,0,0,0,0,0,0,0,0,0,0,0,0,0,0,0,0,0,0,0,0,0,0,0,0,0,0,0,0,0,0,0,0,0,0,0,0,0,0,0,0,0,0,0,0,0,0,0,0,0,0,0,0,0,0,0,0,0,0,0,0,0,0,0,0,0,0,0,0,0,0],"sum_hessian":[1.5261472E4,1.4958202E4,3.032692E2,1.4797333E4,1.6086957E2,1.8438411E2,1.1888508E2,1.4748912E4,4.842066E1,1.4609256E2,1.4776998E1,1.6037666E2,2.4007458E1,6.7024364E0,1.1218265E2,1.464616E4,1.0275219E2,4.7720456E0,4.3648613E1,1.1111929E2,3.4973274E1,9.895776E0,4.8812222E0,1.4753683E2,1.28398285E1,2.2627205E1,1.3802532E0,5.197634E0,1.5048023E0,1.0793263E2,4.2500143E0,1.458649E4,5.9669933E1,5.548618E1,4.7266014E1,3.6582255E0,1.1138201E0,3.9213173E1,4.435441E0,4.3686844E1,6.743245E1,3.1879461E1,3.0938144E0,1.1367018E0,8.759073E0,3.3872252E0,1.4939971E0,1.2172008E2,2.5816753E1,1.0757997E1,2.081832E0,2.145179E1,1.1754144E0,3.6024196E0,1.5952145E0,1.0512988E2,2.8027487E0,2.848392E0,1.4016224E0,1.4508348E4,7.814244E1,1.0144475E1,4.9525455E1,3.8952496E1,1.6533686E1,5.9342184E0,4.1331795E1,1.13522E0,3.8077953E1,1.0269874E0,3.4084535E0,7.7216725E0,3.596517E1,6.506408E1,2.368371E0,2.9445374E1,2.4340868E0,1.0893309E0,7.6697426E0,1.2205123E0,2.1667128E0,1.6286068E1,1.05434006E2,2.4644064E1,1.1726896E0,9.63204E0,1.1259565E0,1.3739369E1,7.71242E0,1.3990121E0,2.2034075E0,1.347261E0,1.0378262E2,1.4067038E0,1.3960449E0,1.2024748E0,1.645917E0],"tree_param":{"num_deleted":"0","num_feature":"426016","num_nodes":"97","size_leaf_vector":"0"}},{"base_weights":[-1.0002571E0,-1.0340278E0,5.238493E-1,-1.0515362E0,5.150137E-1,-7.793298E-2,6.049577E-1,-1.0588105E0,1.2753671E0,1.6832608E-1,7.075089E-1,-2.3630166E-1,1.0682756E0,6.4783424E-1,-5.433695E-1,-1.0669941E0,9.9101186E-1,-6.093834E-1,1.397636E0,7.612569E-1,-1.06574506E-1,8.5589933E-1,1.982603E-1,-4.0005443E-1,9.968157E-1,6.689573E-1,-9.9133664E-1,8.01359E-1,-7.886252E-1,-1.0772715E0,5.2717155E-1,1.6819465E-1,1.4444021E0,-9.173311E-1,-1.804684E-2,1.4727851E0,-5.9471595E-1,-3.9401847E-1,1.0744258E0,8.4630795E-2,-1.0608859E0,-8.083323E-1,9.037604E-1,-8.584715E-2,1.2323765E0,-9.508021E-1,3.6519215E-2,1.1302205E0,2.8315517E-1,6.072813E-1,1.2511282E0,-2.3931387E-1,-1.2357864E0,-9.887798E-1,3.352841E-1,-1.0856363E0,7.478273E-1,-4.082627E-1,7.3788947E-1,-7.994919E-2,1.624256E0,1.5593323E0,-9.1986567E-1,1.5487144E0,-5.1762223E-1,-1.0661266E0,4.3086153E-1,1.313447E0,-4.7149843E-1,2.1675149E-1,-1.0956646E0,-2.0385295E-1,-1.3028209E0,-8.877706E-1,9.443054E-1,1.181908E0,-3.439472E-1,-1.1870738E0,6.2737423E-1,-1.186981E0,2.7466276E-1,1.1942676E0,5.355781E-1,-5.2126598E-2,1.318635E0,-1.1890211E0,-1.6862419E-2],"categories":[],"categories_nodes":[],"categories_segments":[],"categories_sizes":[],"default_left":[true,true,false,true,false,true,true,true,false,false,true,true,false,true,false,true,true,true,true,false,true,false,false,false,false,true,false,false,false,true,false,false,true,false,false,true,false,true,true,true,false,false,false,false,false,true,false,false,false,false,false,false,false,true,false,false,false,false,false,false,false,false,false,false,false,false,false,false,false,false,false,false,false,false,false,false,false,false,false,false,false,false,false,false,false,false,false],"id":10,"left_children":[1,3,5,7,9,11,13,15,17,19,21,23,-1,25,27,29,31,33,35,37,39,41,43,45,47,49,51,-1,53,55,57,59,61,-1,-1,63,-1,65,67,69,71,-1,73,75,-1,77,79,-1,-1,81,83,-1,-1,85,-1,-1,-1,-1,-1,-1,-1,-1,-1,-1,-1,-1,-1,-1,-1,-1,-1,-1,-1,-1,-1,-1,-1,-1,-1,-1,-1,-1,-1,-1,-1,-1,-1],"loss_changes":[7.397676E2,3.8162402E2,1.5275688E1,2.3653711E2,1.040593E1,7.1399217E0,1.3894783E1,2.3341797E2,1.093483E1,9.472597E0,7.469784E0,7.2956767E0,0E0,9.859795E0,4.0765333E0,2.2662012E2,2.0498753E1,5.9565747E-1,7.0733795E0,7.0710297E0,7.4329534E0,6.9419518E0,7.190069E0,7.455989E0,8.844185E-2,8.677368E0,3.9954042E-1,0E0,2.4319963E0,2.1010059E2,1.7854296E1,7.6755767E0,1.1139069E1,0E0,0E0,6.8734436E0,0E0,3.0374894E0,6.059887E0,5.610007E0,1.1425333E0,0E0,6.378708E0,6.9017916E0,0E0,5.8475523E0,5.6231575E0,0E0,0E0,9.4446945E0,2.2008133E0,0E0,0E0,1.5717349E0,0E0,0E0,0E0,0E0,0E0,0E0,0E0,0E0,0E0,0E0,0E0,0E0,0E0,0E0,0E0,0E0,0E0,0E0,0E0,0E0,0E0,0E0,0E0,0E0,0E0,0E0,0E0,0E0,0E0,0E0,0E0,0E0,0E0],"parents":[2147483647,0,0,1,1,2,2,3,3,4,4,5,5,6,6,7,7,8,8,9,9,10,10,11,11,13,13,14,14,15,15,16,16,17,17,18,18,19,19,20,20,21,21,22,22,23,23,24,24,25,25,26,26,28,28,29,29,30,30,31,31,32,32,35,35,37,37,38,38,39,39,40,40,42,42,43,43,45,45,46,46,49,49,50,50,53,53],"right_children":[2,4,6,8,10,12,14,16,18,20,22,24,-1,26,28,30,32,34,36,38,40,42,44,46,48,50,52,-1,54,56,58,60,62,-1,-1,64,-1,66,68,70,72,-1,74,76,-1,78,80,-1,-1,82,84,-1,-1,86,-1,-1,-1,-1,-1,-1,-1,-1,-1,-1,-1,-1,-1,-1,-1,-1,-1,-1,-1,-1,-1,-1,-1,-1,-1,-1,-1,-1,-1,-1,-1,-1,-1],"split_conditions":[3.0267594E-2,4.576561E-2,1.6851147E-1,7.37467E-2,1.09323636E-1,3.9498504E-2,2.1496433E-1,9.582398E-2,4.1618712E-2,3.1565007E-2,3.858243E-2,3.403394E-2,1.0682756E-1,1.11454174E-1,1.3266018E-1,3.7853546E-2,8.1938714E-2,5.35E1,6.306701E-2,2.4877349E-2,3.918784E-2,4.9935102E-2,4E1,6.996982E-2,5.1063776E-2,9.902393E-2,2.8715384E-1,8.0135904E-2,2.708276E-1,6.627011E-2,7.616085E-2,2.05E1,9.880291E-2,-9.173311E-2,-1.8046839E-3,6.2048577E-2,-5.9471596E-2,1.7853767E-2,3.9898463E-2,4.1216437E-2,2.776561E-2,-8.0833234E-2,2.4356899E-1,7.077498E-1,1.2323765E-1,2.5376009E-2,8.972634E-2,1.1302205E-1,2.8315518E-2,8.323597E-1,4.2565638E-1,-2.3931388E-2,-1.23578645E-1,4.2217225E-2,3.3528414E-2,-1.08563624E-1,7.478273E-2,-4.0826272E-2,7.378895E-2,-7.994919E-3,1.624256E-1,1.5593323E-1,-9.198657E-2,1.5487145E-1,-5.1762223E-2,-1.0661266E-1,4.3086153E-2,1.313447E-1,-4.7149844E-2,2.1675149E-2,-1.09566465E-1,-2.0385295E-2,-1.3028209E-1,-8.877706E-2,9.443054E-2,1.181908E-1,-3.4394722E-2,-1.1870738E-1,6.273743E-2,-1.186981E-1,2.7466277E-2,1.19426765E-1,5.355781E-2,-5.21266E-3,1.318635E-1,-1.1890211E-1,-1.6862418E-3],"split_indices":[170313,170452,102254,82241,170452,226076,362948,75660,103125,193983,193983,419381,0,400192,391912,81931,419242,7,225645,374089,140364,7909,1,406033,105556,175564,140364,0,170313,347284,196092,1,18263,0,0,64089,0,211574,259014,401020,378638,0,400192,419824,0,392875,382554,0,0,96119,66629,0,0,11891,0,0,0,0,0,0,0,0,0,0,0,0,0,0,0,0,0,0,0,0,0,0,0,0,0,0,0,0,0,0,0,0,0],"split_type":[0,0,0,0,0,0,0,0,0,0,0,0,0,0,0,0,0,0,0,0,0,0,0,0,0,0,0,0,0,0,0,0,0,0,0,0,0,0,0,0,0,0,0,0,0,0,0,0,0,0,0,0,0,0,0,0,0,0,0,0,0,0,0,0,0,0,0,0,0,0,0,0,0,0,0,0,0,0,0,0,0,0,0,0,0,0,0],"sum_hessian":[1.4361184E4,1.4050185E4,3.109991E2,1.3893473E4,1.5671199E2,3.6942665E1,2.7405646E2,1.3850718E4,4.2754807E1,5.6617413E1,1.00094574E2,3.31555E1,3.7871687E0,2.6461212E2,9.444322E0,1.3796119E4,5.459922E1,2.3619437E0,4.0392864E1,1.7374117E1,3.9243298E1,7.698201E1,2.3112562E1,2.986511E1,3.290386E0,2.6182996E2,2.7821572E0,1.1070367E0,8.337285E0,1.3708068E4,8.805078E1,1.988418E1,3.471504E1,1.1906236E0,1.17132E0,3.9175972E1,1.2168907E0,3.6502464E0,1.372387E1,3.3452156E1,5.7911386E0,1.7078329E0,7.527418E1,1.8850628E1,4.2619343E0,1.268492E1,1.7180191E1,2.2804127E0,1.0099734E0,2.3859593E2,2.3234035E1,1.1679815E0,1.6141756E0,7.1790204E0,1.1582646E0,1.3645932E4,6.213648E1,1.6015614E1,7.2035164E1,1.7796389E1,2.0877912E0,3.3430405E1,1.2846372E0,3.7950176E1,1.225796E0,1.8502275E0,1.8000189E0,1.2016356E1,1.7075135E0,3.081871E1,2.6334472E0,1.6805466E0,4.110592E0,1.2034261E0,7.4070755E1,2.5831678E0,1.626746E1,1.1248679E1,1.4362416E0,2.1499863E0,1.5030204E1,2.426871E1,2.1432722E2,1.1554426E0,2.2078592E1,5.7674026E0,1.4116181E0],"tree_param":{"num_deleted":"0","num_feature":"426016","num_nodes":"87","size_leaf_vector":"0"}},{"base_weights":[-9.617085E-1,4.3232998E-1,-9.94399E-1,2.5219125E-1,7.394986E-1,-1.0130265E0,5.6143105E-1,1.1053125E0,1.6741696E-1,7.7609825E-1,-1.1615438E0,-1.0264947E0,5.651578E-1,-1.0036986E0,6.109955E-1,1.3346359E0,-1.8647823E-1,1.0777568E-1,1.3723477E0,8.350461E-1,-3.6735317E-1,-1.0598315E0,-4.301294E-1,7.7684395E-2,1.1376796E0,-1.2330401E0,-6.257138E-2,6.450334E-1,-1.2019043E0,1.4565204E0,-3.4904722E-2,7.6691276E-1,-9.192587E-1,-4.754321E-1,2.2505425E-1,-1.0149516E0,8.639505E-1,-1.3518653E0,4.5879838E-1,-1.068698E0,7.580609E-1,-6.197433E-1,1.5459473E-1,-4.5733112E-1,6.303469E-1,1.3547841E0,-1.9950381E-1,1.2318029E0,5.382482E-1,5.529399E-1,-7.6955014E-1,2.9177412E-1,-5.6892186E-1,-3.8853583E-1,9.036283E-1,9.268141E-1,-2.5786093E-1,-1.0744867E0,1.6510637E0,-5.82158E-1,9.451403E-1,-7.220639E-1,3.058183E-2,-6.810122E-2,1.0089897E0,-6.571822E-1,1.5455637E0,1.0762725E0,-2.6288497E-1,1.4953511E0,-5.670862E-1,-6.454507E-1,1.128728E0,1.3140086E0,-2.356347E-1,6.2428546E-1,-1.2798953E-1],"categories":[],"categories_nodes":[],"categories_segments":[],"categories_sizes":[],"default_left":[false,true,true,false,true,true,false,true,true,true,false,false,false,true,true,true,true,false,false,false,true,true,true,true,true,false,false,false,false,false,false,false,false,false,true,false,false,false,false,true,false,true,true,true,true,true,true,true,true,false,false,false,false,false,false,false,false,false,false,false,false,false,false,false,false,false,false,false,false,false,false,false,false,false,false,false,false],"id":11,"left_children":[1,3,5,7,9,11,13,15,17,19,-1,21,23,25,27,29,31,33,-1,35,37,39,41,43,45,-1,-1,47,-1,-1,-1,-1,-1,49,51,-1,53,-1,55,57,59,61,63,65,67,69,71,73,75,-1,-1,-1,-1,-1,-1,-1,-1,-1,-1,-1,-1,-1,-1,-1,-1,-1,-1,-1,-1,-1,-1,-1,-1,-1,-1,-1,-1],"loss_changes":[6.1528906E2,1.6957867E1,3.826338E2,1.4049626E1,8.834583E0,2.7748828E2,1.27625885E1,5.466152E0,1.2802623E1,7.8872833E0,0E0,2.5636035E2,3.0857826E1,1.042151E0,1.0181252E1,2.5679493E0,3.17293E0,1.1925845E1,0E0,6.6121826E0,5.669595E0,1.9799023E2,7.610439E1,1.831402E1,1.505275E1,0E0,0E0,8.752682E0,0E0,0E0,0E0,0E0,0E0,9.273014E0,7.8230805E0,0E0,5.6261215E0,0E0,1.6215804E0,1.9344531E2,1.5584221E1,3.4482697E1,3.2162254E1,1.364682E1,1.2394676E1,1.271727E1,5.457732E0,3.007042E0,7.4691696E0,0E0,0E0,0E0,0E0,0E0,0E0,0E0,0E0,0E0,0E0,0E0,0E0,0E0,0E0,0E0,0E0,0E0,0E0,0E0,0E0,0E0,0E0,0E0,0E0,0E0,0E0,0E0,0E0],"parents":[2147483647,0,0,1,1,2,2,3,3,4,4,5,5,6,6,7,7,8,8,9,9,11,11,12,12,13,13,14,14,15,15,16,16,17,17,19,19,20,20,21,21,22,22,23,23,24,24,27,27,33,33,34,34,36,36,38,38,39,39,40,40,41,41,42,42,43,43,44,44,45,45,46,46,47,47,48,48],"right_children":[2,4,6,8,10,12,14,16,18,20,-1,22,24,26,28,30,32,34,-1,36,38,40,42,44,46,-1,-1,48,-1,-1,-1,-1,-1,50,52,-1,54,-1,56,58,60,62,64,66,68,70,72,74,76,-1,-1,-1,-1,-1,-1,-1,-1,-1,-1,-1,-1,-1,-1,-1,-1,-1,-1,-1,-1,-1,-1,-1,-1,-1,-1,-1,-1],"split_conditions":[6.707771E-1,5.49397E-2,4.6253867E-2,7.178024E-1,1.0793215E-1,4.8060592E-2,5.8712743E-2,5.1055647E-2,5.1607557E-2,7.334806E-2,-1.1615439E-1,4.2537224E-1,9.861633E-2,2.8821217E-2,4.9931474E-2,4.745007E-2,2.3062732E-2,5.783136E-2,1.3723478E-1,3.0844462E-1,5.9791148E-2,4.7229633E-2,4.896532E-1,3.5576105E-2,3.9142977E-2,-1.2330401E-1,-6.2571377E-3,9.8309076E-1,-1.20190434E-1,1.4565204E-1,-3.4904722E-3,7.669128E-2,-9.1925874E-2,2.3037028E-2,6.917575E-2,-1.0149516E-1,8.441739E-2,-1.3518654E-1,4.195804E-2,7.997075E-2,2.3137848E-1,4.563476E-2,5.881654E-2,7.6828234E-2,3.4961846E-2,4.9591858E-2,5.585493E-2,9.8600924E-2,3.5636663E-2,5.529399E-2,-7.695501E-2,2.9177412E-2,-5.6892186E-2,-3.8853582E-2,9.036283E-2,9.268141E-2,-2.5786093E-2,-1.07448675E-1,1.6510637E-1,-5.8215804E-2,9.4514035E-2,-7.220639E-2,3.058183E-3,-6.810122E-3,1.0089897E-1,-6.5718226E-2,1.5455638E-1,1.0762725E-1,-2.6288498E-2,1.495351E-1,-5.6708623E-2,-6.454507E-2,1.128728E-1,1.3140087E-1,-2.356347E-2,6.2428545E-2,-1.2798953E-2],"split_indices":[170313,419097,170452,96119,400192,345954,400192,22408,157461,7909,0,2,345954,243601,210503,11891,11891,102254,0,168321,141588,195956,2,419097,255837,0,0,419824,0,0,0,0,0,261436,41037,0,352472,0,2,157461,335734,43443,419097,12,378638,359024,11891,18263,140364,0,0,0,0,0,0,0,0,0,0,0,0,0,0,0,0,0,0,0,0,0,0,0,0,0,0,0,0],"split_type":[0,0,0,0,0,0,0,0,0,0,0,0,0,0,0,0,0,0,0,0,0,0,0,0,0,0,0,0,0,0,0,0,0,0,0,0,0,0,0,0,0,0,0,0,0,0,0,0,0,0,0,0,0,0,0,0,0,0,0,0,0,0,0,0,0,0,0,0,0,0,0,0,0,0,0,0,0],"sum_hessian":[1.3491081E4,3.0883994E2,1.3182241E4,1.9582158E2,1.1301834E2,1.3026627E4,1.5561465E2,1.6611761E1,1.7920982E2,1.1146414E2,1.5542014E0,1.2916743E4,1.0988289E2,4.185815E0,1.5142883E2,1.4079203E1,2.5325596E0,1.7179578E2,7.4140472E0,1.0625609E2,5.2080564E0,1.223219E4,6.8455365E2,5.9963062E1,4.9919823E1,3.1162486E0,1.0695662E0,1.4927042E2,2.158416E0,1.287028E1,1.2089226E0,1.0803634E0,1.4521961E0,2.8251528E1,1.4354425E2,1.1098073E0,1.0514628E2,2.085937E0,3.1221197E0,1.2173229E4,5.8961533E1,5.168802E2,1.6767342E2,3.0555613E1,2.9407452E1,4.2935646E1,6.9841747E0,2.1360764E1,1.2790965E2,6.087352E0,2.2164177E1,1.330004E2,1.054385E1,2.9586906E0,1.0218759E2,1.711306E0,1.4108137E0,1.2147978E4,2.5250916E1,6.9635463E0,5.1997986E1,4.465161E2,7.0364105E1,1.337358E2,3.393761E1,2.8394283E1,2.1613297E0,1.9478392E1,9.929059E0,4.021614E1,2.7195072E0,5.613518E0,1.3706566E0,2.0326624E1,1.0341395E0,1.1333646E2,1.4573194E1],"tree_param":{"num_deleted":"0","num_feature":"426016","num_nodes":"77","size_leaf_vector":"0"}},{"base_weights":[-9.2914164E-1,-9.7607064E-1,-2.26074E-1,-9.930156E-1,5.7232577E-1,-4.7334015E-1,2.9269484E-1,-1.0036725E0,1.1037946E0,6.6990614E-2,9.1534805E-1,-6.241822E-1,1.7875263E-1,5.169717E-1,-2.911599E-1,-1.073733E0,-7.1727616E-1,-7.174862E-1,1.180811E0,2.8793988E-1,-1.0286176E0,1.1476016E0,3.8886264E-1,-6.883829E-1,6.693905E-1,-1.01902574E-1,8.8229454E-1,3.675067E-1,1.444831E0,-6.1259794E-1,3.6815256E-1,-1.0802301E0,8.779715E-1,-5.349733E-1,-1.0475303E0,-8.5579157E-1,-2.2089835E-1,1.3482848E0,3.0217835E-1,1.2064911E0,6.084707E-2,2.1100768E-1,-1.2077092E0,-8.3563495E-1,1.2115954E0,-1.9722885E-1,8.2026744E-1,-7.231324E-1,1.3665342E0,8.321033E-1,-6.494808E-1,-2.0986582E-1,9.6540004E-1,-5.755813E-1,1.1622875E0,1.4005021E0,2.7796808E-1,-1.9491933E-1,1.6696657E0,7.598447E-1,-7.4243975E-1,6.263481E-1,-5.2786934E-1,-1.0831026E0,2.2095375E0,-5.558517E-1,1.137271E0,-5.627742E-1,2.0020864E0,-1.0542598E0,1.652089E0,1.401914E0,-2.7403948E-1,7.828115E-1,-7.1412617E-1,-3.9769238E-1,1.5426564E0,-1.0522816E0,1.9605342E-1,1.3035293E0,-2.718604E-1,7.925932E-1,-7.30774E-1,1.1678993E0,-4.65229E-1,1.3364978E0,-7.525472E-1,-1.2340832E-1,1.6315788E0,9.7303784E-1,-7.651464E-1,1.118538E0,-2.9258284E-1,4.6746004E-2,1.3150636E0,-9.7737455E-1,5.5450606E-1,1.2982857E0,-3.9302486E-1,1.5968124E0,-2.8799114E-1,9.510337E-1,1.4903569E-1,-6.365569E-1,5.000899E-1,1.1927378E-1,1.7780712E0,-3.7124285E-1,1.6368272E0,5.109433E-1,-8.528045E-1,-5.202324E-1,9.3462145E-1,5.3002775E-1,-8.621816E-1],"categories":[],"categories_nodes":[],"categories_segments":[],"categories_sizes":[],"default_left":[false,true,true,true,true,true,true,true,false,true,true,true,true,true,true,true,true,true,true,false,false,false,false,true,true,true,false,true,false,false,true,true,false,true,true,false,false,true,true,false,false,false,false,false,true,false,true,true,false,true,false,false,true,true,true,true,false,true,false,false,false,false,false,false,false,false,false,false,false,false,false,false,false,false,false,false,false,false,false,false,false,false,false,false,false,false,false,false,false,false,false,false,false,false,false,false,false,false,false,false,false,false,false,false,false,false,false,false,false,false,false,false,false,false,false],"id":12,"left_children":[1,3,5,7,9,11,13,15,17,19,21,23,25,27,29,31,33,35,37,39,41,43,45,47,49,51,53,55,57,59,61,63,65,67,69,-1,-1,71,73,75,77,-1,-1,-1,79,81,83,85,87,89,-1,91,93,95,97,99,101,103,105,107,109,111,113,-1,-1,-1,-1,-1,-1,-1,-1,-1,-1,-1,-1,-1,-1,-1,-1,-1,-1,-1,-1,-1,-1,-1,-1,-1,-1,-1,-1,-1,-1,-1,-1,-1,-1,-1,-1,-1,-1,-1,-1,-1,-1,-1,-1,-1,-1,-1,-1,-1,-1,-1,-1],"loss_changes":[4.166748E2,3.113369E2,1.0172209E2,2.629209E2,2.2273949E1,5.2901527E1,3.3704086E1,2.3314551E2,9.224609E0,1.3169271E1,8.929184E0,3.6676834E1,2.0151266E1,2.5192993E1,1.5432043E1,1.19697266E2,1.3757275E2,2.009809E-2,8.079895E0,9.320745E0,2.2847052E0,7.6996613E0,6.4784217E0,3.0690552E1,5.07417E0,8.6748085E0,1.2537748E1,1.4510891E1,9.6871605E0,9.226761E0,5.915741E0,9.059375E1,1.2389147E1,1.0553885E2,1.6547852E1,0E0,0E0,4.5739594E0,5.699098E0,5.398922E0,5.799144E0,0E0,0E0,0E0,7.371353E0,6.598873E0,7.06067E0,2.5826569E1,3.0695515E0,5.076682E0,0E0,7.7543707E0,2.1654625E0,2.972709E0,5.739628E0,4.6370697E0,1.2831277E1,1.5330265E0,3.5587006E0,5.265526E0,6.648926E0,7.2721114E0,2.5588481E0,0E0,0E0,0E0,0E0,0E0,0E0,0E0,0E0,0E0,0E0,0E0,0E0,0E0,0E0,0E0,0E0,0E0,0E0,0E0,0E0,0E0,0E0,0E0,0E0,0E0,0E0,0E0,0E0,0E0,0E0,0E0,0E0,0E0,0E0,0E0,0E0,0E0,0E0,0E0,0E0,0E0,0E0,0E0,0E0,0E0,0E0,0E0,0E0,0E0,0E0,0E0,0E0],"parents":[2147483647,0,0,1,1,2,2,3,3,4,4,5,5,6,6,7,7,8,8,9,9,10,10,11,11,12,12,13,13,14,14,15,15,16,16,17,17,18,18,19,19,20,20,21,21,22,22,23,23,24,24,25,25,26,26,27,27,28,28,29,29,30,30,31,31,32,32,33,33,34,34,37,37,38,38,39,39,40,40,44,44,45,45,46,46,47,47,48,48,49,49,51,51,52,52,53,53,54,54,55,55,56,56,57,57,58,58,59,59,60,60,61,61,62,62],"right_children":[2,4,6,8,10,12,14,16,18,20,22,24,26,28,30,32,34,36,38,40,42,44,46,48,50,52,54,56,58,60,62,64,66,68,70,-1,-1,72,74,76,78,-1,-1,-1,80,82,84,86,88,90,-1,92,94,96,98,100,102,104,106,108,110,112,114,-1,-1,-1,-1,-1,-1,-1,-1,-1,-1,-1,-1,-1,-1,-1,-1,-1,-1,-1,-1,-1,-1,-1,-1,-1,-1,-1,-1,-1,-1,-1,-1,-1,-1,-1,-1,-1,-1,-1,-1,-1,-1,-1,-1,-1,-1,-1,-1,-1,-1,-1,-1],"split_conditions":[4.255435E-1,4.4692595E-2,2.8902479E-2,3.5995282E-2,3.28347E-2,6.7087245E-1,2.3737613E-2,4.5331478E-2,3.709522E-2,1.3585084E-2,1.8875858E-2,1.4258811E-1,2.0632746E-2,5.0763674E-2,5.0507915E-1,3.9500996E-2,1.9086782E-2,1.8581653E-2,2.864169E-2,8.226521E-2,3.710007E-2,2.5378656E-1,3.790023E-2,1.2614453E-1,8.097533E-2,4.023E3,8.322988E-2,6.692709E-1,5.325815E-2,7.777801E-2,2.9101849E-2,6.918731E-2,5.6334615E-2,5.901539E-2,7.541995E-2,-8.557916E-2,-2.2089835E-2,4.4516973E-2,1.3068764E-2,1.884615E-2,2.2243117E-1,2.1100769E-2,-1.20770924E-1,-8.35635E-2,5.3640343E-2,2.774372E-2,1.9495577E-2,2.2408026E-1,4.2805094E-1,3.955491E-2,-6.494808E-2,6.436227E-1,5.340686E-3,2.096157E-2,1.5624224E-1,8.093603E-1,1.2492741E-1,4.369831E-2,6.864527E-2,3.734607E-2,8.409168E-2,4.9298234E-2,3.885348E-2,-1.0831026E-1,2.2095375E-1,-5.5585172E-2,1.1372711E-1,-5.627742E-2,2.0020865E-1,-1.05425976E-1,1.652089E-1,1.401914E-1,-2.7403949E-2,7.828116E-2,-7.1412615E-2,-3.976924E-2,1.5426564E-1,-1.0522816E-1,1.9605342E-2,1.3035293E-1,-2.718604E-2,7.925932E-2,-7.30774E-2,1.1678993E-1,-4.65229E-2,1.3364978E-1,-7.525472E-2,-1.2340832E-2,1.6315788E-1,9.7303785E-2,-7.651464E-2,1.118538E-1,-2.9258285E-2,4.6746004E-3,1.3150637E-1,-9.7737454E-2,5.5450607E-2,1.2982857E-1,-3.9302487E-2,1.5968125E-1,-2.8799115E-2,9.5103376E-2,1.490357E-2,-6.36557E-2,5.000899E-2,1.1927378E-2,1.7780712E-1,-3.7124287E-2,1.6368273E-1,5.109433E-2,-8.528045E-2,-5.202324E-2,9.346215E-2,5.3002775E-2,-8.621816E-2],"split_indices":[2,328737,419097,96119,419097,2,378638,419097,11,8108,208017,388485,43443,43443,2,82241,196092,75615,211574,421127,283748,406985,43443,172611,140364,0,198407,9,359024,408407,359024,87901,410436,128570,244596,0,0,37617,198407,419097,13075,0,0,0,105556,359024,196092,9,61210,11891,0,81931,9,236708,11,2,421127,75615,208017,208017,410436,6848,421127,0,0,0,0,0,0,0,0,0,0,0,0,0,0,0,0,0,0,0,0,0,0,0,0,0,0,0,0,0,0,0,0,0,0,0,0,0,0,0,0,0,0,0,0,0,0,0,0,0,0,0,0],"split_type":[0,0,0,0,0,0,0,0,0,0,0,0,0,0,0,0,0,0,0,0,0,0,0,0,0,0,0,0,0,0,0,0,0,0,0,0,0,0,0,0,0,0,0,0,0,0,0,0,0,0,0,0,0,0,0,0,0,0,0,0,0,0,0,0,0,0,0,0,0,0,0,0,0,0,0,0,0,0,0,0,0,0,0,0,0,0,0,0,0,0,0,0,0,0,0,0,0,0,0,0,0,0,0,0,0,0,0,0,0,0,0,0,0,0,0],"sum_hessian":[1.2634382E4,1.1843456E4,7.909264E2,1.17156045E4,1.2785145E2,5.3568494E2,2.5524149E2,1.165688E4,5.872397E1,5.2178375E1,7.567307E1,4.350841E2,1.0060083E2,1.8448831E2,7.0753174E1,9.363548E3,2.2933323E3,2.0451179E0,5.667885E1,4.4035088E1,8.143288E0,5.1690575E1,2.3982494E1,4.149574E2,2.0126709E1,7.2524635E1,2.8076193E1,1.600953E2,2.4393005E1,4.7611664E1,2.314151E1,9.332926E3,3.0622694E1,1.4793433E3,8.139891E2,1.0338383E0,1.0112796E0,4.7156044E1,9.522807E0,7.8738713E0,3.6161217E1,1.0054708E0,7.1378164E0,1.2388613E0,5.0451714E1,1.0398406E1,1.3584088E1,4.086943E2,6.2630825E0,1.8244867E1,1.8818412E0,6.659189E1,5.9327493E0,4.353348E0,2.3722845E1,1.1602098E1,1.4849321E2,2.9573925E0,2.1435612E1,3.6956937E0,4.391597E1,1.8198456E1,4.943055E0,9.325454E3,7.471605E0,4.514675E0,2.6108019E1,1.4640781E3,1.5265036E1,8.12573E2,1.4160895E0,4.57786E1,1.3774445E0,6.6212273E0,2.9015796E0,1.3324381E0,6.541433E0,3.1819592E0,3.297926E1,4.7621754E1,2.829963E0,3.4718952E0,6.9265113E0,1.0764552E1,2.819536E0,5.128943E0,4.0356537E2,1.0265787E0,5.236504E0,1.7124664E1,1.1202031E0,3.1694396E0,6.3422447E1,1.948152E0,3.9845974E0,3.3112087E0,1.0421393E0,2.196726E1,1.7555847E0,1.0442332E1,1.159766E0,2.2847292E1,1.2564592E2,1.8597398E0,1.0976528E0,1.5381114E0,1.9897501E1,1.8658704E0,1.8298233E0,3.260276E0,4.0655697E1,3.710435E0,1.448802E1,1.0464003E0,3.896655E0],"tree_param":{"num_deleted":"0","num_feature":"426016","num_nodes":"115","size_leaf_vector":"0"}},{"base_weights":[-8.915426E-1,-9.251592E-1,4.4960386E-1,-9.694985E-1,-3.03008E-1,5.2756965E-1,-2.5587478E-1,-9.844201E-1,5.294791E-1,-4.765199E-1,4.1616997E-1,3.2124072E-1,7.688023E-1,-4.4527134E-1,1.1029562E0,-9.9749947E-1,4.992596E-1,6.9165416E-2,9.826649E-1,-6.487541E-1,3.0768856E-2,2.4701996E-1,1.1180053E0,3.678654E-1,-1.1730232E0,-9.291391E-1,8.151513E-1,-1.2078528E0,-9.925753E-2,1.275303E0,3.7424788E-1,-1.0025611E0,2.072661E0,7.9713826E-4,8.92207E-1,-5.1264588E-2,2.0893714E0,-1.0107075E0,1.0850807E0,-7.032132E-1,4.5528236E-1,-6.566942E-2,1.4597347E0,1.625484E0,1.5897349E-1,-1.8668935E-1,1.2771829E0,4.5644137E-1,-3.2011834E-1,-2.3510033E-1,-1.4114028E0,2.5799128E-1,-1.5041083E0,8.7213427E-1,-4.1000727E-1,-1.4710866E0,2.0424187E-1,8.2030255E-1,-4.019708E-1,-1.0077401E0,1.973011E0,8.80126E-2,2.3023903E0,-1.0348585E-1,1.956059E0,1.1080226E0,-2.9867995E-1,-2.4194504E-1,1.2145264E0,1.1963437E0,-7.939433E-1,1.1139095E0,-7.296836E-1,1.2719786E0,1.4827125E-1,-1.6895302E-1,8.985078E-1,-6.827564E-1,1.8347131E0,1.9249531E0,1.3044647E-2,6.9607186E-1,-6.064583E-2,-8.460345E-1,5.087196E-1,1.3651097E0,-4.298901E-1,5.070005E-1,-8.2192755E-1,1.08394E0,-5.693099E-1,9.1155887E-1,-9.3024665E-1,-1.019764E0,4.4893903E-1,-3.9301068E-1,1.2328885E0,4.013725E-1,-7.6279753E-1],"categories":[],"categories_nodes":[],"categories_segments":[],"categories_sizes":[],"default_left":[true,false,true,true,true,true,true,true,true,true,true,true,false,false,true,true,true,true,false,true,true,true,false,true,false,false,true,true,false,false,false,true,false,true,true,true,false,false,true,false,false,false,false,true,false,true,true,true,false,false,false,false,false,true,true,false,false,false,false,false,false,false,false,false,false,false,false,false,false,false,false,false,false,false,false,false,false,false,false,false,false,false,false,false,false,false,false,false,false,false,false,false,false,false,false,false,false,false,false],"id":13,"left_children":[1,3,5,7,9,11,13,15,17,19,21,23,25,27,29,31,33,35,37,39,41,43,45,47,49,51,53,55,57,-1,-1,59,61,63,65,67,-1,-1,69,71,73,75,77,79,81,83,85,87,89,-1,-1,-1,-1,91,93,-1,-1,95,97,-1,-1,-1,-1,-1,-1,-1,-1,-1,-1,-1,-1,-1,-1,-1,-1,-1,-1,-1,-1,-1,-1,-1,-1,-1,-1,-1,-1,-1,-1,-1,-1,-1,-1,-1,-1,-1,-1,-1,-1],"loss_changes":[5.354375E2,3.190703E2,1.613282E1,2.4223145E2,9.64882E1,1.280529E1,8.113562E0,2.0814258E2,2.2287115E1,5.437639E1,1.7592562E1,1.0398471E1,1.0214844E1,6.927189E0,1.3882637E-2,1.6691406E2,1.8444412E1,1.3303172E1,1.210545E1,2.8247131E1,2.1957579E1,1.4617741E1,6.2502403E0,8.646639E0,6.893883E-1,2.8866203E0,8.561569E0,3.3657036E0,5.7469463E0,0E0,0E0,1.651914E2,7.905998E0,8.87079E0,1.3864616E1,1.2884208E1,0E0,0E0,1.1773399E1,2.2123016E1,5.438303E0,1.5046299E1,9.344793E0,3.475954E0,1.3762903E1,2.2736979E0,4.4784966E0,8.430862E0,6.389619E0,0E0,0E0,0E0,0E0,8.849876E0,3.5494657E0,0E0,0E0,3.061932E0,4.7447076E0,0E0,0E0,0E0,0E0,0E0,0E0,0E0,0E0,0E0,0E0,0E0,0E0,0E0,0E0,0E0,0E0,0E0,0E0,0E0,0E0,0E0,0E0,0E0,0E0,0E0,0E0,0E0,0E0,0E0,0E0,0E0,0E0,0E0,0E0,0E0,0E0,0E0,0E0,0E0,0E0],"parents":[2147483647,0,0,1,1,2,2,3,3,4,4,5,5,6,6,7,7,8,8,9,9,10,10,11,11,12,12,13,13,14,14,15,15,16,16,17,17,18,18,19,19,20,20,21,21,22,22,23,23,24,24,25,25,26,26,27,27,28,28,31,31,32,32,33,33,34,34,35,35,38,38,39,39,40,40,41,41,42,42,43,43,44,44,45,45,46,46,47,47,48,48,53,53,54,54,57,57,58,58],"right_children":[2,4,6,8,10,12,14,16,18,20,22,24,26,28,30,32,34,36,38,40,42,44,46,48,50,52,54,56,58,-1,-1,60,62,64,66,68,-1,-1,70,72,74,76,78,80,82,84,86,88,90,-1,-1,-1,-1,92,94,-1,-1,96,98,-1,-1,-1,-1,-1,-1,-1,-1,-1,-1,-1,-1,-1,-1,-1,-1,-1,-1,-1,-1,-1,-1,-1,-1,-1,-1,-1,-1,-1,-1,-1,-1,-1,-1,-1,-1,-1,-1,-1,-1],"split_conditions":[3.0018415E-2,3.039596E-1,4.775287E-2,4.809609E-2,5.1579304E-2,4.965784E-2,2.964066E-2,4.0225826E-2,3.600084E-2,1.75E1,4.3770574E-2,4.1431103E-2,5.713293E-2,2.9022772E-2,3.0233249E-2,6.741013E-2,3.287947E-2,4.698782E-2,1.2724881E-1,1.20431855E-1,8.1373505E-2,6.775956E-1,8.076598E-2,5.4280672E-2,3.4506604E-2,1.631346E-1,6.733947E-2,3.6350027E-2,1.3032523E-1,1.275303E-1,3.7424788E-2,6.961304E-2,7.138945E-2,3.0913465E-2,3.548739E-2,6.278126E-2,2.0893715E-1,-1.01070754E-1,4.955312E-2,4.8666644E-1,6.864922E-2,5.975E2,6.284033E-2,7.296304E-2,8.4E1,2.8929085E-2,4.4891912E-2,2.711692E-1,1.22381E-1,-2.3510033E-2,-1.4114028E-1,2.579913E-2,-1.5041083E-1,1.0052273E-1,9.735434E-2,-1.4710866E-1,2.0424187E-2,9.48526E-2,7.065533E-2,-1.0077401E-1,1.973011E-1,8.80126E-3,2.3023903E-1,-1.0348585E-2,1.956059E-1,1.10802256E-1,-2.9867996E-2,-2.4194505E-2,1.21452644E-1,1.1963437E-1,-7.939433E-2,1.1139095E-1,-7.296836E-2,1.2719786E-1,1.4827125E-2,-1.6895302E-2,8.9850776E-2,-6.8275645E-2,1.834713E-1,1.9249532E-1,1.3044648E-3,6.960719E-2,-6.064583E-3,-8.460345E-2,5.0871965E-2,1.3651097E-1,-4.298901E-2,5.070005E-2,-8.2192756E-2,1.08394004E-1,-5.693099E-2,9.115589E-2,-9.302466E-2,-1.01976395E-1,4.48939E-2,-3.9301068E-2,1.2328885E-1,4.013725E-2,-7.627975E-2],"split_indices":[170313,2,763,345954,419097,419097,72223,328737,419097,1,43443,356053,208089,64089,41037,87901,419097,27043,141827,388485,388485,9,208017,41037,359024,419242,7909,211574,362948,0,0,244596,37617,328750,24936,11,0,0,423150,172611,43443,1,208017,247363,1,11891,359024,12,362948,0,0,0,0,408407,141586,0,0,102254,170313,0,0,0,0,0,0,0,0,0,0,0,0,0,0,0,0,0,0,0,0,0,0,0,0,0,0,0,0,0,0,0,0,0,0,0,0,0,0,0,0],"split_type":[0,0,0,0,0,0,0,0,0,0,0,0,0,0,0,0,0,0,0,0,0,0,0,0,0,0,0,0,0,0,0,0,0,0,0,0,0,0,0,0,0,0,0,0,0,0,0,0,0,0,0,0,0,0,0,0,0,0,0,0,0,0,0,0,0,0,0,0,0,0,0,0,0,0,0,0,0,0,0,0,0,0,0,0,0,0,0,0,0,0,0,0,0,0,0,0,0,0,0],"sum_hessian":[1.1865979E4,1.1576126E4,2.8985248E2,1.0805486E4,7.706404E2,2.612344E2,2.861808E1,1.0699322E4,1.061633E2,6.21123E2,1.4951736E2,1.4206029E2,1.1917411E2,2.5707264E1,2.9108164E0,1.0606152E4,9.317046E1,5.323928E1,5.292402E1,4.6348288E2,1.576401E2,1.2156969E2,2.794767E1,1.3849278E2,3.5675E0,2.6605742E0,1.16513535E2,7.2463136E0,1.8460949E1,1.7474415E0,1.1633749E0,1.0589367E4,1.6784744E1,4.1512707E1,5.1657753E1,5.1163887E1,2.075395E0,2.1528738E0,5.0771145E1,4.4204123E2,2.144164E1,1.485676E2,9.07251E0,6.2504463E0,1.15319244E2,3.0201633E0,2.4927505E1,1.2299419E2,1.5498599E1,1.1254752E0,2.442025E0,1.048026E0,1.6125481E0,1.11610596E2,4.902939E0,6.0725336E0,1.17378E0,4.1486506E0,1.4312299E1,1.0571629E4,1.7738737E1,1.8848145E0,1.489993E1,4.030987E1,1.2028353E0,4.3791355E1,7.8663983E0,4.5168503E1,5.995385E0,4.8275894E1,2.4952505E0,5.7569866E0,4.3628427E2,4.9993925E0,1.6442247E1,1.3493771E2,1.3629889E1,1.229098E0,7.843412E0,5.10796E0,1.1424863E0,3.283904E1,8.248021E1,1.4390974E0,1.5810659E0,2.389696E1,1.0305475E0,1.1889531E2,4.0988765E0,1.8311639E0,1.3667435E1,1.0970519E2,1.9054035E0,2.7579052E0,2.1450336E0,1.0647956E0,3.0838552E0,4.4011736E0,9.911125E0],"tree_param":{"num_deleted":"0","num_feature":"426016","num_nodes":"99","size_leaf_vector":"0"}},{"base_weights":[-8.601471E-1,-8.95593E-1,4.261899E-1,-9.153748E-1,5.528502E-1,1.9013338E-1,6.0414386E-1,-9.602306E-1,-3.9983582E-1,6.963629E-1,-5.5784024E-2,6.351935E-2,1.1201165E0,6.390348E-1,-5.9165674E-1,-1.0192095E0,-6.6596E-1,-6.150472E-1,1.5018487E-1,-1.0049027E0,7.356085E-1,2.2059397E-1,-9.086668E-1,-7.359245E-2,8.511597E-1,1.2278008E0,-1.4906438E-1,6.702013E-1,-7.0482844E-1,-1.1139168E0,7.943074E-1,-1.0234233E0,2.2262113E0,-4.0291306E-1,-9.065723E-1,-6.7254275E-1,5.149387E-1,5.8401316E-1,-1.1323243E-1,7.692601E-1,-1.0403676E0,-5.694774E-1,5.660087E-1,2.4921362E-1,-1.2039059E0,-1.6487464E-1,9.354776E-1,-6.2769634E-1,1.023344E0,1.2876287E0,2.2428289E-1,6.9152415E-1,-1.2457305E0,-9.155336E-3,-9.6316725E-1,-3.773573E-1,-1.2828757E0,-1.0296038E0,9.080731E-1,-6.620087E-1,2.612321E0,-5.429463E-1,3.9455932E-1,6.548905E-1,-9.329704E-1,-7.080417E-1,7.6796657E-1,6.809955E-1,-5.969284E-1,2.0844958E0,4.464805E-1,-2.5144613E-1,9.753617E-1,7.9830956E-1,-1.0547116E0,7.767658E-1,-1.1211361E0,1.2186747E0,1.7185485E-1,-1.4383316E0,-7.385295E-2,9.5043766E-1,-2.4089347E-1,1.1199936E0,-1.5546983E-1,-1.8202497E-1,1.1229492E0,1.3478978E0,3.0334625E-1,7.197031E-1,-8.5189813E-1],"categories":[],"categories_nodes":[],"categories_segments":[],"categories_sizes":[],"default_left":[true,true,true,false,true,true,true,true,true,false,false,true,true,true,true,true,true,true,true,false,true,false,false,true,false,true,false,true,true,true,false,true,false,true,false,true,true,false,true,true,false,false,true,false,true,false,true,false,false,true,false,true,false,false,false,false,false,false,false,false,false,false,false,false,false,false,false,false,false,false,false,false,false,false,false,false,false,false,false,false,false,false,false,false,false,false,false,false,false,false,false],"id":14,"left_children":[1,3,5,7,9,11,13,15,17,19,21,23,25,27,29,31,33,35,37,-1,39,41,43,45,47,49,-1,51,53,55,-1,57,59,61,63,65,67,69,71,73,-1,75,77,-1,79,81,83,-1,85,87,-1,89,-1,-1,-1,-1,-1,-1,-1,-1,-1,-1,-1,-1,-1,-1,-1,-1,-1,-1,-1,-1,-1,-1,-1,-1,-1,-1,-1,-1,-1,-1,-1,-1,-1,-1,-1,-1,-1,-1,-1],"loss_changes":[5.091875E2,3.1168262E2,1.2484325E1,2.4738184E2,1.2874157E1,1.5280695E1,7.493965E0,1.7037988E2,1.018105E2,8.683361E0,7.02775E0,1.2570002E1,2.310072E0,7.4332886E0,4.7605667E0,1.1453223E2,1.0396887E2,4.0487015E1,2.7775726E1,0E0,7.7854156E0,6.511707E0,2.7900877E0,9.325021E0,5.0351343E0,5.7902145E-1,0E0,7.518181E0,7.5578713E-1,5.1683903E-2,0E0,9.880664E1,1.395015E1,8.835866E1,3.6065613E1,3.0630554E1,6.0343246E0,1.800725E1,2.3070824E1,6.950081E0,0E0,6.3648663E0,3.9791632E0,0E0,1.4767885E0,8.0422E0,1.8668995E0,0E0,2.1052494E0,3.878231E-1,0E0,7.6497726E0,0E0,0E0,0E0,0E0,0E0,0E0,0E0,0E0,0E0,0E0,0E0,0E0,0E0,0E0,0E0,0E0,0E0,0E0,0E0,0E0,0E0,0E0,0E0,0E0,0E0,0E0,0E0,0E0,0E0,0E0,0E0,0E0,0E0,0E0,0E0,0E0,0E0,0E0,0E0],"parents":[2147483647,0,0,1,1,2,2,3,3,4,4,5,5,6,6,7,7,8,8,9,9,10,10,11,11,12,12,13,13,14,14,15,15,16,16,17,17,18,18,20,20,21,21,22,22,23,23,24,24,25,25,27,27,28,28,29,29,31,31,32,32,33,33,34,34,35,35,36,36,37,37,38,38,39,39,41,41,42,42,44,44,45,45,46,46,48,48,49,49,51,51],"right_children":[2,4,6,8,10,12,14,16,18,20,22,24,26,28,30,32,34,36,38,-1,40,42,44,46,48,50,-1,52,54,56,-1,58,60,62,64,66,68,70,72,74,-1,76,78,-1,80,82,84,-1,86,88,-1,90,-1,-1,-1,-1,-1,-1,-1,-1,-1,-1,-1,-1,-1,-1,-1,-1,-1,-1,-1,-1,-1,-1,-1,-1,-1,-1,-1,-1,-1,-1,-1,-1,-1,-1,-1,-1,-1,-1,-1],"split_conditions":[2.7805667E-2,5.124852E-2,3.8027264E-2,1.7195901E-1,2.671669E-2,3.705866E-2,3.177794E-2,4.8899747E-2,2.3968257E-2,2.059403E-2,1.15E1,7.1107745E-2,5.7019167E-2,9.340589E-2,2.4907645E-2,7.020136E-2,2.7503937E-2,8.947161E-2,1.15E1,-1.0049027E-1,4.5982867E-2,7.4254215E-2,1.16284624E-1,9.490083E-2,5.618576E-1,5.5631757E-2,-1.4906438E-2,4.5328707E-2,3.5624214E-2,2.8024014E-2,7.9430744E-2,3.547328E-2,4.5292594E-2,4.725317E-2,4.0151525E-1,8.642633E-2,3.9290816E-2,5.9145216E-2,1.1420086E-1,6.875483E-2,-1.0403676E-1,2.5067717E-2,8.4977436E-1,2.4921363E-2,4.3274358E-2,7.193018E-1,3.8484763E-2,-6.276964E-2,3.4273273E-1,3.8024373E-2,2.2428289E-2,1.742816E-1,-1.2457305E-1,-9.155336E-4,-9.6316725E-2,-3.773573E-2,-1.2828757E-1,-1.02960385E-1,9.080731E-2,-6.6200875E-2,2.612321E-1,-5.4294627E-2,3.945593E-2,6.548905E-2,-9.329704E-2,-7.080417E-2,7.679666E-2,6.809955E-2,-5.969284E-2,2.0844959E-1,4.464805E-2,-2.5144612E-2,9.753617E-2,7.983096E-2,-1.0547116E-1,7.767659E-2,-1.1211361E-1,1.2186747E-1,1.7185485E-2,-1.4383316E-1,-7.385295E-3,9.504377E-2,-2.4089348E-2,1.11999355E-1,-1.5546984E-2,-1.8202497E-2,1.1229493E-1,1.3478978E-1,3.0334625E-2,7.197031E-2,-8.518981E-2],"split_indices":[170313,170452,419097,2,236708,388485,343644,419097,419097,419097,5,175564,41037,408407,75615,244596,378638,388485,8,0,52696,7909,11,170452,22408,22394,0,81709,2,2,0,96119,37617,43443,345954,208089,64089,43443,12,179221,0,208017,9,0,419097,96119,410436,0,267229,359024,0,45238,0,0,0,0,0,0,0,0,0,0,0,0,0,0,0,0,0,0,0,0,0,0,0,0,0,0,0,0,0,0,0,0,0,0,0,0,0,0,0],"split_type":[0,0,0,0,0,0,0,0,0,0,0,0,0,0,0,0,0,0,0,0,0,0,0,0,0,0,0,0,0,0,0,0,0,0,0,0,0,0,0,0,0,0,0,0,0,0,0,0,0,0,0,0,0,0,0,0,0,0,0,0,0,0,0,0,0,0,0,0,0,0,0,0,0,0,0,0,0,0,0,0,0,0,0,0,0,0,0,0,0,0,0],"sum_hessian":[1.1158161E4,1.0859231E4,2.9892947E2,1.0713284E4,1.4594666E2,1.293778E2,1.6955168E2,9.854966E3,8.583183E2,1.17982796E2,2.796386E1,1.148145E2,1.4563301E1,1.6519717E2,4.3545094E0,8.207517E3,1.6474492E3,6.1684265E2,2.4147562E2,2.1055012E0,1.158773E2,2.167983E1,6.284028E0,9.8563255E1,1.6251245E1,1.3454363E1,1.1089387E0,1.6194273E2,3.2544398E0,3.3052938E0,1.0492157E0,8.197559E3,9.958662E0,7.8831085E2,8.5913837E2,5.873616E2,2.9481096E1,9.076897E1,1.5070665E2,1.1427876E2,1.5985272E0,6.397674E0,1.5282157E1,1.308438E0,4.97559E0,9.115392E1,7.409331E0,1.418922E0,1.4832324E1,1.2430183E1,1.0241787E0,1.607923E2,1.1504307E0,1.161665E0,2.0927746E0,1.220047E0,2.0852468E0,8.1718765E3,2.5681969E1,1.0900663E0,8.868596E0,6.7083405E2,1.1747684E2,1.3887324E1,8.4525104E2,5.737314E2,1.3630178E1,2.598741E1,3.4936864E0,6.432621E0,8.433634E1,1.3441023E2,1.629642E1,1.1304075E2,1.23802E0,1.7409883E0,4.656686E0,4.9664707E0,1.0315686E1,3.8948226E0,1.0807679E0,5.082546E0,8.607137E1,6.314681E0,1.0946498E0,1.0689539E0,1.37633705E1,1.1364874E1,1.0653101E0,1.5843341E2,2.3588867E0],"tree_param":{"num_deleted":"0","num_feature":"426016","num_nodes":"91","size_leaf_vector":"0"}},{"base_weights":[-8.2597435E-1,-8.586803E-1,4.1084677E-1,-6.253742E-1,-9.811901E-1,4.7807902E-1,-2.1219492E-1,-6.754301E-1,3.5947907E-1,-9.962442E-1,6.288437E-1,5.1170087E-1,-7.661075E-1,-4.844288E-1,9.4503516E-1,-7.696733E-1,-2.2214556E-1,8.8005126E-2,1.1121112E0,-1.0078311E0,2.7441216E-1,2.0026746E-1,1.0157158E0,2.7035165E-1,6.752568E-1,-7.945761E-2,-1.4404966E0,8.542969E-1,-6.586271E-1,1.1623254E0,1.1970014E-2,1.5582192E0,-7.853107E-1,-2.737343E-1,1.2860528E0,-2.7991143E-1,5.8256763E-1,1.2297193E0,-7.7761513E-1,-1.0137914E0,1.2027396E0,-2.9715762E-1,6.0044754E-1,4.7688204E-1,-4.0526575E-1,1.1296418E0,-5.9446704E-1,1.1734915E0,1.3869412E-1,7.016425E-1,-1.0192047E0,8.1296307E-1,-8.215109E-1,-8.9042556E-1,5.8540976E-1,5.2031554E-2,1.6760417E0,-8.0268455E-1,1.2568867E0,9.851807E-1,-3.3026844E-1,1.4992033E0,-2.0225888E-2,-3.5463902E-1,1.4075437E0,8.618939E-1,-2.533515E-1,1.3542726E0,-8.346925E-1,-1.0199884E0,1.0632507E0,-7.443302E-1,1.3822846E0,-7.0311236E-1,9.677339E-1,-3.4540992E-2,1.1875756E0,-8.2449114E-1,6.116754E-1,-7.030584E-1,9.3378067E-1,1.2390479E0,5.1094893E-2,-8.835592E-2,1.3081679E0,1.1049956E0,4.2317588E-2,-1.0961907E0,7.249383E-1,-1.0621457E0,7.778858E-1,9.627759E-1,-2.2696705E-1],"categories":[],"categories_nodes":[],"categories_segments":[],"categories_sizes":[],"default_left":[true,true,true,true,true,true,true,false,true,true,false,true,false,false,true,false,true,false,true,true,false,true,true,false,true,false,false,false,false,false,false,false,true,true,true,true,true,true,false,true,false,false,true,true,true,false,false,false,false,false,false,false,false,true,false,false,false,false,false,false,false,false,false,false,false,false,false,false,false,false,false,false,false,false,false,false,false,false,false,false,false,false,false,false,false,false,false,false,false,false,false,false,false],"id":15,"left_children":[1,3,5,7,9,11,13,15,17,19,21,23,25,27,29,31,33,35,37,39,41,43,45,47,49,51,-1,-1,53,-1,-1,55,57,59,61,63,65,67,-1,69,71,73,75,77,79,81,-1,83,85,87,-1,-1,-1,89,91,-1,-1,-1,-1,-1,-1,-1,-1,-1,-1,-1,-1,-1,-1,-1,-1,-1,-1,-1,-1,-1,-1,-1,-1,-1,-1,-1,-1,-1,-1,-1,-1,-1,-1,-1,-1,-1,-1],"loss_changes":[4.219502E2,2.8961475E2,1.1376961E1,1.727301E2,1.6195801E2,1.0568401E1,8.935608E0,1.4208374E2,3.461305E1,9.737451E1,1.0121815E1,9.191257E0,3.0350463E0,5.797303E0,1.0938601E0,1.015636E2,4.5058105E1,2.3078316E1,1.0945774E1,8.733057E1,1.1430558E1,5.3505654E0,6.63039E0,1.14411335E1,7.0137024E0,3.60047E0,0E0,0E0,6.4116545E0,0E0,0E0,3.236248E0,9.817993E1,3.99256E1,5.370516E0,9.690603E0,1.2837994E1,1.2110275E1,0E0,8.498682E1,7.3325844E0,1.2285809E1,1.4498972E1,4.292368E0,4.7219973E0,3.557148E0,0E0,2.2028522E0,7.9909215E0,6.6292496E0,0E0,0E0,0E0,5.87267E0,1.3870224E0,0E0,0E0,0E0,0E0,0E0,0E0,0E0,0E0,0E0,0E0,0E0,0E0,0E0,0E0,0E0,0E0,0E0,0E0,0E0,0E0,0E0,0E0,0E0,0E0,0E0,0E0,0E0,0E0,0E0,0E0,0E0,0E0,0E0,0E0,0E0,0E0,0E0,0E0],"parents":[2147483647,0,0,1,1,2,2,3,3,4,4,5,5,6,6,7,7,8,8,9,9,10,10,11,11,12,12,13,13,14,14,15,15,16,16,17,17,18,18,19,19,20,20,21,21,22,22,23,23,24,24,25,25,28,28,31,31,32,32,33,33,34,34,35,35,36,36,37,37,39,39,40,40,41,41,42,42,43,43,44,44,45,45,47,47,48,48,49,49,53,53,54,54],"right_children":[2,4,6,8,10,12,14,16,18,20,22,24,26,28,30,32,34,36,38,40,42,44,46,48,50,52,-1,-1,54,-1,-1,56,58,60,62,64,66,68,-1,70,72,74,76,78,80,82,-1,84,86,88,-1,-1,-1,90,92,-1,-1,-1,-1,-1,-1,-1,-1,-1,-1,-1,-1,-1,-1,-1,-1,-1,-1,-1,-1,-1,-1,-1,-1,-1,-1,-1,-1,-1,-1,-1,-1,-1,-1,-1,-1,-1,-1],"split_conditions":[5.0821356E-2,1.307849E-2,2.487791E-2,2.5962774E-2,6.1183788E-2,8.729817E-2,3E1,1.65E1,4.3295547E-2,3.2087862E-2,9.813049E-2,3.4230538E-2,5.5E0,2.80875E-2,2.68058E-2,7.5602216E-1,4.715009E-2,8.2485564E-2,5.5303507E-2,6.4206764E-2,3.547062E-2,2.6418E-2,3.5264302E-2,5.0434744E-1,8.072113E-2,2.5658166E-1,-1.4404966E-1,8.542969E-2,5.7096094E-2,1.1623254E-1,1.1970014E-3,5.771047E-2,7.47949E-2,9.863946E-2,2.7849335E-2,8.1E1,3.360429E-2,4.061117E-2,-7.7761516E-2,5.5150874E-2,8.546879E-2,4.122685E-2,3.1486303E-2,3.5E1,4.256241E-2,5.442708E-2,-5.9446704E-2,2.458081E-1,2.533535E-2,1.7282565E-1,-1.0192048E-1,8.129631E-2,-8.215109E-2,5.9848193E-2,1.0290778E-1,5.2031553E-3,1.6760418E-1,-8.026846E-2,1.2568867E-1,9.8518066E-2,-3.3026844E-2,1.4992033E-1,-2.0225889E-3,-3.5463903E-2,1.4075437E-1,8.618939E-2,-2.5335152E-2,1.3542727E-1,-8.346925E-2,-1.0199884E-1,1.0632507E-1,-7.443302E-2,1.3822846E-1,-7.031124E-2,9.677339E-2,-3.4540992E-3,1.1875756E-1,-8.2449116E-2,6.116754E-2,-7.030585E-2,9.337807E-2,1.2390479E-1,5.1094894E-3,-8.835592E-3,1.308168E-1,1.1049956E-1,4.231759E-3,-1.0961907E-1,7.249383E-2,-1.06214575E-1,7.7788584E-2,9.627759E-2,-2.2696706E-2],"split_indices":[170313,359024,196092,419242,170452,22394,1,1,75660,328737,170452,419097,5,412685,261436,82241,81931,11891,356167,82241,211574,236708,411444,175648,410436,419097,0,0,22394,0,0,317299,96119,9,211574,1,378638,406033,0,96119,404958,43443,419097,7,11,359024,0,761,359024,267310,0,0,0,140714,43443,0,0,0,0,0,0,0,0,0,0,0,0,0,0,0,0,0,0,0,0,0,0,0,0,0,0,0,0,0,0,0,0,0,0,0,0,0,0],"split_type":[0,0,0,0,0,0,0,0,0,0,0,0,0,0,0,0,0,0,0,0,0,0,0,0,0,0,0,0,0,0,0,0,0,0,0,0,0,0,0,0,0,0,0,0,0,0,0,0,0,0,0,0,0,0,0,0,0,0,0,0,0,0,0,0,0,0,0,0,0,0,0,0,0,0,0,0,0,0,0,0,0,0,0,0,0,0,0,0,0,0,0,0,0],"sum_hessian":[1.0421314E4,