{"learner":{"attributes":{"best_iteration":"87","best_ntree_limit":"88","best_score":"0.978831"},"feature_names":[],"feature_types":[],"gradient_booster":{"model":{"gbtree_model_param":{"num_trees":"98","size_leaf_vector":"0"},"tree_info":[0,0,0,0,0,0,0,0,0,0,0,0,0,0,0,0,0,0,0,0,0,0,0,0,0,0,0,0,0,0,0,0,0,0,0,0,0,0,0,0,0,0,0,0,0,0,0,0,0,0,0,0,0,0,0,0,0,0,0,0,0,0,0,0,0,0,0,0,0,0,0,0,0,0,0,0,0,0,0,0,0,0,0,0,0,0,0,0,0,0,0,0,0,0,0,0,0,0],"trees":[{"base_weights":[-1.9877174E0,-1.9891917E0,1.0434783E0,-1.9911083E0,-5.2459013E-1,-3.3333334E-1,1.3684211E0,-1.9913772E0,1.2E0,-9.130435E-1,5.882353E-1,5E-1,-1E0,-0E0,1.7333333E0,-1.9920899E0,-9.714286E-1,8E-1,-1.0697675E0,-8E-1,1E0,-1E0,1E0,-1.992314E0,5.4545456E-1,5.4545456E-1,-1.1746032E0,-1.2307693E0,3.3333334E-1,-0E0,1.5555556E0,-1.9924934E0,6.666667E-1,-1.2982457E0,-0E0,-0E0,-1.4117647E0,-0E0,5E-1,1E0,-8E-1],"categories":[],"categories_nodes":[],"categories_segments":[],"categories_sizes":[],"default_left":[true,true,false,true,true,true,false,true,false,false,false,false,false,true,false,true,false,false,false,false,true,false,false,true,false,false,true,false,true,false,false,false,false,false,false,false,false,false,false,false,false],"id":0,"left_children":[1,3,5,7,9,11,13,15,-1,17,19,-1,-1,21,-1,23,25,-1,27,-1,29,-1,-1,31,-1,-1,33,35,37,39,-1,-1,-1,-1,-1,-1,-1,-1,-1,-1,-1],"loss_changes":[1.0175781E2,6.1546875E1,5.6010695E0,2.15E1,1.3721647E1,2.1666667E0,4.7438583E0,1.425E1,0E0,7.030737E0,5.658824E0,0E0,0E0,4E0,0E0,1.37421875E1,6.034054E0,0E0,5.267145E0,0E0,3.8888893E0,0E0,0E0,1.19375E1,0E0,0E0,2.287386E0,4.343893E0,1.6666666E-1,3.6E0,0E0,0E0,0E0,0E0,0E0,0E0,0E0,0E0,0E0,0E0,0E0],"parents":[2147483647,0,0,1,1,2,2,3,3,4,4,5,5,6,6,7,7,9,9,10,10,13,13,15,15,16,16,18,18,20,20,23,23,26,26,27,27,28,28,29,29],"right_children":[2,4,6,8,10,12,14,16,-1,18,20,-1,-1,22,-1,24,26,-1,28,-1,30,-1,-1,32,-1,-1,34,36,38,40,-1,-1,-1,-1,-1,-1,-1,-1,-1,-1,-1],"split_conditions":[6.4435676E-2,1.308669E-1,2.8304406E-2,1.5682012E-1,3.3211164E-2,2.5E0,1.364828E-1,1.18492395E-1,1.20000005E-1,6.317351E-2,1.5E0,5E-2,-1E-1,1.6E1,1.7333333E-1,1.11744136E-1,6.600617E-2,8.0000006E-2,2.7572453E-1,-8.0000006E-2,5.4258544E-2,-1E-1,1E-1,2.3205534E-1,5.454546E-2,5.454546E-2,6.2841505E-2,1.4371932E-1,3.6E1,3.702473E-1,1.5555556E-1,-1.9924934E-1,6.666667E-2,-1.2982456E-1,-0E0,-0E0,-1.4117648E-1,-0E0,5E-2,1E-1,-8.0000006E-2],"split_indices":[218886,136615,2,68845,193983,5,218886,218852,0,6848,5,0,0,1,0,328947,268798,0,136615,0,419097,0,0,131438,0,0,193983,175564,0,24936,0,0,0,0,0,0,0,0,0,0,0],"split_type":[0,0,0,0,0,0,0,0,0,0,0,0,0,0,0,0,0,0,0,0,0,0,0,0,0,0,0,0,0,0,0,0,0,0,0,0,0,0,0,0,0],"sum_hessian":[2.2307E4,2.22965E4,1.05E1,2.2267E4,2.95E1,2E0,8.5E0,2.22655E4,1.5E0,2.2E1,7.5E0,1E0,1E0,2E0,6.5E0,2.2249E4,1.65E1,1.5E0,2.05E1,1.5E0,6E0,1E0,1E0,2.224725E4,1.75E0,1.75E0,1.475E1,1.85E1,2E0,2.5E0,3.5E0,2.2246E4,1.25E0,1.325E1,1.5E0,2.5E0,1.6E1,1E0,1E0,1E0,1.5E0],"tree_param":{"num_deleted":"0","num_feature":"426016","num_nodes":"41","size_leaf_vector":"0"}},{"base_weights":[-1.8070801E0,-1.809548E0,-4.0056503E-1,-1.8118781E0,-7.3410153E-1,-1.0437595E0,5.6425554E-1,-1.8121672E0,9.2230415E-1,1.0158906E0,-1.0324302E0,-1.3549821E0,-7.22761E-2,-7.4847835E-1,1.1876789E0,-1.8123775E0,7.676232E-1,1.4539713E0,6.7631714E-2,-1.2090828E0,3.893378E-1,-1.4856331E0,2.485585E-1,4.077195E-1,-5.9713304E-1,-1.0722414E0,2.6760352E-1,-5.804952E-1,1.4533936E0,7.8127545E-1,-1.8125585E0,7.298064E-1,-6.240225E-1,-1.2878065E0,4.357356E-1,8.6021835E-1,-2.91502E-1,-1.6261384E0,-2.7642268E-1,1.2022613E0,-4.6319824E-1,3.611954E-2,-1.0344915E0,-1.6491134E-1,-1.3489692E0,2.0090824E-1,1.6010256E0,-1.8127396E0,3.1014127E-1,-1.3501751E0,2.746351E-1,1.8792956E-1,1.1505488E0,-1.7365257E0,-6.8340194E-1],"categories":[],"categories_nodes":[],"categories_segments":[],"categories_sizes":[],"default_left":[true,true,true,true,false,false,true,true,false,true,true,true,true,true,false,false,false,false,true,true,false,true,false,false,false,true,false,false,false,false,true,false,false,true,false,false,false,true,false,false,false,false,false,false,false,false,false,false,false,false,false,false,false,false,false],"id":1,"left_children":[1,3,5,7,9,11,13,15,-1,17,19,21,23,25,27,29,-1,-1,31,33,35,37,-1,39,41,43,-1,-1,45,-1,47,-1,-1,49,-1,51,-1,53,-1,-1,-1,-1,-1,-1,-1,-1,-1,-1,-1,-1,-1,-1,-1,-1,-1],"loss_changes":[7.608594E1,5.4023438E1,2.543882E1,1.9085938E1,2.6857492E1,7.2725353E0,1.4528495E1,1.33515625E1,0E0,3.1020217E0,1.1203011E1,4.2254906E0,1.9996712E0,2.2541142E0,6.33436E0,1.1765625E1,0E0,0E0,2.050725E0,5.5142555E0,2.0072653E0,2.466507E0,0E0,3.487687E0,1.0719887E0,9.66311E-1,0E0,0E0,1.609726E0,0E0,9.03125E0,0E0,0E0,3.9527435E0,0E0,4.653604E-1,0E0,3.921013E-1,0E0,0E0,0E0,0E0,0E0,0E0,0E0,0E0,0E0,0E0,0E0,0E0,0E0,0E0,0E0,0E0,0E0],"parents":[2147483647,0,0,1,1,2,2,3,3,4,4,5,5,6,6,7,7,9,9,10,10,11,11,12,12,13,13,14,14,15,15,18,18,19,19,20,20,21,21,23,23,24,24,25,25,28,28,30,30,33,33,35,35,37,37],"right_children":[2,4,6,8,10,12,14,16,-1,18,20,22,24,26,28,30,-1,-1,32,34,36,38,-1,40,42,44,-1,-1,46,-1,48,-1,-1,50,-1,52,-1,54,-1,-1,-1,-1,-1,-1,-1,-1,-1,-1,-1,-1,-1,-1,-1,-1,-1],"split_conditions":[9.36732E-2,7.7551976E-2,3.47566E-2,1.5682012E-1,6.312544E-1,4.025E-1,3.567917E-2,1.11744136E-1,9.223042E-2,3.3397138E-2,3.6356705E-1,6.044904E-2,1.55E1,4.007098E-2,3.7963517E-2,8.744574E-1,7.676232E-2,1.4539713E-1,8.307055E-1,7.36725E-2,7.404596E-1,3.080795E-2,2.485585E-2,2.1047723E-1,6.1368946E-2,1.65E1,2.6760353E-2,-5.804952E-2,1.07939854E-1,7.812755E-2,6.0076855E-2,7.298064E-2,-6.240225E-2,1.670602E-1,4.3573562E-2,5.290984E-1,-2.9150201E-2,5.4583468E-2,-2.7642269E-2,1.2022614E-1,-4.6319824E-2,3.611954E-3,-1.0344916E-1,-1.6491136E-2,-1.3489692E-1,2.0090824E-2,1.6010256E-1,-1.8127397E-1,3.1014128E-2,-1.3501751E-1,2.746351E-2,1.8792955E-2,1.1505488E-1,-1.7365257E-1,-6.83402E-2],"split_indices":[218852,136615,193983,68845,194568,2,419097,328947,0,43443,2,141586,8,64089,356167,135251,0,0,9,329247,2,164362,0,218852,64089,7,0,0,198407,0,64999,0,0,411613,0,2,0,22394,0,0,0,0,0,0,0,0,0,0,0,0,0,0,0,0,0],"split_type":[0,0,0,0,0,0,0,0,0,0,0,0,0,0,0,0,0,0,0,0,0,0,0,0,0,0,0,0,0,0,0,0,0,0,0,0,0,0,0,0,0,0,0,0,0,0,0,0,0,0,0,0,0,0,0],"sum_hessian":[2.2127297E4,2.2088252E4,3.90438E1,2.2039818E4,4.843498E1,2.337747E1,1.5666331E1,2.2037824E4,1.9928173E0,6.704018E0,4.173096E1,1.7406424E1,5.9710445E0,4.979814E0,1.0686518E1,2.2036326E4,1.4988848E0,4.2207785E0,2.4832397E0,3.725204E1,4.47892E0,1.6163044E1,1.24338E0,3.2353818E0,2.735663E0,3.7345657E0,1.2452483E0,1.2413573E0,9.44516E0,1.2376753E0,2.2035088E4,1.2404749E0,1.2427647E0,3.575767E1,1.4943695E0,2.4919665E0,1.9869534E0,1.4171572E1,1.9914731E0,1.492926E0,1.7424558E0,1.4923295E0,1.2433333E0,1.2457983E0,2.4887676E0,1.2448591E0,8.200301E0,2.2033355E4,1.7327454E0,3.4515747E1,1.2419227E0,1.2484207E0,1.2435457E0,1.1932377E1,2.2391942E0],"tree_param":{"num_deleted":"0","num_feature":"426016","num_nodes":"55","size_leaf_vector":"0"}},{"base_weights":[-1.6718135E0,-1.6724691E0,5.354718E-1,-1.6729774E0,2.296999E-1,1.0777383E0,-5.897623E-1,-1.6732402E0,1.0183407E0,7.9822147E-1,-1.0575192E0,-8.827522E-2,1.4604272E0,-1.6737005E0,-1.0607408E-1,-1.5677978E-1,1.1376493E0,-1.6739196E0,9.307417E-1,-6.954784E-1,1.1654302E0,6.9089895E-1,-1.6741397E0,-1.1191043E0,1.7229725E-1],"categories":[],"categories_nodes":[],"categories_segments":[],"categories_sizes":[],"default_left":[true,true,true,true,true,true,false,true,false,false,false,false,false,true,true,false,false,false,false,false,false,false,false,false,false],"id":2,"left_children":[1,3,5,7,9,11,-1,13,-1,15,-1,-1,-1,17,19,-1,-1,21,-1,23,-1,-1,-1,-1,-1],"loss_changes":[3.219922E1,2.1296875E1,5.0174704E0,1.6992188E1,5.7162066E0,2.4491053E0,0E0,1.5417969E1,0E0,1.860012E0,0E0,0E0,0E0,1.3894531E1,6.3684874E0,0E0,0E0,1.240625E1,0E0,2.2858443E0,0E0,0E0,0E0,0E0,0E0],"parents":[2147483647,0,0,1,1,2,2,3,3,4,4,5,5,7,7,9,9,13,13,14,14,17,17,19,19],"right_children":[2,4,6,8,10,12,-1,14,-1,16,-1,-1,-1,18,20,-1,-1,22,-1,24,-1,-1,-1,-1,-1],"split_conditions":[1.0093154E-1,6.7251876E-2,2.9207345E-2,8.7848514E-2,2.4821822E-2,2.4176024E-2,-5.897623E-2,1.3987425E-1,1.0183407E-1,3.3990078E-2,-1.05751924E-1,-8.8275215E-3,1.4604272E-1,1.3215464E-1,1.1260564E-1,-1.567798E-2,1.13764934E-1,2.866606E-1,9.307417E-2,4.1E1,1.1654302E-1,6.90899E-2,-1.6741398E-1,-1.11910425E-1,1.7229727E-2],"split_indices":[419599,411764,378638,24061,359024,193983,0,380854,0,378638,0,0,0,302354,176092,0,0,175670,0,1,0,0,0,0,0],"split_type":[0,0,0,0,0,0,0,0,0,0,0,0,0,0,0,0,0,0,0,0,0,0,0,0,0],"sum_hessian":[2.1633518E4,2.1627336E4,6.1812983E0,2.162168E4,5.657548E0,4.1996408E0,1.9816577E0,2.1619947E4,1.7324009E0,4.187816E0,1.4697313E0,1.2278467E0,2.9717941E0,2.1613531E4,6.416243E0,1.239241E0,2.9485753E0,2.161207E4,1.4607878E0,4.693571E0,1.722672E0,1.719354E0,2.161035E4,2.959295E0,1.734276E0],"tree_param":{"num_deleted":"0","num_feature":"426016","num_nodes":"25","size_leaf_vector":"0"}},{"base_weights":[-1.5666144E0,-1.5679121E0,9.489325E-1,-1.5690521E0,-5.0559354E-1,-6.73248E-2,1.203947E0,-1.5693046E0,1.150228E0,8.801105E-1,-7.1043015E-1,-1.9006616E-1,1.4488386E0,-1.5703566E0,-9.0505904E-1,2.5309363E-1,1.1138555E0,-8.3626425E-1,7.3805547E-1,-1.5706449E0,1.9260752E-1,-1.0129389E0,9.1989726E-1,2.668172E-1,-9.8897076E-1,-1.5708301E0,8.650002E-1,-3.2576713E-1,7.286134E-1,-1.1194351E0,4.6018118E-1,-1.1189666E0,2.670583E-1],"categories":[],"categories_nodes":[],"categories_segments":[],"categories_sizes":[],"default_left":[true,true,false,true,false,false,false,true,false,true,false,false,false,true,true,false,false,true,false,true,false,true,false,false,true,false,false,false,false,false,false,false,false],"id":3,"left_children":[1,3,5,7,9,-1,11,13,-1,15,17,-1,-1,19,21,-1,-1,23,-1,25,27,29,-1,-1,31,-1,-1,-1,-1,-1,-1,-1,-1],"loss_changes":[6.9E1,2.4246094E1,3.0060349E0,1.59765625E1,7.3343754E0,0E0,3.3735228E0,1.3011719E1,0E0,2.2969437E-1,4.4714766E0,0E0,0E0,1.0777344E1,7.824478E0,0E0,0E0,3.6201372E0,0E0,1.0660156E1,1.4212447E0,5.775715E0,0E0,0E0,3.191187E0,0E0,0E0,0E0,0E0,0E0,0E0,0E0,0E0],"parents":[2147483647,0,0,1,1,2,2,3,3,4,4,6,6,7,7,9,9,10,10,13,13,14,14,17,17,19,19,20,20,21,21,24,24],"right_children":[2,4,6,8,10,-1,12,14,-1,16,18,-1,-1,20,22,-1,-1,24,-1,26,28,30,-1,-1,32,-1,-1,-1,-1,-1,-1,-1,-1],"split_conditions":[6.427485E-2,1.3290384E-1,2.584108E-2,1.5682012E-1,2.2729473E-1,-6.73248E-3,4.9999345E-2,7.540004E-2,1.150228E-1,2.15E1,3.2993248E-1,-1.9006616E-2,1.4488386E-1,2.1013376E-1,6.982167E-2,2.5309363E-2,1.1138555E-1,8.6190474E-1,7.380555E-2,2.0423973E-1,1.0000001E1,4.0610567E-2,9.1989726E-2,2.6681721E-2,1.1415397E-1,-1.5708302E-1,8.650002E-2,-3.2576714E-2,7.2861336E-2,-1.11943506E-1,4.601812E-2,-1.1189666E-1,2.6705831E-2],"split_indices":[218886,136615,2,68845,24936,0,421127,218852,0,7,136615,0,0,101948,152995,0,0,9,0,131438,5,14821,0,0,191935,0,0,0,0,0,0,0,0],"split_type":[0,0,0,0,0,0,0,0,0,0,0,0,0,0,0,0,0,0,0,0,0,0,0,0,0,0,0,0,0,0,0,0,0],"sum_hessian":[2.0680818E4,2.0670531E4,1.0286373E1,2.0647895E4,2.2636736E1,2.2110636E0,8.075309E0,2.06464E4,1.4936363E0,2.4906988E0,2.0146038E1,1.2400973E0,6.8352118E0,2.061239E4,3.4010242E1,1.2419543E0,1.2487444E0,1.8924662E1,1.221377E0,2.0609129E4,3.2608547E0,3.25321E1,1.4781401E0,2.210411E0,1.671425E1,2.0607918E4,1.2125125E0,1.8570867E0,1.4037681E0,3.0562725E1,1.9693769E0,1.5245502E1,1.4687473E0],"tree_param":{"num_deleted":"0","num_feature":"426016","num_nodes":"33","size_leaf_vector":"0"}},{"base_weights":[-1.4820051E0,-1.483199E0,1.3307949E0,1.1707047E0,-1.4834777E0,1.19631335E-1,1.5048912E0,-1.4837184E0,1.1358075E0,7.77685E-1,-1.4839851E0,-1.4844041E0,9.6719E-3,-1.4847124E0,3.3152586E-1,8.842028E-1,-4.886949E-1],"categories":[],"categories_nodes":[],"categories_segments":[],"categories_sizes":[],"default_left":[true,false,false,false,true,false,false,false,false,false,true,true,false,false,false,false,false],"id":4,"left_children":[1,3,5,-1,7,-1,-1,9,-1,-1,11,13,15,-1,-1,-1,-1],"loss_changes":[6.829297E1,1.634375E1,1.697855E0,0E0,1.4125E1,0E0,0E0,1.3058594E1,0E0,0E0,1.2363281E1,1.15390625E1,3.2775402E0,0E0,0E0,0E0,0E0],"parents":[2147483647,0,0,1,1,2,2,4,4,7,7,10,10,11,11,12,12],"right_children":[2,4,6,-1,8,-1,-1,10,-1,-1,12,14,16,-1,-1,-1,-1],"split_conditions":[9.1915175E-2,2.8331846E-1,1.1610627E-1,1.17070474E-1,1.3259101E-1,1.1963134E-2,1.5048912E-1,7.788835E-1,1.13580756E-1,7.77685E-2,1.5133306E-1,1.8072128E-1,1.3525784E-1,-1.4847124E-1,3.3152588E-2,8.842028E-2,-4.886949E-2],"split_indices":[218886,193625,176092,0,227930,0,0,328947,0,0,136622,136655,24936,0,0,0,0],"split_type":[0,0,0,0,0,0,0,0,0,0,0,0,0,0,0,0,0],"sum_hessian":[1.9747926E4,1.974002E4,7.9058857E0,1.632105E0,1.9738387E4,1.2056308E0,6.700255E0,1.9737008E4,1.3794932E0,1.9834899E0,1.9735025E4,1.9729496E4,5.5286646E0,1.972633E4,3.1666298E0,1.7258875E0,3.802777E0],"tree_param":{"num_deleted":"0","num_feature":"426016","num_nodes":"17","size_leaf_vector":"0"}},{"base_weights":[-1.4130367E0,-1.4141434E0,1.0544947E0,1.0484766E0,-1.414568E0,-2.696504E-1,1.2949681E0,-4.9775492E-2,1.5519679E0,-1.4149953E0,2.1893428E-1,-1.4152765E0,7.26543E-1,1.0477419E0,-5.8659035E-1,1.2242372E0,-1.4154898E0,6.858363E-2,-9.3313265E-1,1.0352452E0,-1.4156954E0],"categories":[],"categories_nodes":[],"categories_segments":[],"categories_sizes":[],"default_left":[true,false,false,false,true,false,false,false,false,true,true,false,false,false,true,false,false,false,false,false,false],"id":5,"left_children":[1,3,5,7,9,-1,-1,-1,-1,11,13,15,-1,-1,17,-1,19,-1,-1,-1,-1],"loss_changes":[5.2609375E1,2.1039062E1,3.2035646E0,2.1777005E0,1.3371094E1,0E0,0E0,0E0,0E0,1.2285156E1,4.4590974E0,1.2265625E1,0E0,0E0,8.725836E-1,0E0,1.0886719E1,0E0,0E0,0E0,0E0],"parents":[2147483647,0,0,1,1,2,2,3,3,4,4,9,9,10,10,11,11,14,14,16,16],"right_children":[2,4,6,8,10,-1,-1,-1,-1,12,14,16,-1,-1,18,-1,20,-1,-1,-1,-1],"split_conditions":[1.2887713E-1,5.964573E-1,1.0905161E-1,6.847688E-2,1.6310771E-1,-2.696504E-2,1.2949681E-1,-4.9775494E-3,1.5519679E-1,1.3259101E-1,9.1309524E-1,9.1256124E-1,7.26543E-2,1.0477419E-1,2.5E0,1.2242372E-1,8.744574E-1,6.8583633E-3,-9.331327E-2,1.0352452E-1,-1.4156954E-1],"split_indices":[218886,302354,7524,421127,136622,0,0,0,0,227930,9,333424,0,0,1,0,135251,0,0,0,0],"split_type":[0,0,0,0,0,0,0,0,0,0,0,0,0,0,0,0,0,0,0,0,0],"sum_hessian":[1.8714887E4,1.8706922E4,7.9641366E0,2.7985556E0,1.8704123E4,1.2053967E0,6.75874E0,1.1629603E0,1.6355954E0,1.8699365E4,4.7584767E0,1.869725E4,2.1154938E0,2.1971376E0,2.561339E0,1.0473936E0,1.8696203E4,1.1635741E0,1.3977649E0,1.1458832E0,1.8695057E4],"tree_param":{"num_deleted":"0","num_feature":"426016","num_nodes":"21","size_leaf_vector":"0"}},{"base_weights":[-1.3552854E0,-1.356678E0,8.29547E-1,9.264706E-1,-1.3571272E0,1.0655361E0,-5.839489E-1,-4.1430166E-1,1.5542352E0,-1.3579248E0,-6.479297E-2,1.2300452E0,-1.1828898E-1,-1.3583164E0,1.02255E0,4.5652327E-1,-6.979438E-1,1.396854E0,5.912756E-2,-1.3588041E0,2.4205739E-2,1.2645761E0,3.227938E-1,-4.77069E-1,7.597501E-1,-1.0883836E0,1.1450254E-1,-1.3591641E0,3.9144316E-1,-5.356201E-1,9.330342E-1,-3.2743016E-1,1.0874543E0],"categories":[],"categories_nodes":[],"categories_segments":[],"categories_sizes":[],"default_left":[true,false,true,false,true,true,false,false,false,true,false,true,false,true,true,false,false,false,false,true,true,false,false,false,false,false,false,false,false,false,false,false,false],"id":6,"left_children":[1,3,5,7,9,11,-1,-1,-1,13,15,17,-1,19,21,23,25,-1,-1,27,29,-1,-1,-1,31,-1,-1,-1,-1,-1,-1,-1,-1],"loss_changes":[5.4691406E1,1.9302734E1,4.5700417E0,4.057267E0,1.8046875E1,2.1895685E0,0E0,0E0,0E0,1.7777344E1,4.2471027E0,1.7344666E0,0E0,1.1884766E1,1.7812991E-1,2.381446E0,1.9549022E0,0E0,0E0,1.1603516E1,4.1535215E0,0E0,0E0,0E0,2.4114695E0,0E0,0E0,0E0,0E0,0E0,0E0,0E0,0E0],"parents":[2147483647,0,0,1,1,2,2,3,3,4,4,5,5,9,9,10,10,11,11,13,13,14,14,15,15,16,16,19,19,20,20,24,24],"right_children":[2,4,6,8,10,12,-1,-1,-1,14,16,18,-1,20,22,24,26,-1,-1,28,30,-1,-1,-1,32,-1,-1,-1,-1,-1,-1,-1,-1],"split_conditions":[4.133687E-2,8.44006E-1,3.179339E-2,3.7031464E-2,1.4403339E-1,2.838654E-2,-5.839489E-2,-4.1430168E-2,1.5542352E-1,1.11744136E-1,1.9813396E-1,5.0755642E-2,-1.1828898E-2,1.4806795E-1,1.13961045E-2,2.2663274E-1,3.4E1,1.396854E-1,5.912756E-3,8.575773E-2,2.5386607E-2,1.2645762E-1,3.2279383E-2,-4.77069E-2,3.584657E-2,-1.0883836E-1,1.1450254E-2,-1.3591641E-1,3.914432E-2,-5.356201E-2,9.330342E-2,-3.2743018E-2,1.0874543E-1],"split_indices":[218886,302353,164362,2,218852,41037,0,0,0,328947,218852,22394,0,101948,2,380854,1,0,0,136616,419097,0,0,0,11891,0,0,0,0,0,0,0,0],"split_type":[0,0,0,0,0,0,0,0,0,0,0,0,0,0,0,0,0,0,0,0,0,0,0,0,0,0,0,0,0,0,0,0,0],"sum_hessian":[1.7605E4,1.7594164E4,1.0835071E1,3.0553496E0,1.759111E4,9.495865E0,1.3392059E0,1.0827856E0,1.972564E0,1.7580207E4,1.0901881E1,8.303004E0,1.1928607E0,1.7577746E4,2.4620328E0,6.1319747E0,4.7699065E0,7.098758E0,1.204246E0,1.7571564E4,6.1813536E0,1.2295864E0,1.2324464E0,1.3628004E0,4.7691746E0,2.9922667E0,1.7776396E0,1.7568174E4,3.3901074E0,4.0792437E0,2.1021101E0,1.1047915E0,3.6643827E0],"tree_param":{"num_deleted":"0","num_feature":"426016","num_nodes":"33","size_leaf_vector":"0"}},{"base_weights":[-1.3091114E0,-1.3115566E0,6.4518765E-2,-1.3133066E0,3.364453E-2,-2.6690704E-1,1.0396087E0,-1.3137116E0,7.2326934E-1,-5.818464E-1,6.4774305E-1,1.2647972E0,-4.6346495E-1,1.4809769E0,4.6349168E-1,5.892012E-1,-1.3140578E0,1.53097E0,-4.083433E-1,2.2275841E-1,-9.255313E-1,8.873766E-1,-8.4748286E-1,-7.21671E-1,8.3733964E-1,7.9985446E-1,-3.4598786E-1,-6.9486266E-1,1.4105324E0,-1.3143295E0,7.98745E-1,6.212629E-1,-3.9516282E-1,1.9969253E-1,-1.1183488E0,1.114525E0,-4.0666783E-1,-9.5467734E-1,5.5076766E-1,1.250151E0,-8.099909E-2,2.0562227E-1,1.1887904E0,-1.3145357E0,8.5994416E-1,-2.2877812E-1,-1.2271886E0,1.2636613E0,-1.8681403E-3,1.24905944E-1,-1.0434437E0,1.1467472E0,-3.717253E-1],"categories":[],"categories_nodes":[],"categories_segments":[],"categories_sizes":[],"default_left":[true,true,false,true,true,false,false,false,true,true,true,false,true,false,false,false,true,false,false,false,false,true,false,true,false,true,false,false,false,true,false,false,false,false,false,true,false,false,false,false,false,false,false,false,false,false,false,false,false,false,false,false,false],"id":7,"left_children":[1,3,5,7,9,11,13,15,17,19,21,-1,23,-1,25,27,29,-1,-1,31,33,35,-1,37,39,41,-1,-1,-1,43,-1,-1,-1,-1,45,47,-1,49,51,-1,-1,-1,-1,-1,-1,-1,-1,-1,-1,-1,-1,-1,-1],"loss_changes":[5.5527344E1,3.883203E1,1.0064358E1,1.4527344E1,8.836764E0,7.6304502E0,1.3189516E0,1.1613281E1,4.20588E0,3.4430325E0,4.935985E0,0E0,7.814968E0,0E0,1.6045207E0,4.8643622E0,1.0490234E1,0E0,0E0,1.3066684E0,2.0449138E0,3.5550718E0,0E0,5.9959164E0,1.624686E0,6.215551E-1,0E0,0E0,0E0,8.503906E0,0E0,0E0,0E0,0E0,4.2788887E-1,1.5414686E0,0E0,1.6597958E0,2.344883E0,0E0,0E0,0E0,0E0,0E0,0E0,0E0,0E0,0E0,0E0,0E0,0E0,0E0,0E0],"parents":[2147483647,0,0,1,1,2,2,3,3,4,4,5,5,6,6,7,7,8,8,9,9,10,10,12,12,14,14,15,15,16,16,19,19,20,20,21,21,23,23,24,24,25,25,29,29,34,34,35,35,37,37,38,38],"right_children":[2,4,6,8,10,12,14,16,18,20,22,-1,24,-1,26,28,30,-1,-1,32,34,36,-1,38,40,42,-1,-1,-1,44,-1,-1,-1,-1,46,48,-1,50,52,-1,-1,-1,-1,-1,-1,-1,-1,-1,-1,-1,-1,-1,-1],"split_conditions":[1.1639249E-1,1.080519E-1,2.2528718E-1,1.6386408E-1,3.6393896E-2,1.0730031E-1,2.2282687E-1,1.9282144E-1,3.9862473E-2,1.5E1,4.3058287E-2,1.2647973E-1,7.414935E-2,1.480977E-1,2.92222E-1,4.792968E-2,8.779919E-2,1.53097E-1,-4.083433E-2,2.419234E-1,8.097123E-2,1.2825313E-1,-8.474829E-2,1.5E0,1.4729868E-1,4.15E1,-3.4598786E-2,-6.948627E-2,1.4105324E-1,1.8601573E-1,7.98745E-2,6.212629E-2,-3.951628E-2,1.9969253E-2,1.0946955E-1,4.00597E-2,-4.0666785E-2,5.852807E-1,5.7133317E-2,1.2501511E-1,-8.099909E-3,2.0562228E-2,1.1887904E-1,-1.3145357E-1,8.5994415E-2,-2.2877812E-2,-1.2271886E-1,1.2636612E-1,-1.8681404E-4,1.2490595E-2,-1.0434437E-1,1.14674725E-1,-3.717253E-2],"split_indices":[136615,218852,136615,101956,419097,419242,419097,421985,22394,7,41037,0,419097,0,136615,7909,419599,0,0,218852,421127,423150,0,3,193983,0,0,0,0,302353,0,0,0,0,761,196092,0,411613,419097,0,0,0,0,0,0,0,0,0,0,0,0,0,0],"split_type":[0,0,0,0,0,0,0,0,0,0,0,0,0,0,0,0,0,0,0,0,0,0,0,0,0,0,0,0,0,0,0,0,0,0,0,0,0,0,0,0,0,0,0,0,0,0,0,0,0,0,0,0,0],"sum_hessian":[1.6505223E4,1.6475938E4,2.9284E1,1.6454557E4,2.1382278E1,2.2397524E1,6.8864765E0,1.6451639E4,2.9176173E0,1.0705262E1,1.0677016E1,1.9292047E0,2.0468319E1,3.009927E0,3.8765492E0,2.6829915E0,1.6448955E4,1.4965377E0,1.4210798E0,3.3094118E0,7.3958507E0,9.55259E0,1.1244265E0,1.7449795E1,3.0185235E0,2.7469857E0,1.1295636E0,1.1067247E0,1.5762666E0,1.6447219E4,1.7364403E0,2.0086212E0,1.3007907E0,1.07673E0,6.319121E0,8.244185E0,1.308405E0,1.4960066E1,2.4897301E0,1.8331627E0,1.1853608E0,1.6914296E0,1.055556E0,1.6446055E4,1.1642015E0,1.027022E0,5.292099E0,7.156281E0,1.0879042E0,1.1056713E0,1.3854394E1,1.3648611E0,1.1248689E0],"tree_param":{"num_deleted":"0","num_feature":"426016","num_nodes":"53","size_leaf_vector":"0"}},{"base_weights":[-1.2678609E0,-1.2702471E0,1.7287405E-2,-1.2728653E0,-1.6006617E-1,-3.484887E-1,5.6746817E-1,1.1282638E0,-1.2731885E0,9.3341875E-1,-4.951415E-1,1.050798E0,-5.254226E-1,8.6845624E-1,-8.6479217E-1,1.294078E0,-1.273442E0,1.2062505E0,1.6937435E-1,-6.776777E-1,7.7035725E-1,3.2194173E-1,-8.144816E-1,1.8187559E-1,1.4435658E0,-1.273959E0,5.763676E-2,-4.5176107E-1,8.2552224E-1,-7.824135E-1,5.8448744E-1,1.2162169E0,-2.731517E-1,-5.069476E-1,8.795662E-1,2.9369006E-1,-1.0908514E0,-9.3284875E-1,8.600034E-1,1.7198675E0,4.489497E-1,-1.2742233E0,9.823136E-1,5.67679E-1,-8.419027E-1,-8.1798606E-2,-1.0965959E0,-5.2316535E-1,1.0023435E0,-1.2234893E0,6.594809E-2,1.2008218E0,1.7544377E-1],"categories":[],"categories_nodes":[],"categories_segments":[],"categories_sizes":[],"default_left":[true,true,false,false,false,false,true,false,false,true,true,false,true,true,false,false,true,false,false,true,true,true,false,false,true,true,true,false,false,true,false,false,false,false,false,false,true,false,false,false,false,false,false,false,false,false,false,false,false,false,false,false,false],"id":8,"left_children":[1,3,5,7,9,11,13,-1,15,17,19,-1,21,23,-1,-1,25,-1,27,29,31,33,35,37,39,41,43,-1,-1,45,-1,-1,-1,-1,-1,47,49,-1,51,-1,-1,-1,-1,-1,-1,-1,-1,-1,-1,-1,-1,-1,-1],"loss_changes":[4.715625E1,4.4384766E1,6.128675E0,1.3316406E1,1.4106094E1,5.0882754E0,5.98861E0,0E0,1.1607422E1,1.6886559E0,7.257279E0,0E0,4.409487E0,3.898726E0,0E0,0E0,1.0605469E1,0E0,1.8209039E0,3.8961287E0,2.2599897E0,2.7677917E0,4.2737722E0,5.298439E0,7.642708E-1,1.0371094E1,3.6430166E0,0E0,0E0,5.291774E0,0E0,0E0,0E0,0E0,0E0,2.4720156E0,1.6984901E0,0E0,7.735429E-1,0E0,0E0,0E0,0E0,0E0,0E0,0E0,0E0,0E0,0E0,0E0,0E0,0E0,0E0],"parents":[2147483647,0,0,1,1,2,2,3,3,4,4,5,5,6,6,8,8,9,9,10,10,12,12,13,13,16,16,18,18,19,19,20,20,21,21,22,22,23,23,24,24,25,25,26,26,29,29,35,35,36,36,38,38],"right_children":[2,4,6,8,10,12,14,-1,16,18,20,-1,22,24,-1,-1,26,-1,28,30,32,34,36,38,40,42,44,-1,-1,46,-1,-1,-1,-1,-1,48,50,-1,52,-1,-1,-1,-1,-1,-1,-1,-1,-1,-1,-1,-1,-1,-1],"split_conditions":[1.1810015E-1,7.5478286E-2,7.5E0,3.347987E-1,8.890312E-1,1.8433265E-1,2.1854699E-2,1.12826385E-1,9.1256124E-1,3.848502E-2,6.7205384E-2,1.0507981E-1,5.85E1,8.5E0,-8.647922E-2,1.2940781E-1,8.600697E-2,1.2062506E-1,5.2568972E-2,4.4047352E-2,1.1741136E-1,2.8219396E-2,8.514424E-2,2.6906675E-1,1.765E2,1.8927121E-1,2.4092793E-2,-4.5176107E-2,8.2552224E-2,1.165E2,5.8448743E-2,1.2162169E-1,-2.731517E-2,-5.069476E-2,8.795662E-2,3.557064E-2,3.48068E-2,-9.3284875E-2,3.0485E3,1.7198674E-1,4.489497E-2,-1.2742233E-1,9.823136E-2,5.67679E-2,-8.419027E-2,-8.179861E-3,-1.0965959E-1,-5.2316535E-2,1.0023435E-1,-1.2234893E-1,6.5948092E-3,1.2008218E-1,1.7544378E-2],"split_indices":[136615,218852,5,218703,218886,14821,198407,0,333424,6848,170313,0,0,8,0,0,379728,0,6848,14821,67427,2,75615,136615,0,302353,255837,0,0,0,0,0,0,0,0,2,8108,0,1,0,0,0,0,0,0,0,0,0,0,0,0,0,0],"split_type":[0,0,0,0,0,0,0,0,0,0,0,0,0,0,0,0,0,0,0,0,0,0,0,0,0,0,0,0,0,0,0,0,0,0,0,0,0,0,0,0,0,0,0,0,0,0,0,0,0,0,0,0,0],"sum_hessian":[1.5368457E4,1.5339985E4,2.8471434E1,1.5303748E4,3.6237797E1,1.7321915E1,1.1149519E1,1.5903159E0,1.5302157E4,8.080896E0,2.8156898E1,1.3900144E0,1.5931901E1,9.538631E0,1.6108874E0,1.00677E0,1.530115E4,5.528102E0,2.5527945E0,2.5013443E1,3.1434553E0,4.023481E0,1.1908421E1,4.9479213E0,4.59071E0,1.5295252E4,5.898572E0,1.4714022E0,1.0813923E0,2.344782E1,1.5656226E0,2.0864651E0,1.05699E0,1.6547028E0,2.3687782E0,2.3645427E0,9.543878E0,1.7294242E0,3.218497E0,3.0220232E0,1.5686867E0,1.5293896E4,1.3558238E0,3.9996681E0,1.8989041E0,7.6496787E0,1.5798142E1,1.2200058E0,1.144537E0,8.510427E0,1.0334498E0,1.6452382E0,1.5732589E0],"tree_param":{"num_deleted":"0","num_feature":"426016","num_nodes":"53","size_leaf_vector":"0"}},{"base_weights":[-1.231644E0,-1.2354153E0,-8.4238455E-2,-1.2365795E0,8.3621025E-1,-5.528843E-1,5.2989817E-1,1.3181678E0,-1.2369592E0,-2.0409477E-1,1.2076752E0,-7.0706993E-1,8.804891E-1,8.142123E-1,-4.015249E-1,-1.2375935E0,4.1704527E-1,-7.7228904E-1,4.4214827E-1,-9.737383E-1,1.01860136E-1,2.2693785E-1,1.1037191E0,1.0079857E0,-7.550211E-1,-9.4793403E-1,1.12960674E-1,1.2428095E0,-1.2379817E0,-7.3653483E-1,9.2073464E-1,-1.1212444E0,-1.05355985E-1,-2.2391003E-1,9.985574E-1,-7.045552E-1,1.1788206E0,-3.1747177E-1,6.328196E-1,-1.2392671E0,-6.062051E-1,2.8931883E-1,1.6117682E0,-2.2523816E-1,-1.1710372E0,4.0531394E-1,-7.534434E-1,6.059706E-1,-6.7962235E-1,1.4339772E0,-1.6285545E-1],"categories":[],"categories_nodes":[],"categories_segments":[],"categories_sizes":[],"default_left":[true,true,true,false,true,true,true,false,true,false,false,false,false,true,false,false,false,false,false,false,true,false,false,false,false,false,true,false,true,false,false,false,false,false,false,false,true,false,false,false,false,false,false,false,false,false,false,false,false,false,false],"id":9,"left_children":[1,3,5,7,9,11,13,-1,15,17,-1,19,21,23,25,27,29,-1,-1,31,33,-1,-1,35,-1,-1,37,-1,39,-1,41,43,45,47,-1,-1,49,-1,-1,-1,-1,-1,-1,-1,-1,-1,-1,-1,-1,-1,-1],"loss_changes":[6.1572266E1,3.5296875E1,1.404081E1,1.5404297E1,3.5604906E0,6.7183123E0,5.9370146E0,0E0,1.5410156E1,1.4841301E0,0E0,5.5908155E0,2.0531559E-1,5.796775E0,1.6881056E0,1.5203125E1,4.274909E0,0E0,0E0,2.3464546E0,2.331771E0,0E0,0E0,5.2683563E0,0E0,0E0,1.0490037E0,0E0,1.07734375E1,0E0,1.6076527E0,4.6538734E-1,1.5952767E0,2.7227583E0,0E0,0E0,5.0834217E0,0E0,0E0,0E0,0E0,0E0,0E0,0E0,0E0,0E0,0E0,0E0,0E0,0E0,0E0],"parents":[2147483647,0,0,1,1,2,2,3,3,4,4,5,5,6,6,8,8,9,9,11,11,12,12,13,13,14,14,15,15,16,16,19,19,20,20,23,23,26,26,28,28,30,30,31,31,32,32,33,33,36,36],"right_children":[2,4,6,8,10,12,14,-1,16,18,-1,20,22,24,26,28,30,-1,-1,32,34,-1,-1,36,-1,-1,38,-1,40,-1,42,44,46,48,-1,-1,50,-1,-1,-1,-1,-1,-1,-1,-1,-1,-1,-1,-1,-1,-1],"split_conditions":[7.33373E-2,4.6418004E-2,4.7256004E-2,3.072971E-1,3.376475E-2,9.208669E-2,3.183858E-2,1.3181679E-1,1.523962E-1,1.8E1,1.2076753E-1,1.55E1,2.915224E-1,2.7652863E-2,4.626E-2,7.8210276E-1,1.5308523E-1,-7.7228904E-2,4.4214826E-2,3E1,5.4330535E-2,2.2693785E-2,1.1037191E-1,3.7506586E-1,-7.550211E-2,-9.47934E-2,5.2469417E-2,1.2428095E-1,1.3019365E-1,-7.365348E-2,7.5E0,6.9302924E-2,5.0112747E-2,7.148813E-2,9.985574E-2,-7.045552E-2,8.313339E-2,-3.1747177E-2,6.328196E-2,-1.23926714E-1,-6.0620513E-2,2.8931884E-2,1.6117683E-1,-2.2523817E-2,-1.1710372E-1,4.0531393E-2,-7.534435E-2,6.0597062E-2,-6.796224E-2,1.4339773E-1,-1.6285544E-2],"split_indices":[136615,218886,419097,175670,193983,170313,378638,0,328928,4,0,5,65837,211574,22394,302354,208017,0,0,1,247363,0,0,347284,0,0,193983,0,195358,0,1,334158,22394,64089,0,0,175564,0,0,0,0,0,0,0,0,0,0,0,0,0,0],"split_type":[0,0,0,0,0,0,0,0,0,0,0,0,0,0,0,0,0,0,0,0,0,0,0,0,0,0,0,0,0,0,0,0,0,0,0,0,0,0,0,0,0,0,0,0,0,0,0,0,0,0,0],"sum_hessian":[1.4252254E4,1.4205487E4,4.676664E1,1.4197912E4,7.5758114E0,2.6581848E1,2.0184792E1,1.5942061E0,1.4196317E4,2.1119013E0,5.46391E0,2.4457684E1,2.1241646E0,1.5560756E1,4.6240354E0,1.4191128E4,5.190139E0,1.0200243E0,1.091877E0,1.8240772E1,6.2169104E0,1.0542481E0,1.0699165E0,1.4168808E1,1.3919475E0,1.8338776E0,2.7901576E0,1.7195036E0,1.4189408E4,1.4369252E0,3.7532134E0,1.5343321E1,2.8974516E0,5.110544E0,1.1063664E0,1.0018216E0,1.3166986E1,1.7393355E0,1.050822E0,1.4159635E4,2.9772804E1,2.7025223E0,1.050691E0,1.0985602E0,1.42447605E1,1.8300427E0,1.0674089E0,1.6946884E0,3.4158556E0,1.1005241E1,2.1617448E0],"tree_param":{"num_deleted":"0","num_feature":"426016","num_nodes":"51","size_leaf_vector":"0"}},{"base_weights":[-1.201895E0,-1.2032703E0,6.436199E-1,-1.2042336E0,7.6423997E-1,-5.652901E-1,8.479262E-1,-1.2048217E0,1.524278E0,-1.6363269E-1,1.179645E0,-9.1850884E-2,1.0476435E0,-1.2053814E0,8.5550267E-1,1.3902546E0,3.512864E-1,1.2311509E0,-7.16224E-2,-1.2059711E0,6.0934883E-1,1.3564147E0,1.10746644E-1,-1.2063622E0,1.1057477E0,-6.377164E-1,2.422985E0],"categories":[],"categories_nodes":[],"categories_segments":[],"categories_sizes":[],"default_left":[true,true,false,true,false,false,false,true,false,false,false,false,true,true,true,false,false,false,false,true,true,false,false,false,false,false,false],"id":10,"left_children":[1,3,5,7,9,-1,11,13,-1,-1,15,-1,17,19,21,-1,-1,-1,-1,23,25,-1,-1,-1,-1,-1,-1],"loss_changes":[3.4347656E1,2.5970703E1,3.0731297E0,2.3035156E1,2.921863E0,0E0,1.8574204E0,1.6265625E1,0E0,0E0,3.860464E-1,0E0,1.694252E0,1.4869141E1,1.4063282E0,0E0,0E0,0E0,0E0,1.3269531E1,1.2750864E1,0E0,0E0,0E0,0E0,0E0,0E0],"parents":[2147483647,0,0,1,1,2,2,3,3,4,4,6,6,7,7,10,10,12,12,13,13,14,14,19,19,20,20],"right_children":[2,4,6,8,10,-1,12,14,-1,-1,16,-1,18,20,22,-1,-1,-1,-1,24,26,-1,-1,-1,-1,-1,-1],"split_conditions":[7.1586E-2,1.1916403E-1,4.275401E-2,1.177783E-1,2.5E0,-5.652901E-2,3.6329097E-1,7.7329025E-2,1.524278E-1,-1.6363269E-2,6.312544E-1,-9.185089E-3,5.802896E-2,1.1889398E-1,8.9444447E-1,1.3902546E-1,3.5128642E-2,1.23115085E-1,-7.1622403E-3,1.2655437E-1,1.1518008E-1,1.3564147E-1,1.1074665E-2,-1.20636225E-1,1.10574774E-1,-6.377164E-2,2.4229851E-1],"split_indices":[218886,419599,374089,302354,5,0,170313,136616,0,0,194568,0,7524,218689,9,0,0,0,0,193625,81931,0,0,0,0,0,0],"split_type":[0,0,0,0,0,0,0,0,0,0,0,0,0,0,0,0,0,0,0,0,0,0,0,0,0,0,0],"sum_hessian":[1.3226288E4,1.3216786E4,9.501751E0,1.3210707E4,6.079738E0,1.1182178E0,8.383533E0,1.3208418E4,2.2883534E0,2.0675738E0,4.012164E0,1.5640302E0,6.819503E0,1.3205246E4,3.172406E0,2.6580353E0,1.3541291E0,5.7730327E0,1.0464699E0,1.3201291E4,3.9544916E0,1.4056792E0,1.7667267E0,1.3199536E4,1.7550027E0,2.7274563E0,1.2270354E0],"tree_param":{"num_deleted":"0","num_feature":"426016","num_nodes":"27","size_leaf_vector":"0"}},{"base_weights":[-1.176069E0,-1.179681E0,1.1049652E-1,-1.1818618E0,1.0844587E-1,1.0913268E0,-7.132536E-2,-1.1822311E0,1.6308827E0,-2.4278884E-1,7.6815575E-1,1.2982097E-3,1.4542277E0,3.69369E-1,-6.923612E-1,-1.1828314E0,4.4246104E-1,-5.4332995E-1,6.578192E-1,-3.3357882E-1,1.1473875E0,1.7859342E0,2.6406556E-1,1.079162E0,7.19341E-2,-9.1676E-1,5.701329E-1,-1.1847919E0,-6.389769E-1,1.1028152E0,-4.5892596E-1,3.8699925E-1,-8.3193016E-1,-5.9037387E-2,1.2533327E0,6.7607336E-2,1.374633E0,1.5747065E-2,1.4116888E0,-2.3856151E-1,9.6682405E-1,-1.055686E0,5.448157E-2,-1.1852638E0,6.8972266E-1,-9.354411E-1,7.039496E-1,1.6404758E-1,1.5176971E0,-3.9159495E-1,9.674717E-1,-9.963352E-1,1.700959E-1,5.477345E-1,-6.9555736E-1,1.382053E0,-2.8974479E-2,-1.8767588E-1,-1.1312506E0],"categories":[],"categories_nodes":[],"categories_segments":[],"categories_sizes":[],"default_left":[true,true,false,true,true,false,true,true,false,true,false,false,true,false,true,true,false,false,false,false,false,false,false,false,true,true,false,true,true,false,false,false,true,false,false,false,false,false,false,false,false,false,false,false,false,false,false,false,false,false,false,false,false,false,false,false,false,false,false],"id":11,"left_children":[1,3,5,7,9,11,13,15,-1,17,19,-1,21,23,25,27,29,31,33,-1,35,-1,-1,37,39,41,-1,43,45,47,-1,49,51,-1,-1,-1,-1,-1,-1,53,55,57,-1,-1,-1,-1,-1,-1,-1,-1,-1,-1,-1,-1,-1,-1,-1,-1,-1],"loss_changes":[5.7001953E1,3.441211E1,6.3510103E0,1.4582031E1,5.178144E0,2.1984315E0,8.634303E0,1.2404297E1,0E0,4.368112E0,3.610208E0,0E0,1.175498E0,3.840477E0,4.221121E0,1.2228516E1,3.6175036E0,3.4519944E0,1.8498435E0,0E0,1.3724093E0,0E0,0E0,1.890481E0,4.1623225E0,1.6049013E0,0E0,1.1548828E1,1.8938265E1,1.0405126E0,0E0,1.9347805E0,1.6875544E0,0E0,0E0,0E0,0E0,0E0,0E0,4.4440026E0,1.6289749E0,4.4897842E-1,0E0,0E0,0E0,0E0,0E0,0E0,0E0,0E0,0E0,0E0,0E0,0E0,0E0,0E0,0E0,0E0,0E0],"parents":[2147483647,0,0,1,1,2,2,3,3,4,4,5,5,6,6,7,7,9,9,10,10,12,12,13,13,14,14,15,15,16,16,17,17,18,18,20,20,23,23,24,24,25,25,27,27,28,28,29,29,31,31,32,32,39,39,40,40,41,41],"right_children":[2,4,6,8,10,12,14,16,-1,18,20,-1,22,24,26,28,30,32,34,-1,36,-1,-1,38,40,42,-1,44,46,48,-1,50,52,-1,-1,-1,-1,-1,-1,54,56,58,-1,-1,-1,-1,-1,-1,-1,-1,-1,-1,-1,-1,-1,-1,-1,-1,-1],"split_conditions":[8.581984E-2,1.02299795E-1,4.2691547E-1,1.2670274E-1,3.819315E-2,5.985737E-2,2.35E1,1.523962E-1,1.6308828E-1,1.85E1,4.4021327E-2,1.2982097E-4,7.585198E-2,6.310006E-2,7.881175E-2,1.1239898E-1,6.4941496E-2,5.1669706E-2,8.060531E-2,-3.3357885E-2,6.687671E-2,1.7859343E-1,2.6406556E-2,2.5E0,7.503545E-2,3.3568975E-2,5.7013292E-2,1.338125E-1,6.915953E-2,5.16297E-2,-4.5892596E-2,1.4082012E-1,4.140891E-2,-5.903739E-3,1.2533328E-1,6.7607337E-3,1.374633E-1,1.5747065E-3,1.4116888E-1,7.148813E-2,9.275544E-2,5.8727097E-2,5.448157E-3,-1.1852638E-1,6.897227E-2,-9.354411E-2,7.0394956E-2,1.640476E-2,1.5176971E-1,-3.9159495E-2,9.6747175E-2,-9.963352E-2,1.7009592E-2,5.477345E-2,-6.955574E-2,1.382053E-1,-2.897448E-3,-1.8767588E-2,-1.1312506E-1],"split_indices":[136615,218852,170452,227930,193983,419097,8,328928,0,1,64089,0,191868,419097,170313,195358,193983,419097,419097,0,6848,0,0,1,419097,193988,0,101956,419097,359024,0,218852,356167,0,0,0,0,0,0,64089,419097,279739,0,0,0,0,0,0,0,0,0,0,0,0,0,0,0,0,0],"split_type":[0,0,0,0,0,0,0,0,0,0,0,0,0,0,0,0,0,0,0,0,0,0,0,0,0,0,0,0,0,0,0,0,0,0,0,0,0,0,0,0,0,0,0,0,0,0,0,0,0,0,0,0,0,0,0,0,0,0,0],"sum_hessian":[1.2237018E4,1.2202841E4,3.4176056E1,1.2182299E4,2.0542355E1,4.5623703E0,2.9613684E1,1.2181279E4,1.0196267E0,1.3817687E1,6.724668E0,1.3902172E0,3.1721532E0,1.7558912E1,1.2054773E1,1.2177052E4,4.2271705E0,1.0657792E1,3.1598945E0,1.752815E0,4.9718533E0,2.0892766E0,1.0828767E0,4.4090376E0,1.3149874E1,1.0468013E1,1.5867604E0,1.2132138E4,4.49141E1,2.3108108E0,1.9163597E0,2.4426699E0,8.215122E0,1.842648E0,1.3172466E0,1.09002E0,3.881833E0,1.2997658E0,3.109272E0,1.0307091E1,2.842783E0,9.081985E0,1.3860276E0,1.2129452E4,2.685441E0,3.704048E1,7.8736186E0,1.1359242E0,1.1748867E0,1.1822674E0,1.2604026E0,7.0621037E0,1.1530185E0,3.7155867E0,6.591504E0,1.7324855E0,1.1102974E0,1.0062985E0,8.075686E0],"tree_param":{"num_deleted":"0","num_feature":"426016","num_nodes":"59","size_leaf_vector":"0"}},{"base_weights":[-1.1521434E0,-1.1555364E0,1.4035414E-1,-1.1568631E0,7.004596E-1,5.068096E-1,-5.775159E-1,-1.1575083E0,1.1234401E0,-2.2995278E-1,1.3653315E0,2.66344E-1,1.292718E0,5.975404E-1,-8.0632335E-1,-1.1579509E0,1.2674642E0,1.2799349E-2,1.6399223E0,8.030448E-1,-7.754011E-1,-8.481245E-1,4.4581726E-1,-1.0243577E0,2.8137657E-1,-1.1585325E0,6.265122E-1,-8.0413914E-1,6.1279196E-1,-1.1588763E0,1.1734698E0,-3.5970968E-1,1.2531834E0,8.416581E-1,-3.8316327E-1],"categories":[],"categories_nodes":[],"categories_segments":[],"categories_sizes":[],"default_left":[true,true,true,true,false,true,true,true,false,false,false,false,false,false,true,true,false,false,false,false,false,false,false,false,false,true,true,false,true,false,false,false,false,false,false],"id":12,"left_children":[1,3,5,7,9,11,13,15,17,19,-1,21,-1,-1,23,25,-1,-1,-1,-1,-1,-1,27,-1,-1,29,31,-1,33,-1,-1,-1,-1,-1,-1],"loss_changes":[4.9583008E1,2.8487305E1,8.289415E0,1.7823242E1,5.666018E0,3.559607E0,3.3695505E0,1.35234375E1,2.0923147E0,3.136613E0,0E0,3.7938323E0,0E0,0E0,2.5212207E0,1.2378906E1,0E0,0E0,0E0,0E0,0E0,0E0,3.6993983E0,0E0,0E0,1.0357422E1,3.112969E0,0E0,3.5412273E0,0E0,0E0,0E0,0E0,0E0,0E0],"parents":[2147483647,0,0,1,1,2,2,3,3,4,4,5,5,6,6,7,7,8,8,9,9,11,11,14,14,15,15,22,22,25,25,26,26,28,28],"right_children":[2,4,6,8,10,12,14,16,18,20,-1,22,-1,-1,24,26,-1,-1,-1,-1,-1,-1,28,-1,-1,30,32,-1,34,-1,-1,-1,-1,-1,-1],"split_conditions":[8.301487E-2,3.637892E-2,2.5102973E-2,9.912482E-2,4.040971E-2,6.1386503E-2,1.85E1,1.19321436E-1,6.585413E-2,3.0126236E-2,1.3653316E-1,1.03306614E-1,1.292718E-1,5.975404E-2,2.6494987E-2,9.533083E-2,1.2674642E-1,1.2799349E-3,1.6399223E-1,8.030448E-2,-7.7540115E-2,-8.4812455E-2,2.6963228E-1,-1.0243577E-1,2.8137658E-2,1.390551E-1,4.748578E-2,-8.0413915E-2,9.8919556E-2,-1.15887634E-1,1.1734698E-1,-3.5970967E-2,1.2531833E-1,8.416581E-2,-3.8316328E-2],"split_indices":[218852,419599,359024,302353,22394,195358,8,298939,419097,43443,0,225645,0,0,193988,411613,0,0,0,0,0,0,344268,0,0,333421,419097,0,423150,0,0,0,0,0,0],"split_type":[0,0,0,0,0,0,0,0,0,0,0,0,0,0,0,0,0,0,0,0,0,0,0,0,0,0,0,0,0,0,0,0,0,0,0],"sum_hessian":[1.1268377E4,1.1238979E4,2.9398006E1,1.1231327E4,7.6518154E0,1.9657389E1,9.740617E0,1.1228643E4,2.684115E0,3.4617004E0,4.190115E0,1.6077143E1,3.5802474E0,1.3249096E0,8.415707E0,1.1227116E4,1.5272235E0,1.17728E0,1.506835E0,1.0330302E0,2.4286704E0,1.7131882E0,1.4363954E1,7.058945E0,1.3567617E0,1.1223809E4,3.3074894E0,1.2430053E0,1.3120949E1,1.1222657E4,1.1512685E0,1.4506042E0,1.8568852E0,1.0795186E1,2.3257625E0],"tree_param":{"num_deleted":"0","num_feature":"426016","num_nodes":"35","size_leaf_vector":"0"}},{"base_weights":[-1.1318059E0,-1.1364197E0,8.3438225E-2,-1.1393093E0,1.15045436E-1,-2.3766355E-1,8.082758E-1,-1.1403064E0,3.6707404E-1,-1.4449105E-1,8.4613246E-1,-4.967599E-1,9.707302E-1,1.3991351E0,2.0940977E-1,-1.1414669E0,-1.1745169E-1,-3.6176726E-1,1.2462552E0,7.0958054E-1,-4.3410462E-1,-7.7202064E-3,1.1123503E0,5.5192083E-1,-8.1689245E-1,-6.441075E-2,1.3261846E0,2.5538114E-1,1.6130236E0,6.148568E-1,-8.5800546E-1,-1.1429415E0,-4.966252E-1,-5.4862046E-1,1.2806742E0,2.0382547E-1,-7.95978E-1,2.0683369E-1,1.682524E0,1.2164907E0,-5.554561E-1,3.3668774E-1,-8.278942E-1,1.3393093E0,2.3514201E-1,1.1723907E0,1.9826609E-1,4.6500286E-1,-9.540165E-1,1.6244098E0,2.1281372E-1,-1.1385763E-1,8.358119E-1,1.0147591E0,-1.1432827E0,-7.563665E-1,1.0131928E0,-8.4363127E-1,8.279965E-1,1.5318546E0,1.5963636E-1,-3.7174225E-1,8.9084774E-1,-9.8287094E-1,1.4716935E-1,-1.3266797E-1,7.88545E-1,-1.1008646E0,5.518296E-1,1.0307277E0,3.849065E-1],"categories":[],"categories_nodes":[],"categories_segments":[],"categories_sizes":[],"default_left":[true,true,true,true,true,true,false,true,true,true,false,true,false,true,true,true,true,false,false,true,true,false,false,false,false,false,false,false,false,false,false,false,true,true,false,false,false,false,false,true,false,true,true,false,false,false,true,false,true,false,false,false,true,false,false,false,false,false,false,false,false,false,false,false,false,false,false,false,false,false,false],"id":13,"left_children":[1,3,5,7,9,11,13,15,17,19,21,23,25,27,29,31,33,35,37,39,41,-1,43,45,47,-1,49,-1,-1,51,-1,53,55,57,-1,-1,-1,-1,-1,59,-1,61,63,-1,-1,-1,65,-1,67,-1,-1,-1,69,-1,-1,-1,-1,-1,-1,-1,-1,-1,-1,-1,-1,-1,-1,-1,-1,-1,-1],"loss_changes":[5.8307617E1,3.7535156E1,9.548489E0,1.5917969E1,4.8158445E0,9.446425E0,4.1543274E0,1.2107422E1,5.3095255E0,5.034858E0,1.5148935E0,8.587889E0,2.0699677E0,1.0927067E0,3.7379093E0,9.228516E0,8.41991E0,1.3706907E0,1.3124676E0,4.0222588E0,4.7986364E0,0E0,6.92173E-1,1.1423895E0,3.778554E0,0E0,1.0027776E0,0E0,0E0,1.0545638E0,0E0,8.725586E0,1.0677208E1,4.956458E0,0E0,0E0,0E0,0E0,0E0,1.1017137E0,0E0,2.5870068E0,1.6776743E0,0E0,0E0,0E0,1.1192873E0,0E0,4.4699125E0,0E0,0E0,0E0,1.564598E-2,0E0,0E0,0E0,0E0,0E0,0E0,0E0,0E0,0E0,0E0,0E0,0E0,0E0,0E0,0E0,0E0,0E0,0E0],"parents":[2147483647,0,0,1,1,2,2,3,3,4,4,5,5,6,6,7,7,8,8,9,9,10,10,11,11,12,12,13,13,14,14,15,15,16,16,17,17,18,18,19,19,20,20,22,22,23,23,24,24,26,26,29,29,31,31,32,32,33,33,39,39,41,41,42,42,46,46,48,48,52,52],"right_children":[2,4,6,8,10,12,14,16,18,20,22,24,26,28,30,32,34,36,38,40,42,-1,44,46,48,-1,50,-1,-1,52,-1,54,56,58,-1,-1,-1,-1,-1,60,-1,62,64,-1,-1,-1,66,-1,68,-1,-1,-1,70,-1,-1,-1,-1,-1,-1,-1,-1,-1,-1,-1,-1,-1,-1,-1,-1,-1,-1],"split_conditions":[6.847583E-2,9.36732E-2,6.0233623E-2,1.15614414E-1,7.135012E-2,1.5E0,5.333039E-2,1.0118589E-1,3.92812E-2,1.55E1,4E0,1.05E1,4.313669E-2,7.34375E-1,3.577441E-2,1.3019365E-1,6.668326E-2,6.976047E-2,1.19734615E-1,5.112623E-2,8.330015E-1,-7.7202066E-4,1.3883354E-1,4.0539104E-1,8.321029E-2,-6.4410754E-3,3.7E1,2.5538115E-2,1.6130237E-1,5.6772258E-2,-8.580055E-2,2.620697E-1,7.978872E-2,3.4887765E-2,1.2806742E-1,2.0382548E-2,-7.95978E-2,2.0683369E-2,1.682524E-1,4.4674475E-2,-5.554561E-2,2.9091747E-2,3.8220517E-2,1.3393094E-1,2.3514202E-2,1.1723907E-1,5.338848E-2,4.6500288E-2,5.7359386E-2,1.6244099E-1,2.1281373E-2,-1.1385763E-2,9.583334E-1,1.0147591E-1,-1.14328265E-1,-7.563665E-2,1.01319276E-1,-8.4363125E-2,8.279965E-2,1.5318547E-1,1.5963636E-2,-3.7174225E-2,8.9084774E-2,-9.82871E-2,1.4716935E-2,-1.3266797E-2,7.88545E-2,-1.1008646E-1,5.518296E-2,1.0307278E-1,3.849065E-2],"split_indices":[136615,218852,419097,101948,11,3,193983,302329,193983,7,1,7,43443,9,64089,195358,419097,198407,261436,6848,9,0,193983,175564,419242,0,1,0,0,43443,0,99783,419097,193988,0,0,0,0,0,11891,0,193983,64089,0,0,0,64089,0,191868,0,0,0,9,0,0,0,0,0,0,0,0,0,0,0,0,0,0,0,0,0,0],"split_type":[0,0,0,0,0,0,0,0,0,0,0,0,0,0,0,0,0,0,0,0,0,0,0,0,0,0,0,0,0,0,0,0,0,0,0,0,0,0,0,0,0,0,0,0,0,0,0,0,0,0,0,0,0,0,0,0,0,0,0,0,0,0,0,0,0,0,0,0,0,0,0],"sum_hessian":[1.0381465E4,1.0342265E4,3.9199894E1,1.0318528E4,2.3736446E1,2.7631365E1,1.1568531E1,1.0311946E4,6.5823913E0,1.8109812E1,5.626636E0,2.3237774E1,4.3935914E0,5.1505427E0,6.417988E0,1.0300145E4,1.1801835E1,3.9206715E0,2.6617196E0,4.2187138E0,1.3891097E1,1.5681232E0,4.0585127E0,5.2654223E0,1.7972351E1,1.3323537E0,3.0612376E0,1.1570878E0,3.993455E0,4.95852E0,1.4594681E0,1.0275872E4,2.4272367E1,9.484506E0,2.3173287E0,1.9331628E0,1.9875087E0,1.2227011E0,1.4390186E0,3.0392408E0,1.1794727E0,4.746142E0,9.144956E0,2.8057885E0,1.2527242E0,1.0711213E0,4.194301E0,1.5056611E0,1.646669E1,2.0524666E0,1.008771E0,1.266449E0,3.692071E0,1.1543636E0,1.0274718E4,2.113538E1,3.1369867E0,8.129512E0,1.3549943E0,1.9946059E0,1.0446349E0,2.2275956E0,2.5185463E0,7.883883E0,1.2610724E0,3.1843002E0,1.0100011E0,1.5248606E1,1.2180849E0,1.6799575E0,2.0121133E0],"tree_param":{"num_deleted":"0","num_feature":"426016","num_nodes":"71","size_leaf_vector":"0"}},{"base_weights":[-1.1130036E0,-1.1171107E0,2.0317745E-1,-1.1202997E0,7.696146E-4,-8.0229425E-1,3.6005318E-1,-1.1208168E0,1.792437E0,4.5722365E-1,-4.406929E-1,1.562394E0,2.2772525E-1,-1.1215749E0,7.878246E-1,6.4835167E-1,-7.6166856E-1,1.1025729E0,-6.597677E-1,3.6949313E-1,-7.532687E-1,-1.1221166E0,1.0758048E0,1.4068649E0,-2.8405043E-1,7.8766805E-1,-3.567017E-1,8.8331544E-1,-9.097224E-1,-5.2375548E-2,6.902185E-1,-1.1226356E0,9.408374E-1,9.412041E-1,-2.6892263E-1,-1.0660723E0,2.439401E-1,1.0410494E0,-4.237554E-1,8.8101417E-1,-5.8052945E-1],"categories":[],"categories_nodes":[],"categories_segments":[],"categories_sizes":[],"default_left":[true,true,false,true,true,false,false,true,false,true,false,false,true,true,false,true,false,false,false,true,false,true,false,false,false,true,false,false,true,true,true,false,false,false,false,false,false,false,false,false,false],"id":14,"left_children":[1,3,5,7,9,-1,11,13,-1,15,17,-1,19,21,23,25,-1,-1,27,29,-1,31,-1,-1,-1,33,-1,-1,35,37,39,-1,-1,-1,-1,-1,-1,-1,-1,-1,-1],"loss_changes":[5.1881836E1,3.395996E1,5.111046E0,1.6316406E1,5.8631854E0,0E0,3.961585E0,1.4624023E1,0E0,3.8262906E0,5.728513E0,0E0,3.8408222E0,1.2508789E1,3.291063E0,2.0880365E0,0E0,0E0,6.040982E0,3.1552305E0,0E0,1.1219727E1,0E0,0E0,0E0,2.1424336E0,0E0,0E0,2.4567785E0,4.8615975E0,3.703744E0,0E0,0E0,0E0,0E0,0E0,0E0,0E0,0E0,0E0,0E0],"parents":[2147483647,0,0,1,1,2,2,3,3,4,4,6,6,7,7,9,9,10,10,12,12,13,13,14,14,15,15,18,18,19,19,21,21,25,25,28,28,29,29,30,30],"right_children":[2,4,6,8,10,-1,12,14,-1,16,18,-1,20,22,24,26,-1,-1,28,30,-1,32,-1,-1,-1,34,-1,-1,36,38,40,-1,-1,-1,-1,-1,-1,-1,-1,-1,-1],"split_conditions":[1.0411667E-1,7.4983895E-2,1.6508265E-1,8.055033E-2,2.35E1,-8.0229424E-2,3.8786492E-1,1.6140985E-1,1.792437E-1,1.3954042E-1,1.080185E-1,1.562394E-1,5.2869476E-2,1.8601573E-1,6.969327E-2,3.4281746E-2,-7.616686E-2,1.1025729E-1,4.3136016E-2,4.4809017E-2,-7.5326875E-2,1.0857593E-1,1.0758048E-1,1.406865E-1,-2.8405044E-2,1.4969298E-1,-3.5670172E-2,8.833154E-2,5.7090104E-2,9.389878E-3,1.2841707E-1,-1.1226356E-1,9.408374E-2,9.4120406E-2,-2.6892263E-2,-1.06607236E-1,2.4394011E-2,1.04104936E-1,-4.2375542E-2,8.810142E-2,-5.8052946E-2],"split_indices":[136615,218852,208017,131438,8,0,12,328928,0,423150,218886,0,43443,302353,419097,208017,0,0,193988,419097,0,161699,0,0,0,11,0,0,18263,2,170313,0,0,0,0,0,0,0,0,0,0],"split_type":[0,0,0,0,0,0,0,0,0,0,0,0,0,0,0,0,0,0,0,0,0,0,0,0,0,0,0,0,0,0,0,0,0,0,0,0,0,0,0,0,0],"sum_hessian":[9.554489E3,9.524917E3,2.957156E1,9.49782E3,2.7096695E1,3.4358413E0,2.613572E1,9.49675E3,1.0708008E0,1.3304592E1,1.3792102E1,1.5197921E0,2.4615927E1,9.493393E3,3.3576417E0,1.190579E1,1.3988025E0,1.2131615E0,1.257894E1,2.2052385E1,2.5635417E0,9.491542E3,1.8506086E0,1.930305E0,1.4273366E0,1.0646331E1,1.2594585E0,1.4003075E0,1.1178633E1,9.885764E0,1.2166621E1,9.48961E3,1.9316719E0,9.390919E0,1.2554126E0,9.911325E0,1.267307E0,2.0492177E0,7.836546E0,1.0845001E1,1.32162E0],"tree_param":{"num_deleted":"0","num_feature":"426016","num_nodes":"41","size_leaf_vector":"0"}},{"base_weights":[-1.0967723E0,-1.1009816E0,4.7007535E-2,-1.1050714E0,-1.1074226E-1,-5.0332576E-1,5.4709035E-1,-1.1076839E0,-1.7889667E-1,2.8074703E-1,-7.549018E-1,-9.194714E-1,1.3778816E-1,1.5577408E0,2.7412975E-1,-1.1082559E0,1.6781728E0,-9.3821514E-1,9.21514E-1,7.730001E-2,1.3663146E0,6.799784E-1,-9.2785496E-1,1.0145182E-1,-1.0602033E0,8.1630844E-1,-3.4401625E-1,1.877519E0,4.379109E-1,6.229323E-1,-3.0017263E-1,-1.1089818E0,7.339453E-1,-9.913073E-1,-9.090458E-2,2.0574899E0,-3.6368554E-3,-1.239866E-1,8.6449754E-1,-1.1166759E0,-7.327898E-2,1.18233584E-1,1.1822928E0,-7.5408053E-1,6.0414106E-1,-4.5580354E-1,8.015298E-1,5.3425545E-1,-8.3338886E-1,-1.109428E0,1.1945115E0,-6.278731E-1,1.5941086E0,-1.0530494E0,-1.5092385E-1,3.1125233E-1,2.463204E0,-7.1240294E-1,1.1857258E0,-5.099813E-1,3.6338076E-1,1.3558547E0,2.7161095E-1,-4.9407488E-1,4.478093E-1,-1.6548024E-1,-9.037594E-1,-2.5621298E-1,9.943514E-1,-4.1501466E-2,8.2897985E-1,-1.3695684E-1,-1.0028242E0],"categories":[],"categories_nodes":[],"categories_segments":[],"categories_sizes":[],"default_left":[true,true,true,true,true,false,false,true,true,true,false,true,false,false,true,true,false,true,true,true,false,false,true,false,false,false,true,false,false,false,false,true,true,false,false,false,false,false,false,false,true,false,false,false,false,false,false,true,false,false,false,false,false,false,false,false,false,false,false,false,false,false,false,false,false,false,false,false,false,false,false,false,false],"id":15,"left_children":[1,3,5,7,9,11,13,15,17,19,21,23,25,27,29,31,-1,33,35,37,-1,-1,39,-1,-1,41,43,-1,-1,45,47,49,51,53,-1,55,57,59,61,-1,63,-1,-1,65,-1,-1,67,69,71,-1,-1,-1,-1,-1,-1,-1,-1,-1,-1,-1,-1,-1,-1,-1,-1,-1,-1,-1,-1,-1,-1,-1,-1],"loss_changes":[4.2103516E1,3.5120117E1,9.353205E0,2.0771484E1,9.518672E0,4.455281E0,4.472548E0,1.5630859E1,2.2229895E1,5.1249623E0,4.160261E0,1.5398159E0,2.6528082E0,4.5379925E-1,3.2312913E0,1.2371094E1,0E0,6.1280346E-1,1.1509694E1,3.4355197E0,0E0,0E0,2.0343895E0,0E0,0E0,7.056823E-1,2.3787606E0,0E0,0E0,2.249566E0,3.300478E0,1.0201172E1,5.6930113E0,5.9878063E-1,0E0,2.7149868E0,6.771095E0,3.4967213E0,9.1434526E-1,0E0,9.7632974E-1,0E0,0E0,1.9384813E-1,0E0,0E0,2.040069E0,5.623623E-1,3.707583E-1,0E0,0E0,0E0,0E0,0E0,0E0,0E0,0E0,0E0,0E0,0E0,0E0,0E0,0E0,0E0,0E0,0E0,0E0,0E0,0E0,0E0,0E0,0E0,0E0],"parents":[2147483647,0,0,1,1,2,2,3,3,4,4,5,5,6,6,7,7,8,8,9,9,10,10,11,11,12,12,13,13,14,14,15,15,17,17,18,18,19,19,22,22,25,25,26,26,29,29,30,30,31,31,32,32,33,33,35,35,36,36,37,37,38,38,40,40,43,43,46,46,47,47,48,48],"right_children":[2,4,6,8,10,12,14,16,18,20,22,24,26,28,30,32,-1,34,36,38,-1,-1,40,-1,-1,42,44,-1,-1,46,48,50,52,54,-1,56,58,60,62,-1,64,-1,-1,66,-1,-1,68,70,72,-1,-1,-1,-1,-1,-1,-1,-1,-1,-1,-1,-1,-1,-1,-1,-1,-1,-1,-1,-1,-1,-1,-1,-1],"split_conditions":[7.0386E-2,6.519446E-2,3.332034E-2,1.24098904E-1,1.8915158E-2,4.613541E-2,5.2338984E-2,1.19321436E-1,3.843403E-2,5.2020464E-2,8.368583E-2,7.9E1,6.3213654E-2,4.3410294E-2,2.85E1,1.3254845E-1,1.6781728E-1,6.896955E-2,3.4182526E-2,7.5424604E-2,1.3663147E-1,6.7997836E-2,5.1497273E-2,1.0145183E-2,-1.0602033E-1,5.2065942E-2,2.6E1,1.877519E-1,4.3791093E-2,1.3149373E-1,3.6810085E-2,1.5383932E-1,3.3183806E-2,1.7E1,-9.090458E-3,4.920148E-2,6.773577E-2,1.7615052E-1,1.3912308E-1,-1.1166759E-1,2.6445981E-2,1.1823359E-2,1.18229285E-1,9.760213E-2,6.0414106E-2,-4.5580354E-2,3.8345985E-2,2.865E2,2.5111817E-2,-1.109428E-1,1.1945116E-1,-6.278732E-2,1.5941086E-1,-1.0530495E-1,-1.5092385E-2,3.1125233E-2,2.463204E-1,-7.12403E-2,1.18572585E-1,-5.099813E-2,3.6338076E-2,1.3558547E-1,2.7161095E-2,-4.940749E-2,4.4780932E-2,-1.6548024E-2,-9.0375945E-2,-2.5621299E-2,9.943514E-2,-4.1501466E-3,8.289798E-2,-1.3695684E-2,-1.0028242E-1],"split_indices":[218852,136615,419097,195358,43443,22394,14821,298939,419097,194568,379131,0,22394,261436,8,420100,0,88239,22394,11,0,0,193983,0,0,64089,1,0,0,176092,64089,68845,193983,1,0,193983,419097,136615,64089,0,378638,0,0,378638,0,0,43443,0,378638,0,0,0,0,0,0,0,0,0,0,0,0,0,0,0,0,0,0,0,0,0,0,0,0],"split_type":[0,0,0,0,0,0,0,0,0,0,0,0,0,0,0,0,0,0,0,0,0,0,0,0,0,0,0,0,0,0,0,0,0,0,0,0,0,0,0,0,0,0,0,0,0,0,0,0,0,0,0,0,0,0,0,0,0,0,0,0,0,0,0,0,0,0,0,0,0,0,0,0,0],"sum_hessian":[8.733381E3,8.7013955E3,3.1984875E1,8.665491E3,3.5904896E1,1.5224293E1,1.676058E1,8.640921E3,2.456999E1,2.2683264E1,1.3221633E1,8.968611E0,6.2556825E0,2.563236E0,1.4197345E1,8.639749E3,1.1717318E0,1.4625396E1,9.944594E0,2.0005268E1,2.6779945E0,1.1068916E0,1.2114741E1,1.1203418E0,7.848269E0,2.3092773E0,3.9464052E0,1.4675515E0,1.0956844E0,8.780085E0,5.4172606E0,8.636744E3,3.0056074E0,1.36030855E1,1.0223107E0,3.9143207E0,6.030274E0,1.66025E1,3.4027677E0,9.671169E0,2.443572E0,1.2493453E0,1.059932E0,2.897826E0,1.0485793E0,1.0266925E0,7.7533917E0,2.111318E0,3.3059428E0,8.63559E3,1.1540941E0,1.2680588E0,1.7375486E0,1.2436342E1,1.1667433E0,1.0711492E0,2.8431714E0,4.0298333E0,2.0004406E0,9.238898E0,7.3636026E0,1.1570158E0,2.2457519E0,1.3805628E0,1.0630094E0,1.0143892E0,1.8834367E0,1.144787E0,6.608605E0,1.0057424E0,1.1055757E0,1.0007719E0,2.305171E0],"tree_param":{"num_deleted":"0","num_feature":"426016","num_nodes":"73","size_leaf_vector":"0"}},{"base_weights":[-1.0830563E0,-1.088591E0,7.831018E-2,-1.0901568E0,5.6503165E-1,-5.5654484E-1,4.56322E-1,-1.0912137E0,8.8334894E-1,8.6969453E-1,-4.2665616E-1,8.077868E-1,-7.232248E-1,1.6144627E0,2.4327858E-1,1.4099405E0,-1.0919431E0,-1.00609E-1,1.5830592E0,1.1611423E0,-4.4850446E-2,-9.2541987E-1,4.9663857E-1,-2.7273455E-1,6.4085436E-1,-1.0926803E0,1.2011818E0,-1.0487282E0,2.2853324E-1,-4.9429658E-1,6.219376E-1,8.142079E-1,-7.069798E-1,1.0798401E0,-1.0933491E0,-1.1001091E0,-2.6828536E-1,-7.0392823E-1,4.669722E-1,-1.9564393E-1,9.356569E-1],"categories":[],"categories_nodes":[],"categories_segments":[],"categories_sizes":[],"default_left":[true,true,false,true,true,false,false,false,false,true,false,false,true,false,false,false,true,false,false,false,false,true,false,true,true,false,false,true,false,true,false,false,false,false,false,false,false,false,false,false,false],"id":16,"left_children":[1,3,5,7,9,11,13,15,17,19,-1,-1,21,-1,23,-1,25,-1,-1,-1,-1,27,-1,29,31,33,-1,35,-1,37,-1,39,-1,-1,-1,-1,-1,-1,-1,-1,-1],"loss_changes":[5.177832E1,2.134082E1,9.631859E0,1.7643555E1,2.8576982E0,4.0031776E0,5.7861514E0,1.612207E1,3.4867635E0,1.8179741E0,0E0,0E0,3.8943038E0,0E0,4.755729E0,0E0,1.4821289E1,0E0,0E0,0E0,0E0,1.9891014E0,0E0,2.372677E0,3.5922017E0,1.2790039E1,0E0,1.5744972E-1,0E0,2.1237626E0,0E0,1.6430302E0,0E0,0E0,0E0,0E0,0E0,0E0,0E0,0E0,0E0],"parents":[2147483647,0,0,1,1,2,2,3,3,4,4,5,5,6,6,7,7,8,8,9,9,12,12,14,14,16,16,21,21,23,23,24,24,25,25,27,27,29,29,31,31],"right_children":[2,4,6,8,10,12,14,16,18,20,-1,-1,22,-1,24,-1,26,-1,-1,-1,-1,28,-1,30,32,34,-1,36,-1,38,-1,40,-1,-1,-1,-1,-1,-1,-1,-1,-1],"split_conditions":[6.50443E-2,4.966265E-2,4.3663774E-2,1.471976E-1,1.8891105E-2,6.888716E-2,1.3227507E-1,7.8210276E-1,3.5E0,3.8890608E-2,-4.2665616E-2,8.077868E-2,3.726846E-2,1.6144627E-1,6.125E-2,1.4099406E-1,1.6692984E-1,-1.00609E-2,1.5830593E-1,1.1611424E-1,-4.4850446E-3,3.991789E-2,4.9663857E-2,1.0504011E-1,1.2841707E-1,2.703327E-1,1.2011818E-1,4.010735E-2,2.2853324E-2,6.6770606E-2,6.219376E-2,9.544444E-2,-7.0697986E-2,1.0798401E-1,-1.0933491E-1,-1.10010915E-1,-2.6828537E-2,-7.0392825E-2,4.669722E-2,-1.9564394E-2,9.3565695E-2],"split_indices":[136615,218886,22394,101948,211574,136615,191868,302354,5,6848,0,0,14821,0,2,0,421258,0,0,0,0,27803,0,22408,170313,218888,0,346976,0,22394,0,41037,0,0,0,0,0,0,0,0,0],"split_type":[0,0,0,0,0,0,0,0,0,0,0,0,0,0,0,0,0,0,0,0,0,0,0,0,0,0,0,0,0,0,0,0,0,0,0,0,0,0,0,0,0],"sum_hessian":[8.0411704E3,8.003093E3,3.807738E1,7.995863E3,7.230344E0,1.4034587E1,2.4042793E1,7.99203E3,3.8330636E0,5.625204E0,1.60514E0,1.1091866E0,1.29254E1,2.7135236E0,2.132927E1,1.7668327E0,7.9902627E3,1.9488015E0,1.8842621E0,4.061305E0,1.5638992E0,1.129466E1,1.6307405E0,9.418725E0,1.1910545E1,7.9882183E3,2.0446112E0,1.0286643E1,1.008017E0,7.9078803E0,1.5108445E0,1.0904023E1,1.0065222E0,1.9618212E0,7.9862563E3,9.266952E0,1.0196908E0,6.711877E0,1.1960038E0,1.1050003E0,9.799023E0],"tree_param":{"num_deleted":"0","num_feature":"426016","num_nodes":"41","size_leaf_vector":"0"}},{"base_weights":[-1.0683584E0,-1.0735757E0,-9.185761E-3,-1.0743245E0,1.9492766E0,-8.9238614E-1,2.1563503E-1,-1.0755146E0,7.313477E-1,-1.0046134E0,-7.335073E-2,8.673965E-3,9.3095934E-1,-1.0769063E0,4.9290863E-1,-7.4098825E-2,9.426317E-1,1.1490388E0,-1.3745674E-1,1.3409042E0,-7.199175E-1,-1.0775858E0,1.0803813E0,-4.3899128E-1,1.4024483E0,3.6429718E-1,-5.0370014E-1,1.5542778E0,5.151485E-1,1.3080134E0,-1.0781257E0,-8.3521044E-1,3.5513857E-1,-3.93539E-1,5.197156E-1,-8.951469E-1,3.3164215E-1],"categories":[],"categories_nodes":[],"categories_segments":[],"categories_sizes":[],"default_left":[true,true,false,true,false,true,true,true,false,false,false,false,true,true,false,false,false,false,true,true,false,false,false,true,false,false,true,false,false,false,false,false,false,false,false,false,false],"id":17,"left_children":[1,3,5,7,-1,9,11,13,15,-1,-1,17,19,21,23,-1,-1,-1,25,27,-1,29,-1,31,-1,33,35,-1,-1,-1,-1,-1,-1,-1,-1,-1,-1],"loss_changes":[4.060742E1,1.8649414E1,7.5465593E0,1.6500977E1,0E0,6.3495636E-1,4.4817314E0,1.6485352E1,9.908204E-1,0E0,0E0,4.245908E0,5.564716E0,1.1868164E1,6.689559E0,0E0,0E0,0E0,4.3435574E0,2.2010136E-1,0E0,1.08125E1,0E0,1.6499522E0,0E0,1.3979183E0,4.713168E0,0E0,0E0,0E0,0E0,0E0,0E0,0E0,0E0,0E0,0E0],"parents":[2147483647,0,0,1,1,2,2,3,3,5,5,6,6,7,7,8,8,11,11,12,12,13,13,14,14,18,18,19,19,21,21,23,23,25,25,26,26],"right_children":[2,4,6,8,-1,10,12,14,16,-1,-1,18,20,22,24,-1,-1,-1,26,28,-1,30,-1,32,-1,34,36,-1,-1,-1,-1,-1,-1,-1,-1,-1,-1],"split_conditions":[6.50443E-2,8.568263E-2,4.8944943E-2,1.2887713E-1,1.9492766E-1,3.5241935E-2,1.5E0,1.3043715E-1,2.4305556E-2,-1.0046134E-1,-7.335073E-3,6.2723614E-2,4.8767604E-2,8.138592E-2,4.3389723E-2,-7.4098827E-3,9.426317E-2,1.1490388E-1,7.65E1,5.706746E-2,-7.199175E-2,1.4881788E-1,1.0803813E-1,6.4061716E-2,1.4024483E-1,6.5694064E-2,6.218124E-2,1.5542778E-1,5.1514853E-2,1.3080135E-1,-1.07812576E-1,-8.3521046E-2,3.551386E-2,-3.9353903E-2,5.1971562E-2,-8.9514695E-2,3.3164214E-2],"split_indices":[136615,131438,211574,218886,0,273204,3,302329,2,0,0,247363,6848,218905,2,0,0,0,0,419097,0,82242,0,419097,0,419097,419097,0,0,0,0,0,0,0,0,0,0],"split_type":[0,0,0,0,0,0,0,0,0,0,0,0,0,0,0,0,0,0,0,0,0,0,0,0,0,0,0,0,0,0,0,0,0,0,0,0,0],"sum_hessian":[7.3492593E3,7.3132227E3,3.6036983E1,7.3120557E3,1.1666017E0,6.7095265E0,2.9327456E1,7.307644E3,4.41182E0,5.7016797E0,1.0078467E0,2.3531372E1,5.7960835E0,7.301478E3,6.165994E0,1.0517362E0,3.3600836E0,1.8933201E0,2.1638052E1,4.7935214E0,1.0025622E0,7.299679E3,1.7987508E0,3.3010938E0,2.8649006E0,9.132217E0,1.2505835E1,3.1081364E0,1.6853848E0,1.1035339E0,7.2985757E3,2.1677814E0,1.1333123E0,1.2933899E0,7.838827E0,8.466695E0,4.03914E0],"tree_param":{"num_deleted":"0","num_feature":"426016","num_nodes":"37","size_leaf_vector":"0"}},{"base_weights":[-1.0536882E0,-1.0601768E0,1.3797405E-1,-1.0637246E0,1.5351196E-1,1.2812378E0,-5.9776817E-2,-1.0650529E0,1.2493733E0,-8.709932E-1,3.172348E-1,1.6395364E0,-1.3098623E-1,-5.0947714E-1,3.53204E-1,-1.0686208E0,-3.8033122E-1,2.3309405E0,-6.2653714E-1,-2.7516996E-2,9.72856E-1,-1.0109639E0,1.3988177E-1,1.7315786E0,1.2902275E-1,-1.0696132E0,8.541347E-1,-6.8258935E-1,1.4118261E0,8.052727E-1,-2.1786931E-1,1.3359535E0,2.6082942E-1,-1.0671679E0,-2.8542972E-1,5.644898E-1,-3.3977604E-1,-8.3336145E-1,3.285882E-1,-1.0703954E0,1.083432E0,1.9357864E0,-3.699978E-1,-9.0737265E-1,7.4582934E-2,2.1053567E0,-2.516638E-3,-6.5671766E-1,3.2041758E-1,7.5965124E-1,-4.4715673E-1,-1.7461486E-1,1.0252826E0,-7.272224E-1,6.9605134E-2,-4.8175272E-1,4.8401937E-1],"categories":[],"categories_nodes":[],"categories_segments":[],"categories_sizes":[],"default_left":[true,true,false,true,false,true,false,true,true,false,true,false,false,false,false,true,true,false,false,false,false,true,false,false,false,true,true,false,true,false,false,false,false,false,false,false,false,false,false,false,false,false,false,false,false,false,false,false,false,false,false,false,false,false,false,false,false],"id":18,"left_children":[1,3,5,7,9,11,13,15,17,-1,19,-1,-1,21,23,25,27,-1,-1,29,31,33,35,-1,37,39,41,43,45,-1,47,-1,49,-1,-1,51,53,-1,55,-1,-1,-1,-1,-1,-1,-1,-1,-1,-1,-1,-1,-1,-1,-1,-1,-1,-1],"loss_changes":[5.206543E1,2.892041E1,8.497676E0,2.1789062E1,3.687889E0,3.0166216E0,6.254907E0,1.5854004E1,1.0147619E1,0E0,4.1561985E0,0E0,0E0,5.3740835E0,5.2280955E0,1.3547852E1,2.0493994E1,0E0,0E0,2.227689E0,1.2864308E0,7.007408E-2,1.7967819E0,0E0,3.3956797E0,1.2303223E1,5.9751363E0,5.433219E0,5.4287367E0,0E0,2.8855681E0,0E0,1.5327487E0,0E0,0E0,1.730631E0,7.365571E-1,0E0,2.0191956E0,0E0,0E0,0E0,0E0,0E0,0E0,0E0,0E0,0E0,0E0,0E0,0E0,0E0,0E0,0E0,0E0,0E0,0E0],"parents":[2147483647,0,0,1,1,2,2,3,3,4,4,5,5,6,6,7,7,8,8,10,10,13,13,14,14,15,15,16,16,19,19,20,20,21,21,22,22,24,24,25,25,26,26,27,27,28,28,30,30,32,32,35,35,36,36,38,38],"right_children":[2,4,6,8,10,12,14,16,18,-1,20,-1,-1,22,24,26,28,-1,-1,30,32,34,36,-1,38,40,42,44,46,-1,48,-1,50,-1,-1,52,54,-1,56,-1,-1,-1,-1,-1,-1,-1,-1,-1,-1,-1,-1,-1,-1,-1,-1,-1,-1],"split_conditions":[7.097444E-2,1.02299795E-1,9.671346E-2,6.838086E-2,2.0866671E-1,2.6341852E-2,4.986188E-2,1.0507158E-1,2.932807E-2,-8.709932E-2,2.9119931E-2,1.6395365E-1,-1.3098623E-2,4.9555883E-2,1.18425384E-1,1.3394958E-1,4.6053365E-2,2.3309405E-1,-6.265371E-2,3.3867848E-1,1.4939821E-1,8.7E1,3.0753901E-2,1.7315786E-1,1.6771841E-1,1.11744136E-1,3.9862473E-2,2.518729E-1,3.852974E-2,8.052727E-2,6.857367E-2,1.3359535E-1,4.4358358E-2,-1.0671679E-1,-2.8542971E-2,2.1858577E-2,3.9607845E-2,-8.3336145E-2,6.125E-2,-1.0703953E-1,1.083432E-1,1.9357865E-1,-3.699978E-2,-9.073727E-2,7.4582933E-3,2.1053568E-1,-2.5166382E-4,-6.5671764E-2,3.204176E-2,7.596513E-2,-4.4715673E-2,-1.7461486E-2,1.0252827E-1,-7.272224E-2,6.9605135E-3,-4.817527E-2,4.8401937E-2],"split_indices":[136615,218852,191868,302355,380854,261436,2,195358,359024,0,378638,0,0,22394,419242,101956,421127,0,0,195358,64089,7,2,0,208017,328947,22394,22394,22394,0,2,0,378638,0,0,2,2,0,2,0,0,0,0,0,0,0,0,0,0,0,0,0,0,0,0,0,0],"split_type":[0,0,0,0,0,0,0,0,0,0,0,0,0,0,0,0,0,0,0,0,0,0,0,0,0,0,0,0,0,0,0,0,0,0,0,0,0,0,0,0,0,0,0,0,0,0,0,0,0,0,0,0,0,0,0,0,0],"sum_hessian":[6.7135986E3,6.6773506E3,3.624803E1,6.6580117E3,1.9339113E1,4.5373054E0,3.1710726E1,6.65473E3,3.28168E0,2.0694554E0,1.7269659E1,3.4907093E0,1.046596E0,1.5068632E1,1.6642094E1,6.619676E3,3.50541E1,1.9276928E0,1.3539872E0,1.1946002E1,5.3236566E0,8.188192E0,6.8804398E0,1.3874387E0,1.5254655E1,6.616704E3,2.971723E0,3.0525002E1,4.529101E0,1.6215038E0,1.0324498E1,2.945388E0,2.3782682E0,7.1624746E0,1.0257177E0,3.5558405E0,3.3245995E0,2.0745356E0,1.31801195E1,6.614804E3,1.9000547E0,1.2690384E0,1.7026846E0,2.3384441E1,7.1405582E0,2.7111154E0,1.8179858E0,5.5663853E0,4.758113E0,1.3524238E0,1.0258443E0,1.6040403E0,1.9518001E0,1.3091756E0,2.0154238E0,1.7833192E0,1.13968E1],"tree_param":{"num_deleted":"0","num_feature":"426016","num_nodes":"57","size_leaf_vector":"0"}},{"base_weights":[-1.0446787E0,-1.051815E0,1.0967039E-1,-1.0560359E0,1.23248935E-1,1.0152714E0,-9.7028315E-2,5.218083E-1,-1.057699E0,-3.4858075E-1,5.196347E-1,1.3141916E0,1.222551E-1,-2.6465502E-1,8.6994743E-1,1.8329883E0,-8.280812E-1,-1.0588245E0,1.1369601E0,-5.742824E-1,5.719666E-1,7.217901E-1,-5.2305627E-1,1.4357727E0,3.9958453E-1,-3.890545E-1,1.0014905E0,1.4036791E0,-1.7770278E-1,2.6293418E0,-9.895955E-2,-1.0600528E0,5.161667E-1,1.841072E0,-1.4374226E-1,-8.619582E-1,8.902813E-2,1.2673497E0,2.1360752E-1,-5.1708245E-1,7.1617824E-1,-1.061114E0,4.6314165E-1,-6.2821317E-1,1.0094416E0,-1.0371389E-1,-9.807011E-1,-3.9836574E-1,6.428604E-1,1.18701115E-1,1.5443758E0,-7.158617E-1,5.169015E-1,-6.1380243E-1,7.9072225E-1,-2.9947585E-1,1.3352206E0],"categories":[],"categories_nodes":[],"categories_segments":[],"categories_sizes":[],"default_left":[true,true,false,false,true,true,true,true,true,true,true,true,false,true,false,true,false,true,true,false,false,false,false,false,false,true,false,false,false,false,false,true,false,false,false,false,true,false,false,true,false,false,false,false,false,false,false,false,false,false,false,false,false,false,false,false,false],"id":19,"left_children":[1,3,5,7,9,11,13,15,17,19,21,23,-1,25,27,29,-1,31,33,35,-1,37,-1,-1,-1,39,-1,-1,-1,-1,-1,41,43,-1,-1,45,47,49,51,53,55,-1,-1,-1,-1,-1,-1,-1,-1,-1,-1,-1,-1,-1,-1,-1,-1],"loss_changes":[5.093457E1,3.0539062E1,7.36301E0,1.6584473E1,4.4527936E0,1.7877555E0,5.4997783E0,1.4088959E1,1.6279785E1,2.619352E0,3.0784917E0,2.2982597E-2,0E0,4.874437E0,3.065539E0,6.2821007E0,0E0,1.2348633E1,3.520523E0,1.8616531E0,0E0,2.8214016E0,0E0,0E0,0E0,4.1408157E0,0E0,0E0,0E0,0E0,0E0,1.0345703E1,3.6972852E0,0E0,0E0,4.941473E-1,1.2645663E0,1.4637175E0,2.336876E0,3.5794334E0,2.4027066E0,0E0,0E0,0E0,0E0,0E0,0E0,0E0,0E0,0E0,0E0,0E0,0E0,0E0,0E0,0E0,0E0],"parents":[2147483647,0,0,1,1,2,2,3,3,4,4,5,5,6,6,7,7,8,8,9,9,10,10,11,11,13,13,14,14,15,15,17,17,18,18,19,19,21,21,25,25,31,31,32,32,35,35,36,36,37,37,38,38,39,39,40,40],"right_children":[2,4,6,8,10,12,14,16,18,20,22,24,-1,26,28,30,-1,32,34,36,-1,38,-1,-1,-1,40,-1,-1,-1,-1,-1,42,44,-1,-1,46,48,50,52,54,56,-1,-1,-1,-1,-1,-1,-1,-1,-1,-1,-1,-1,-1,-1,-1,-1],"split_conditions":[6.50876E-2,7.586236E-2,4.154061E-1,2.354435E-1,3.332034E-2,3.1787552E-2,2.4472049E-1,2.011266E-2,8.125685E-2,2.9635211E-2,4.3058287E-2,6.9979504E-2,1.2225511E-2,5.9752777E-2,6.993886E-1,2.6978394E-2,-8.280812E-2,1.15597844E-1,3.3984337E-2,1.8031457E-1,5.7196658E-2,3.1140527E-2,-5.2305628E-2,1.4357726E-1,3.9958455E-2,3.7655182E-2,1.0014905E-1,1.4036791E-1,-1.777028E-2,2.6293418E-1,-9.895955E-3,1.467277E-1,5.673323E-2,1.841072E-1,-1.4374226E-2,5.133559E-2,7.5E0,1.5638234E-2,6.665745E-2,9.544444E-2,1.0906628E-1,-1.061114E-1,4.6314165E-2,-6.282132E-2,1.0094416E-1,-1.037139E-2,-9.807011E-2,-3.9836574E-2,6.4286046E-2,1.1870111E-2,1.5443759E-1,-7.158617E-2,5.169015E-2,-6.1380245E-2,7.907223E-2,-2.9947584E-2,1.3352206E-1],"split_indices":[136615,218852,191868,420100,419097,43443,2,198407,379728,268798,41037,2,0,247363,2,359024,0,101948,359024,218852,0,2,0,0,0,14821,0,0,0,0,0,61412,6848,0,0,62507,7,2,247363,41037,261436,0,0,0,0,0,0,0,0,0,0,0,0,0,0,0,0],"split_type":[0,0,0,0,0,0,0,0,0,0,0,0,0,0,0,0,0,0,0,0,0,0,0,0,0,0,0,0,0,0,0,0,0,0,0,0,0,0,0,0,0,0,0,0,0,0,0,0,0,0,0,0,0,0,0,0,0],"sum_hessian":[6.168007E3,6.1301978E3,3.7808872E1,6.108358E3,2.1839851E1,6.2990866E0,3.1509787E1,6.1025224E0,6.1022554E3,1.0026095E1,1.1813755E1,4.366015E0,1.9330719E0,2.7473518E1,4.0362697E0,2.9141037E0,3.1884186E0,6.099645E3,2.610597E0,8.353997E0,1.6720989E0,1.0153057E1,1.6606975E0,3.3507643E0,1.0152507E0,2.5646463E1,1.8270539E0,2.4488516E0,1.5874178E0,1.8079022E0,1.1062015E0,6.0952188E3,4.426349E0,1.4021604E0,1.2084365E0,5.6180058E0,2.7359912E0,4.176012E0,5.9770455E0,2.3460945E1,2.185518E0,6.091278E3,3.9406974E0,1.2508551E0,3.175494E0,1.0143304E0,4.6036754E0,1.6045955E0,1.1313958E0,1.0890225E0,3.0869894E0,1.1358501E0,4.841195E0,2.233947E1,1.1214755E0,1.0231225E0,1.1623954E0],"tree_param":{"num_deleted":"0","num_feature":"426016","num_nodes":"57","size_leaf_vector":"0"}},{"base_weights":[-1.0340894E0,-1.0410306E0,1.6567625E-2,-1.0463169E0,1.7365706E-1,2.0269588E-1,-6.2795955E-1,1.737153E0,-1.0471886E0,-7.2398245E-1,4.519384E-1,7.2504425E-1,-4.452004E-2,2.8376284E-1,-8.5834086E-1,-1.0484185E0,8.3158374E-1,1.755616E-1,-9.312509E-1,6.182818E-1,-4.9316454E-1,-7.135377E-1,1.0835124E0,-2.355684E-1,7.137544E-1,-9.7824776E-1,-5.7415687E-2,-1.0492977E0,1.2152915E0,2.346836E0,-4.2481607E-1,7.315499E-1,-5.8389556E-1,-7.478004E-1,6.6010475E-2,-5.285984E-2,1.3071004E0,-4.8209974E-1,5.4827195E-1,1.168151E0,-1.5027833E-1,-1.0501215E0,1.150403E0,-5.0115258E-2,-5.7744336E-1,8.4743166E-1,-3.714135E-1,1.4668058E0,4.538199E-1,-8.7792885E-1,2.6672166E-2,3.6329634E-2,1.0219133E0],"categories":[],"categories_nodes":[],"categories_segments":[],"categories_sizes":[],"default_left":[true,true,true,false,false,true,false,false,true,false,true,true,true,false,true,true,false,false,false,true,false,false,false,true,true,false,false,true,false,false,false,true,false,false,false,false,true,true,true,false,false,false,false,false,false,false,false,false,false,false,false,false,false],"id":20,"left_children":[1,3,5,7,9,11,13,-1,15,17,19,21,23,-1,25,27,29,-1,-1,31,33,-1,35,37,39,-1,-1,41,-1,-1,43,45,-1,-1,-1,-1,47,49,51,-1,-1,-1,-1,-1,-1,-1,-1,-1,-1,-1,-1,-1,-1],"loss_changes":[4.1052734E1,3.607422E1,4.6756454E0,1.5324219E1,6.591702E0,3.9288054E0,2.0792627E0,0E0,1.3731445E1,1.3416767E0,3.4113097E0,5.8016677E0,3.2716825E0,0E0,6.3770914E-1,1.2343262E1,8.989617E0,0E0,0E0,2.7754784E0,5.4964215E-1,0E0,2.1533318E0,3.716355E0,1.9656839E0,0E0,0E0,1.1282715E1,0E0,0E0,1.5074778E-1,2.3859224E0,0E0,0E0,0E0,0E0,2.737112E-1,2.8673553E0,1.1127185E0,0E0,0E0,0E0,0E0,0E0,0E0,0E0,0E0,0E0,0E0,0E0,0E0,0E0,0E0],"parents":[2147483647,0,0,1,1,2,2,3,3,4,4,5,5,6,6,8,8,9,9,10,10,11,11,12,12,14,14,15,15,16,16,19,19,20,20,22,22,23,23,24,24,27,27,30,30,31,31,36,36,37,37,38,38],"right_children":[2,4,6,8,10,12,14,-1,16,18,20,22,24,-1,26,28,30,-1,-1,32,34,-1,36,38,40,-1,-1,42,-1,-1,44,46,-1,-1,-1,-1,48,50,52,-1,-1,-1,-1,-1,-1,-1,-1,-1,-1,-1,-1,-1,-1],"split_conditions":[6.519446E-2,7.586236E-2,1.8046921E-2,3.347987E-1,1.3103631E-1,8.619281E-1,3.5E0,1.7371531E-1,6.969507E-2,3.1811506E-2,3.9495207E-2,2.0247117E-2,3.6590368E-2,2.8376285E-2,2.6632909E-2,1.5190458E-1,2.932807E-2,1.755616E-2,-9.312509E-2,7.6783216E-1,8.5E0,-7.135377E-2,2.033154E-1,4.5411505E-2,2.725232E-2,-9.7824775E-2,-5.7415687E-3,1.2263887E-1,1.21529154E-1,2.3468362E-1,8.5E0,2.2086568E-2,-5.8389556E-2,-7.478004E-2,6.6010477E-3,-5.285984E-3,8.404796E-1,4.715243E-2,5.738379E-2,1.16815105E-1,-1.5027833E-2,-1.05012156E-1,1.150403E-1,-5.011526E-3,-5.7744335E-2,8.4743164E-2,-3.714135E-2,1.4668058E-1,4.538199E-2,-8.779289E-2,2.6672166E-3,3.6329634E-3,1.0219133E-1],"split_indices":[136615,218852,208017,218703,198407,9,1,0,302355,255837,359024,419097,247363,0,412685,135228,359024,0,0,2,1,0,105556,64089,64089,0,0,419648,0,0,1,37617,0,0,0,0,9,419097,2,0,0,0,0,0,0,0,0,0,0,0,0,0,0],"split_type":[0,0,0,0,0,0,0,0,0,0,0,0,0,0,0,0,0,0,0,0,0,0,0,0,0,0,0,0,0,0,0,0,0,0,0,0,0,0,0,0,0,0,0,0,0,0,0,0,0,0,0,0,0],"sum_hessian":[5.6257627E3,5.5888486E3,3.6914158E1,5.56477E3,2.4078459E1,2.9174562E1,7.7395945E0,1.1186961E0,5.5636514E3,5.319137E0,1.8759321E1,8.75117E0,2.0423391E1,1.5144655E0,6.225129E0,5.560453E3,3.1983397E0,1.0247406E0,4.2943964E0,1.6245779E1,2.5135431E0,1.548063E0,7.203107E0,1.6863855E1,3.559537E0,5.221951E0,1.003178E0,5.5588306E3,1.6224045E0,1.0563942E0,2.1419456E0,1.5204685E1,1.0410932E0,1.4952922E0,1.018251E0,1.3097855E0,5.8933215E0,1.312178E1,3.7420752E0,2.1020756E0,1.4574614E0,5.557272E3,1.5585797E0,1.0044256E0,1.1375201E0,1.396875E1,1.2359352E0,4.3585315E0,1.53479E0,6.9719534E0,6.1498265E0,2.315757E0,1.4263182E0],"tree_param":{"num_deleted":"0","num_feature":"426016","num_nodes":"53","size_leaf_vector":"0"}},{"base_weights":[-1.0207746E0,-1.0285761E0,6.920529E-2,-1.0339817E0,1.0693155E-1,-2.602234E-1,5.4137987E-1,-1.0353196E0,1.7093966E0,-4.0850523E-1,5.28854E-1,-3.9803085E-1,1.088475E0,1.4445419E0,2.1006255E-1,-3.4127927E-1,-1.0407783E0,-8.09006E-1,4.2668012E-1,-2.4733103E-3,1.0048308E0,-5.701001E-1,6.7663664E-1,-3.362092E-1,6.5246224E-1,-7.9537934E-1,1.385352E0,-1.0417585E0,1.8210157E0,-9.9966466E-1,2.252255E-1,-2.2980401E-1,9.727875E-1,8.058458E-1,-5.8735555E-1,1.2411517E0,-9.494805E-2,7.0778674E-1,-6.827547E-1,8.9919996E-1,7.196001E-2,3.9845827E-1,-8.374708E-1,-1.6061659E-1,9.485188E-1,-9.06216E-1,6.058821E-1,2.0139942E0,-6.870626E-1,-1.0430388E0,1.0130922E0,1.2737942E0,-1.6683052E-1,-7.315587E-1,-8.918738E-3,1.3883005E0,4.0883902E-1,5.5050933E-1,-8.130023E-1,-3.699792E-1,1.0443172E0,1.057536E0,2.601518E-1],"categories":[],"categories_nodes":[],"categories_segments":[],"categories_sizes":[],"default_left":[true,true,true,true,true,true,false,false,false,false,true,false,false,false,false,true,true,true,false,false,true,false,true,false,false,true,true,true,false,false,false,false,false,true,true,true,false,false,false,false,false,false,false,false,true,false,false,false,false,false,false,false,false,false,false,false,false,false,false,false,false,false,false],"id":21,"left_children":[1,3,5,7,9,11,13,15,-1,17,19,21,-1,-1,23,25,27,29,31,33,35,37,39,41,43,45,47,49,-1,-1,-1,-1,-1,51,53,55,-1,-1,57,-1,-1,59,-1,-1,61,-1,-1,-1,-1,-1,-1,-1,-1,-1,-1,-1,-1,-1,-1,-1,-1,-1,-1],"loss_changes":[4.3723145E1,3.1395996E1,5.9611793E0,2.038916E1,5.6649504E0,4.6552625E0,4.3951283E0,1.8857422E1,0E0,4.306277E0,3.5970268E0,4.3323207E0,0E0,0E0,3.278427E0,3.329661E1,1.6009277E1,1.8714943E0,1.834292E0,4.1201353E0,2.0670023E0,3.209774E0,3.9324594E-1,2.662576E0,1.917768E0,5.697054E0,1.2998348E1,1.4289551E1,0E0,0E0,0E0,0E0,0E0,1.8783507E0,4.1502607E-1,1.9715977E-1,0E0,0E0,3.3251038E0,0E0,0E0,1.9956143E0,0E0,0E0,1.3921022E-1,0E0,0E0,0E0,0E0,0E0,0E0,0E0,0E0,0E0,0E0,0E0,0E0,0E0,0E0,0E0,0E0,0E0,0E0],"parents":[2147483647,0,0,1,1,2,2,3,3,4,4,5,5,6,6,7,7,9,9,10,10,11,11,14,14,15,15,16,16,17,17,18,18,19,19,20,20,21,21,22,22,23,23,24,24,25,25,26,26,27,27,33,33,34,34,35,35,38,38,41,41,44,44],"right_children":[2,4,6,8,10,12,14,16,-1,18,20,22,-1,-1,24,26,28,30,32,34,36,38,40,42,44,46,48,50,-1,-1,-1,-1,-1,52,54,56,-1,-1,58,-1,-1,60,-1,-1,62,-1,-1,-1,-1,-1,-1,-1,-1,-1,-1,-1,-1,-1,-1,-1,-1,-1,-1],"split_conditions":[6.519446E-2,7.586236E-2,2.8524237E-2,1.5190458E-1,3.332034E-2,4.792201E-2,1.2822485E-1,1.6073205E-1,1.7093967E-1,1.8031457E-1,3.47566E-2,2.6906675E-1,1.088475E-1,1.444542E-1,4.609237E-2,4.648859E-2,1.0857593E-1,3.8472217E-2,2.5E0,5.3237975E-2,3.5846587E-2,5.7500184E-1,6.5E0,3.4197964E-2,1.3329165E-1,5.5968415E-2,2.8732773E-2,1.523962E-1,1.8210158E-1,-9.996647E-2,2.252255E-2,-2.2980401E-2,9.727875E-2,2.6126733E-2,3.6329187E-2,1.2E1,-9.494806E-3,7.0778675E-2,8.313339E-2,8.992E-2,7.1960012E-3,5.6400083E-2,-8.374708E-2,-1.606166E-2,3.5041742E-2,-9.0621606E-2,6.058821E-2,2.0139943E-1,-6.870627E-2,-1.0430389E-1,1.0130922E-1,1.2737942E-1,-1.6683053E-2,-7.315587E-2,-8.918738E-4,1.3883005E-1,4.0883902E-2,5.5050936E-2,-8.130023E-2,-3.699792E-2,1.04431726E-1,1.057536E-1,2.6015181E-2],"split_indices":[136615,218852,193983,135228,419097,329247,419242,170452,0,218852,193983,136615,0,0,22394,421127,161699,421127,5,419097,247363,267251,7,378638,136615,267229,359024,328928,0,0,0,0,0,359024,359024,1,0,0,175564,0,0,24936,0,0,378638,0,0,0,0,0,0,0,0,0,0,0,0,0,0,0,0,0,0],"split_type":[0,0,0,0,0,0,0,0,0,0,0,0,0,0,0,0,0,0,0,0,0,0,0,0,0,0,0,0,0,0,0,0,0,0,0,0,0,0,0,0,0,0,0,0,0,0,0,0,0,0,0,0,0,0,0,0,0,0,0,0,0,0,0],"sum_hessian":[5.1323975E3,5.0959795E3,3.6418068E1,5.071924E3,2.4055416E1,2.1716026E1,1.4702043E1,5.070074E3,1.8499534E0,1.0842095E1,1.3213322E1,2.034236E1,1.373666E0,3.0440497E0,1.1657993E1,4.0061382E1,5.0300127E3,7.349228E0,3.4928677E0,6.7137E0,6.4996214E0,1.7939505E1,2.402855E0,5.3239965E0,6.333997E0,3.214632E1,7.915063E0,5.0289263E3,1.0864697E0,6.233514E0,1.1157141E0,1.84916E0,1.6437076E0,2.6598885E0,4.0538116E0,5.2441993E0,1.2554224E0,1.0253818E0,1.6914124E1,1.4003516E0,1.0025034E0,2.2424574E0,3.0815392E0,1.8128184E0,4.5211782E0,3.0117388E1,2.0289333E0,6.0945454E0,1.8205175E0,5.026287E3,2.6392457E0,1.5868759E0,1.0730125E0,3.032979E0,1.0208325E0,3.888694E0,1.3555052E0,1.3074778E0,1.5606645E1,1.2191157E0,1.0233418E0,3.4400744E0,1.0811038E0],"tree_param":{"num_deleted":"0","num_feature":"426016","num_nodes":"63","size_leaf_vector":"0"}},{"base_weights":[-1.0143417E0,-1.0219101E0,1.686702E-2,-3.171058E-1,-1.0284773E0,-3.6963284E-1,3.677102E-1,-4.440889E-1,1.6892391E0,-1.0294094E0,1.5626558E0,-7.1466815E-1,3.3685768E-1,9.1380477E-1,-7.601083E-2,-5.4048395E-1,1.3432269E0,-1.0308698E0,7.0585847E-1,-8.804271E-1,5.069292E-1,1.1962507E0,-9.7404204E-2,-6.2227356E-1,1.2020859E0,-6.997958E-1,4.2232093E-1,-7.15227E-1,3.9996946E-1,-1.0317239E0,1.3235991E0,1.4457431E0,-2.5335912E-2,2.920549E-1,-1.0290675E0,-5.361637E-1,3.2326418E-1,-1.2284896E-2,1.41681E0,-1.16398195E-2,-8.604738E-1,9.0037876E-1,-1.6577834E-1,-7.836372E-1,5.1788026E-1,1.0457945E0,-5.011194E-1,-1.0329419E0,5.921619E-1,-3.7370148E-1,3.6996835E-1,8.9229023E-1,-3.41152E-1,-9.788089E-1,-2.4588367E-1,1.0832393E0,2.7479202E-1,6.8989456E-1,-9.0890986E-1],"categories":[],"categories_nodes":[],"categories_segments":[],"categories_sizes":[],"default_left":[true,false,true,true,true,false,false,true,false,true,false,true,false,false,true,true,false,true,true,false,false,false,false,false,false,false,false,true,false,true,false,false,true,false,false,false,false,false,false,false,true,false,false,false,false,false,false,false,false,false,false,false,false,false,false,false,false,false,false],"id":22,"left_children":[1,3,5,7,9,11,13,15,-1,17,-1,19,21,23,25,27,-1,29,31,33,-1,-1,35,-1,37,39,41,43,45,47,-1,-1,49,-1,-1,-1,51,-1,-1,-1,53,55,57,-1,-1,-1,-1,-1,-1,-1,-1,-1,-1,-1,-1,-1,-1,-1,-1],"loss_changes":[3.673242E1,2.129004E1,4.917009E0,1.2102608E1,1.2782227E1,4.451878E0,4.6693254E0,8.082486E0,0E0,1.2450195E1,0E0,2.8614702E0,2.485683E0,4.5503926E0,3.8381443E0,7.061185E0,0E0,1.0659668E1,2.4621031E0,2.1945286E0,0E0,0E0,1.1223768E0,0E0,1.9915571E0,5.912192E-1,2.1057334E0,3.3689156E0,4.6566277E0,9.751953E0,0E0,0E0,5.841199E-1,0E0,0E0,0E0,1.5327324E0,0E0,0E0,0E0,7.892966E-2,1.5923786E-1,3.1482074E0,0E0,0E0,0E0,0E0,0E0,0E0,0E0,0E0,0E0,0E0,0E0,0E0,0E0,0E0,0E0,0E0],"parents":[2147483647,0,0,1,1,2,2,3,3,4,4,5,5,6,6,7,7,9,9,11,11,12,12,13,13,14,14,15,15,17,17,18,18,19,19,22,22,24,24,25,25,26,26,27,27,28,28,29,29,32,32,36,36,40,40,41,41,42,42],"right_children":[2,4,6,8,10,12,14,16,-1,18,-1,20,22,24,26,28,-1,30,32,34,-1,-1,36,-1,38,40,42,44,46,48,-1,-1,50,-1,-1,-1,52,-1,-1,-1,54,56,58,-1,-1,-1,-1,-1,-1,-1,-1,-1,-1,-1,-1,-1,-1,-1,-1],"split_conditions":[6.50443E-2,1.6776258E-1,4.5437127E-2,5.5195417E-2,8.062154E-2,9.801727E-2,5.8562662E-2,6.4856626E-2,1.6892391E-1,1.4594953E-1,1.5626559E-1,5.2480657E-2,1.35E1,4.002057E-2,3.774929E-2,7.026344E-2,1.3432269E-1,1.587667E-1,1.13961045E-2,2.7639037E-1,5.0692923E-2,1.1962507E-1,2.2384763E-1,-6.2227357E-2,1.0825642E-1,1.3593931E-1,4.5E0,3.5645887E-2,7.2321825E-2,1.468394E-1,1.323599E-1,1.4457431E-1,9.377395E-1,2.920549E-2,-1.02906756E-1,-5.361637E-2,2.389623E-1,-1.2284897E-3,1.41681E-1,-1.163982E-3,2.8691895E-2,6.283082E-2,1.6853942E-1,-7.8363724E-2,5.178803E-2,1.0457945E-1,-5.011194E-2,-1.03294194E-1,5.921619E-2,-3.737015E-2,3.6996838E-2,8.9229025E-2,-3.4115203E-2,-9.788089E-2,-2.4588367E-2,1.0832393E-1,2.7479202E-2,6.8989456E-2,-9.089099E-2],"split_indices":[136615,170452,419097,116891,131438,2,193983,176158,0,328928,0,247363,1,208017,2,419097,0,371198,2,423150,0,0,136615,0,200862,6848,5,324664,193983,302329,0,0,9,0,0,0,136615,0,0,0,2,419097,6848,0,0,0,0,0,0,0,0,0,0,0,0,0,0,0,0],"split_type":[0,0,0,0,0,0,0,0,0,0,0,0,0,0,0,0,0,0,0,0,0,0,0,0,0,0,0,0,0,0,0,0,0,0,0,0,0,0,0,0,0,0,0,0,0,0,0,0,0,0,0,0,0,0,0,0,0,0,0],"sum_hessian":[4.703358E3,4.6690996E3,3.4258564E1,4.355921E1,4.62554E3,1.6275455E1,1.7983109E1,4.1698727E1,1.8604864E0,4.6244795E3,1.0608318E0,1.0927242E1,5.3482127E0,7.586665E0,1.0396444E1,4.022678E1,1.4719449E0,4.620996E3,3.483321E0,9.867588E0,1.0596547E0,1.2063003E0,4.1419125E0,1.0157534E0,6.570912E0,4.4375186E0,5.9589252E0,3.4125504E1,6.1012793E0,4.6198823E3,1.1138996E0,1.2456408E0,2.2376802E0,1.0016541E0,8.865933E0,1.892976E0,2.2489364E0,1.1289475E0,5.441964E0,1.042995E0,3.3945239E0,2.9940803E0,2.9648447E0,3.2677143E1,1.4483577E0,3.4604957E0,2.6407833E0,4.6167827E3,3.0992672E0,1.2185076E0,1.0191725E0,1.0266843E0,1.2222522E0,2.3495197E0,1.0450041E0,1.7507688E0,1.2433115E0,1.4113712E0,1.5534736E0],"tree_param":{"num_deleted":"0","num_feature":"426016","num_nodes":"59","size_leaf_vector":"0"}},{"base_weights":[-1.002051E0,-1.0096625E0,2.1582562E-1,-1.0157784E0,2.643844E-1,1.7316787E0,6.202605E-2,-1.0181754E0,1.2348658E0,9.6152157E-1,6.2133748E-2,-6.0787225E-1,3.5073203E-1,-1.648464E-1,-1.0234326E0,-1.8165897E-1,1.7429318E0,-6.5235144E-1,4.1096586E-1,-8.6317E-1,4.3272662E-1,-7.472543E-1,4.7957975E-1,-6.2571454E-1,1.1287881E0,-1.0245641E0,1.8543557E0,4.94061E-1,2.3593383E0,1.6619562E-1,-8.495968E-1,5.849882E-1,-6.9994015E-1,-2.4997115E-1,-9.27282E-1,-4.0389076E-1,6.35139E-1,-7.9721296E-1,8.96193E-1,2.9116042E0,-4.896662E-2,-1.025834E0,9.563554E-1,-9.821405E-1,-1.5975402E-1,8.9457494E-1,3.897357E-2,1.0571293E-1,-6.8205565E-1,8.1710243E-1,-4.6385306E-1],"categories":[],"categories_nodes":[],"categories_segments":[],"categories_sizes":[],"default_left":[true,true,false,true,true,false,false,false,false,false,false,true,false,true,true,false,false,false,true,false,false,false,false,true,false,true,false,false,false,false,true,false,false,false,false,false,true,false,false,false,false,false,false,false,false,false,false,false,false,false,false],"id":23,"left_children":[1,3,5,7,9,-1,11,13,15,-1,17,19,21,23,25,-1,27,29,31,33,-1,-1,35,37,39,41,-1,-1,-1,-1,43,45,-1,-1,-1,47,49,-1,-1,-1,-1,-1,-1,-1,-1,-1,-1,-1,-1,-1,-1],"loss_changes":[4.0086914E1,3.3574707E1,6.3125014E0,2.420752E1,2.9313846E0,0E0,5.2489657E0,1.8898926E1,3.899149E0,0E0,4.632885E0,2.5539968E0,3.022289E0,1.6932749E1,1.5654785E1,0E0,1.727437E0,1.1311944E0,2.8029819E0,4.0438175E-2,0E0,0E0,2.6562786E0,6.1200857E0,1.5902735E1,1.1603516E1,0E0,0E0,0E0,0E0,3.0984235E-1,1.866642E0,0E0,0E0,0E0,5.2933294E-1,3.425827E0,0E0,0E0,0E0,0E0,0E0,0E0,0E0,0E0,0E0,0E0,0E0,0E0,0E0,0E0],"parents":[2147483647,0,0,1,1,2,2,3,3,4,4,6,6,7,7,8,8,10,10,11,11,12,12,13,13,14,14,16,16,17,17,18,18,19,19,22,22,23,23,24,24,25,25,30,30,31,31,35,35,36,36],"right_children":[2,4,6,8,10,-1,12,14,16,-1,18,20,22,24,26,-1,28,30,32,34,-1,-1,36,38,40,42,-1,-1,-1,-1,44,46,-1,-1,-1,48,50,-1,-1,-1,-1,-1,-1,-1,-1,-1,-1,-1,-1,-1,-1],"split_conditions":[4.4901304E-2,1.2588769E-1,4.6523556E-2,1.16066605E-1,8.5798323E-1,1.7316787E-1,1.165283E-1,2.009143E-1,5.02674E-2,9.615216E-2,1.7033017E-1,3.9424352E-2,7.1646765E-2,5.289979E-2,1.7420328E-1,-1.8165898E-2,4.5E0,2.2929367E-1,5.2869476E-2,7.508971E-2,4.3272663E-2,-7.4725434E-2,2.0866671E-1,1.667519E-2,1.25E1,1.3264602E-1,1.8543558E-1,4.94061E-2,2.3593383E-1,1.6619561E-2,2.35E1,2.4807906E-1,-6.999402E-2,-2.4997115E-2,-9.27282E-2,4.5570605E-2,1.1045468E-1,-7.9721294E-2,8.96193E-2,2.9116043E-1,-4.896662E-3,-1.025834E-1,9.563554E-2,-9.821405E-2,-1.5975403E-2,8.94575E-2,3.897357E-3,1.0571293E-2,-6.8205565E-2,8.171024E-2,-4.6385307E-2],"split_indices":[218852,136615,419242,101948,9,0,211574,81931,43443,0,136615,391912,225645,421127,131438,0,5,191868,43443,14821,0,0,380854,406985,3,135228,0,0,0,0,7,136615,0,0,0,261436,67427,0,0,0,0,0,0,0,0,0,0,0,0,0,0],"split_type":[0,0,0,0,0,0,0,0,0,0,0,0,0,0,0,0,0,0,0,0,0,0,0,0,0,0,0,0,0,0,0,0,0,0,0,0,0,0,0,0,0,0,0,0,0,0,0,0,0,0,0],"sum_hessian":[4.299941E3,4.273404E3,2.6537008E1,4.2531895E3,2.0214205E1,1.4994144E0,2.5037594E1,4.2492114E3,3.9778907E0,3.701479E0,1.6512726E1,7.2077045E0,1.782989E1,2.6216684E1,4.222995E3,1.2197078E0,2.758183E0,5.131723E0,1.1381002E1,5.924669E0,1.2830359E0,1.3685092E0,1.646138E1,1.9710844E1,6.5058403E0,4.221979E3,1.0161355E0,1.5068157E0,1.2513672E0,1.0270389E0,4.104684E0,1.0248931E1,1.1320713E0,1.0245299E0,4.900139E0,2.2255263E0,1.4235853E1,1.8142593E1,1.5682503E0,2.0024636E0,4.5033765E0,4.219756E3,2.2228246E0,3.0877075E0,1.0169766E0,6.13312E0,4.1158113E0,1.0047561E0,1.2207704E0,1.243367E1,1.8021824E0],"tree_param":{"num_deleted":"0","num_feature":"426016","num_nodes":"51","size_leaf_vector":"0"}},{"base_weights":[-9.945198E-1,-1.001944E0,-6.2451705E-2,5.7123494E-1,-1.0052562E0,-9.7266966E-1,8.144602E-2,5.568147E-2,1.9882828E0,-1.0070939E0,8.9618796E-1,-5.018945E-1,4.0117633E-1,1.0368946E0,-8.2384324E-1,-1.0086039E0,1.1663648E0,1.5846725E0,-2.7937818E-1,-8.682289E-1,5.9182838E-2,1.4302632E0,2.1992853E-1,1.893985E0,-2.8187984E-1,-1.0098418E0,1.3005363E0,1.4885678E0,2.404724E-1,5.663262E-1,-5.9876555E-1,3.5436574E-1,-7.0752776E-1,-1.0121504E0,2.975594E-1,-5.215201E-1,4.9354613E-1],"categories":[],"categories_nodes":[],"categories_segments":[],"categories_sizes":[],"default_left":[true,false,false,false,true,false,true,false,false,true,false,false,false,false,false,true,true,false,false,false,true,false,true,false,false,true,false,false,false,false,false,false,false,false,false,false,false],"id":24,"left_children":[1,3,5,7,9,-1,11,13,-1,15,17,19,21,23,-1,25,27,-1,-1,-1,29,-1,31,-1,-1,33,-1,-1,-1,-1,-1,35,-1,-1,-1,-1,-1],"loss_changes":[2.698706E1,2.0781738E1,4.264828E0,6.3076496E0,1.4426025E1,0E0,5.520071E0,7.301397E0,0E0,1.386792E1,3.8954408E0,2.217912E0,3.2248948E0,5.0256453E0,0E0,1.2360596E1,5.813284E-1,0E0,0E0,0E0,2.0407631E0,0E0,2.4097984E0,0E0,0E0,1.1961914E1,0E0,0E0,0E0,0E0,0E0,2.1823297E0,0E0,0E0,0E0,0E0,0E0],"parents":[2147483647,0,0,1,1,2,2,3,3,4,4,6,6,7,7,9,9,10,10,11,11,12,12,13,13,15,15,16,16,20,20,22,22,25,25,31,31],"right_children":[2,4,6,8,10,-1,12,14,-1,16,18,20,22,24,-1,26,28,-1,-1,-1,30,-1,32,-1,-1,34,-1,-1,-1,-1,-1,36,-1,-1,-1,-1,-1],"split_conditions":[6.519446E-2,2.2062904E-1,3.410263E-1,4.7693452E-1,1.1520597E-1,-9.7266965E-2,2.0247117E-2,2.8825846E-2,1.9882828E-1,1.11744136E-1,1.9078614E-1,1.2478339E-1,2.5031272E-2,4.1376404E-2,-8.2384326E-2,1.2130758E-1,1.13961045E-2,1.5846725E-1,-2.7937818E-2,-8.682289E-2,1.35E1,1.4302632E-1,2.5851509E-2,1.8939851E-1,-2.8187985E-2,1.0460501E-1,1.3005362E-1,1.4885679E-1,2.404724E-2,5.663262E-2,-5.9876557E-2,1.4053562E-1,-7.075278E-2,-1.0121504E-1,2.975594E-2,-5.2152008E-2,4.9354613E-2],"split_indices":[136615,157461,65837,2,420100,0,419097,2,0,328947,407165,2,6848,378638,0,193616,2,0,0,0,1,0,412685,0,0,419206,0,0,0,0,0,170313,0,0,0,0,0],"split_type":[0,0,0,0,0,0,0,0,0,0,0,0,0,0,0,0,0,0,0,0,0,0,0,0,0,0,0,0,0,0,0,0,0,0,0,0,0],"sum_hessian":[3.9080044E3,3.8770479E3,3.0956501E1,7.7854877E0,3.8692625E3,3.4396586E0,2.7516842E1,6.4706244E0,1.314863E0,3.8659963E3,3.2659907E0,9.540564E0,1.7976278E1,2.9739304E0,3.4966943E0,3.863848E3,2.1485336E0,1.8402299E0,1.4257607E0,5.4407787E0,4.0997853E0,1.6599921E0,1.6316286E1,1.538116E0,1.4358144E0,3.86234E3,1.5078205E0,1.1430497E0,1.0054839E0,2.3938622E0,1.705923E0,1.4790309E1,1.5259774E0,3.8557573E3,6.5826607E0,1.6513022E0,1.3139007E1],"tree_param":{"num_deleted":"0","num_feature":"426016","num_nodes":"37","size_leaf_vector":"0"}},{"base_weights":[-9.8046863E-1,-9.88315E-1,5.351007E-1,-9.9849343E-1,3.974598E-2,-1.0038508E-1,2.5125694E0,-1.9551297E-1,-1.0075032E0,-8.036438E-1,1.5641701E-1,-5.8938634E-1,8.833939E-1,3.1212983E0,4.9302012E-1,2.6785326E0,-3.3852038E-1,-1.0123643E0,-4.961402E-2,9.484414E-1,2.3584248E-2,-9.0866125E-1,5.8285064E-1,1.1025221E0,-3.053115E-4,-4.6655297E-1,1.748746E0,-1.0143796E0,8.7221485E-1,-2.8971258E-1,1.2208623E0,1.4112546E0,1.3599418E-1,1.0804782E0,-8.36619E-2,1.5243731E-1,1.3487697E0,-5.844673E-1,1.3769748E0,-1.0155271E0,1.4517155E0,1.2075281E0,-7.133698E-2,-6.3168913E-1,2.1933022E-1,1.6076893E0,2.1580969E-1,3.1177834E-1,-4.1436943E-1],"categories":[],"categories_nodes":[],"categories_segments":[],"categories_sizes":[],"default_left":[true,true,true,false,false,false,true,false,true,false,false,true,true,false,false,false,true,true,true,true,false,false,false,false,false,true,false,true,true,true,false,false,false,false,true,false,false,false,false,false,false,false,false,false,false,false,false,false,false],"id":25,"left_children":[1,3,5,7,9,11,13,15,17,-1,19,21,23,-1,-1,-1,25,27,29,31,33,-1,-1,35,-1,37,-1,39,41,43,45,-1,-1,-1,47,-1,-1,-1,-1,-1,-1,-1,-1,-1,-1,-1,-1,-1,-1],"loss_changes":[4.303711E1,3.7255615E1,2.4203705E1,2.5281494E1,3.651203E0,7.9223323E0,4.2069836E0,1.74775E1,1.616504E1,0E0,3.3770285E0,4.6005716E0,1.0670595E0,0E0,0E0,0E0,1.13167305E1,1.4044678E1,6.0380135E0,1.5434661E0,3.3430598E0,0E0,0E0,8.271761E-1,0E0,9.024387E0,0E0,1.127002E1,1.4273005E0,3.0075722E0,8.7913847E-1,0E0,0E0,0E0,3.657609E0,0E0,0E0,0E0,0E0,0E0,0E0,0E0,0E0,0E0,0E0,0E0,0E0,0E0,0E0],"parents":[2147483647,0,0,1,1,2,2,3,3,4,4,5,5,6,6,7,7,8,8,10,10,11,11,12,12,16,16,17,17,18,18,19,19,20,20,23,23,25,25,27,27,28,28,29,29,30,30,34,34],"right_children":[2,4,6,8,10,12,14,16,18,-1,20,22,24,-1,-1,-1,26,28,30,32,34,-1,-1,36,-1,38,-1,40,42,44,46,-1,-1,-1,48,-1,-1,-1,-1,-1,-1,-1,-1,-1,-1,-1,-1,-1,-1],"split_conditions":[1.1239898E-1,6.519446E-2,4.6053365E-2,1.9746202E-1,1.7106843E-1,2.518729E-1,8.15E1,1.7483038E-1,4.4901304E-2,-8.0364384E-2,5.7269737E-2,7.729177E-2,4.5E0,3.1212983E-1,4.930201E-2,2.6785326E-1,4.528182E-2,1.5162583E-1,4.3531746E-2,1.8915158E-2,1.712212E-1,-9.0866126E-2,5.8285065E-2,1.2953413E-1,-3.053115E-5,5.219417E-2,1.748746E-1,1.3610244E-1,2.5E0,2.953225E-2,4.7263764E-2,1.4112547E-1,1.3599418E-2,1.0804782E-1,1.35E1,1.5243731E-2,1.3487697E-1,-5.844673E-2,1.3769749E-1,-1.0155272E-1,1.4517155E-1,1.2075281E-1,-7.1336976E-3,-6.316891E-2,2.1933023E-2,1.6076893E-1,2.158097E-2,3.1177834E-2,-4.1436944E-2],"split_indices":[195358,136615,421127,170452,102254,22394,0,158920,218852,0,140364,24936,1,0,0,0,176092,328928,7524,43443,96119,0,0,195358,0,195358,0,131169,5,193983,11891,0,0,0,8,0,0,0,0,0,0,0,0,0,0,0,0,0,0],"split_type":[0,0,0,0,0,0,0,0,0,0,0,0,0,0,0,0,0,0,0,0,0,0,0,0,0,0,0,0,0,0,0,0,0,0,0,0,0,0,0,0,0,0,0,0,0,0,0,0,0],"sum_hessian":[3.5736023E3,3.5555425E3,1.8059738E1,3.520714E3,3.4828552E1,1.43858795E1,3.6738577E0,3.9317196E1,3.4813967E3,3.5169754E0,3.1311577E1,9.877182E0,4.5086975E0,2.4037745E0,1.2700833E0,1.0232251E0,3.829397E1,3.4637622E3,1.7634682E1,3.615255E0,2.7696321E1,7.939577E0,1.9376051E0,3.4144142E0,1.0942836E0,3.681238E1,1.4815892E0,3.4605232E3,3.2390046E0,1.5480999E1,2.153682E0,1.8336619E0,1.7815932E0,1.715508E0,2.5980812E1,1.0360633E0,2.378351E0,3.524127E1,1.5711124E0,3.4595015E3,1.0215875E0,2.1833363E0,1.0556682E0,9.115944E0,6.365055E0,1.122171E0,1.031511E0,1.185844E1,1.4122373E1],"tree_param":{"num_deleted":"0","num_feature":"426016","num_nodes":"49","size_leaf_vector":"0"}},{"base_weights":[-9.7137403E-1,-9.829563E-1,9.5099114E-2,-9.856531E-1,1.6223301E0,2.6057932E-1,-5.132542E-1,-9.923209E-1,9.664528E-2,-1.4962344E-1,2.5922754E0,3.7822387E-1,-6.826298E-1,-6.8898344E-1,3.381197E-1,4.5680806E-1,-9.9574524E-1,-5.640056E-1,1.9743062E0,9.349921E-1,1.4504479E-1,1.7511764E-1,-8.787338E-1,-5.60844E-2,1.4720831E0,-9.984042E-1,6.204887E-1,-8.8180304E-1,7.568781E-1,5.507691E-1,2.1807542E0,-2.9346445E-1,1.2675749E0,-5.875745E-1,4.4398353E-1,-2.2285496E-1,-9.72346E-1,8.641028E-1,-4.9326515E-1,5.135881E-1,-1.0007195E0,-6.955946E-1,1.4777395E0,-9.47186E-1,-3.9388955E-2,-2.7807263E-1,1.7004894E0,2.5428956E0,7.1996856E-1,4.5997262E-1,1.5119268E0,1.6999273E-1,-7.933198E-1,-6.661778E-1,5.8190286E-1],"categories":[],"categories_nodes":[],"categories_segments":[],"categories_sizes":[],"default_left":[true,true,true,true,true,true,true,false,true,false,false,true,false,true,false,true,true,true,false,true,false,false,false,false,false,false,true,true,false,false,true,false,true,false,false,false,false,false,false,false,false,false,false,false,false,false,false,false,false,false,false,false,false,false,false],"id":26,"left_children":[1,3,5,7,9,11,13,15,17,-1,-1,19,-1,21,-1,23,25,27,29,31,33,-1,35,37,-1,39,41,43,45,-1,47,-1,49,51,53,-1,-1,-1,-1,-1,-1,-1,-1,-1,-1,-1,-1,-1,-1,-1,-1,-1,-1,-1,-1],"loss_changes":[4.0271973E1,2.4207764E1,3.7436066E0,2.329834E1,6.7563467E0,3.459858E0,1.4305716E0,1.63125E1,2.6664957E1,0E0,0E0,3.2784545E0,0E0,1.2957997E0,0E0,4.3624144E0,1.4321533E1,7.3899903E0,4.397602E-1,3.468433E0,4.57934E0,0E0,1.4412451E-1,3.010446E0,0E0,1.1658691E1,7.631954E0,6.991501E-1,4.031498E0,0E0,5.699692E-1,0E0,5.186167E-1,1.092597E0,2.6190617E0,0E0,0E0,0E0,0E0,0E0,0E0,0E0,0E0,0E0,0E0,0E0,0E0,0E0,0E0,0E0,0E0,0E0,0E0,0E0,0E0],"parents":[2147483647,0,0,1,1,2,2,3,3,4,4,5,5,6,6,7,7,8,8,11,11,13,13,15,15,16,16,17,17,18,18,19,19,20,20,22,22,23,23,25,25,26,26,27,27,28,28,30,30,32,32,33,33,34,34],"right_children":[2,4,6,8,10,12,14,16,18,-1,-1,20,-1,22,-1,24,26,28,30,32,34,-1,36,38,-1,40,42,44,46,-1,48,-1,50,52,54,-1,-1,-1,-1,-1,-1,-1,-1,-1,-1,-1,-1,-1,-1,-1,-1,-1,-1,-1,-1],"split_conditions":[6.519446E-2,6.969507E-2,3.4197964E-2,1.0890666E-1,2.0175528E-2,2.5239343E-2,8.211532E-2,2.180278E-1,7.634367E-2,-1.4962344E-2,2.5922754E-1,8.4105265E-1,-6.826299E-2,8.6E1,3.3811968E-2,9.368351E-1,6.563034E-2,5.452607E-2,3.6887724E-2,2.8677095E-2,5.6244496E-2,1.7511765E-2,1.17879674E-1,2.8351445E-2,1.4720832E-1,1.1213322E-1,3.502523E-2,6.433086E-2,9.5E0,5.507691E-2,9.467787E-1,-2.9346446E-2,1.8837038E-2,5.0995708E-2,1.5E0,-2.2285497E-2,-9.72346E-2,8.641028E-2,-4.9326517E-2,5.1358808E-2,-1.0007196E-1,-6.955946E-2,1.4777395E-1,-9.47186E-2,-3.9388957E-3,-2.7807264E-2,1.7004894E-1,2.5428957E-1,7.199686E-2,4.5997262E-2,1.5119268E-1,1.6999273E-2,-7.933199E-2,-6.661778E-2,5.8190286E-2],"split_indices":[136615,302355,378638,195358,193983,211574,176092,157461,419097,0,0,9,0,0,0,9,420100,421127,2,419097,43443,0,11,43443,0,170387,193983,196092,1,0,9,0,359024,419097,3,0,0,0,0,0,0,0,0,0,0,0,0,0,0,0,0,0,0,0,0],"split_type":[0,0,0,0,0,0,0,0,0,0,0,0,0,0,0,0,0,0,0,0,0,0,0,0,0,0,0,0,0,0,0,0,0,0,0,0,0,0,0,0,0,0,0,0,0,0,0,0,0,0,0,0,0,0,0],"sum_hessian":[3.2517505E3,3.2168923E3,3.4858223E1,3.214187E3,2.7054107E0,2.7853394E1,7.0048294E0,3.1945889E3,1.9598051E1,1.2562178E0,1.449193E0,2.5297138E1,2.5562565E0,5.964464E0,1.0403655E0,7.218998E0,3.1873699E3,1.5014763E1,4.583288E0,6.5788565E0,1.871828E1,1.0878117E0,4.8766522E0,5.4237895E0,1.7952082E0,3.1825164E3,4.8535433E0,1.2370825E1,2.643939E0,1.0450573E0,3.538231E0,1.4266987E0,5.152158E0,5.1446295E0,1.3573651E1,1.0313418E0,3.8453104E0,1.4323709E0,3.9914188E0,4.5282526E0,3.177988E3,1.9888153E0,2.8647282E0,1.1364418E1,1.0064068E0,1.5973164E0,1.0466225E0,2.2417176E0,1.2965134E0,1.8663023E0,3.2858558E0,1.1359099E0,4.0087194E0,1.0767015E0,1.249695E1],"tree_param":{"num_deleted":"0","num_feature":"426016","num_nodes":"55","size_leaf_vector":"0"}},{"base_weights":[-9.600748E-1,-9.698651E-1,4.009549E-1,-9.77738E-1,3.4433192E-1,4.087284E-2,7.78989E-1,8.364494E-3,-9.847125E-1,1.8658892E0,-1.9414808E-1,-1.7976744E-1,9.5466894E-1,1.002142E0,-2.8180176E-1,-4.3770477E-1,8.6575407E-1,-9.879836E-1,7.738745E-1,2.407829E0,2.2073528E-1,-5.070658E-1,1.0983623E0,8.11011E-1,-4.8187077E-1,1.1776514E0,-6.4360484E-2,-6.503052E-1,1.2546394E0,2.2051697E0,-1.2947817E-1,-9.894589E-1,1.591975E0,1.0767853E0,-2.817552E-1,-6.324217E-1,4.403715E-1,1.3926392E0,2.9603738E-1,-8.2656324E-1,1.1376159E-1,2.0564881E-1,1.3465099E0,-7.738747E-1,4.7181273E-1,2.9191055E0,6.538613E-1,-7.679703E-1,8.678161E-1,-9.915963E-1,8.1906873E-1,1.3183998E0,1.1686706E-1,-7.7461356E-1,3.9162245E-1,-9.5006233E-1,-1.6571924E-1,-4.605475E-1,7.171525E-1,3.1216457E-1,1.4868052E0],"categories":[],"categories_nodes":[],"categories_segments":[],"categories_sizes":[],"default_left":[true,true,true,false,false,true,true,false,true,true,false,false,false,true,false,true,false,true,true,false,false,true,false,false,false,false,false,true,false,false,true,true,false,true,false,true,false,false,false,false,true,false,false,false,false,false,false,false,false,false,false,false,false,false,false,false,false,false,false,false,false],"id":27,"left_children":[1,3,5,7,9,11,13,15,17,19,21,23,-1,25,-1,27,29,31,33,-1,-1,35,37,-1,39,41,-1,43,-1,45,47,49,-1,51,-1,53,-1,-1,-1,55,57,-1,59,-1,-1,-1,-1,-1,-1,-1,-1,-1,-1,-1,-1,-1,-1,-1,-1,-1,-1],"loss_changes":[4.0094727E1,3.095044E1,2.9613945E0,2.0238037E1,1.5404596E1,2.6550443E0,2.8086162E0,8.658968E0,1.756665E1,3.831213E0,6.4077454E0,3.6124284E0,0E0,1.7672558E0,0E0,6.178584E0,1.0609491E1,1.2673828E1,2.2167325E0,0E0,0E0,1.7429714E0,3.2802796E-1,0E0,1.916264E0,1.0051765E0,0E0,2.2925029E0,0E0,1.809248E0,4.0972123E0,1.2079346E1,0E0,9.723816E-1,0E0,1.9487991E0,0E0,0E0,0E0,3.1126547E-1,1.7623284E0,0E0,4.754753E-1,0E0,0E0,0E0,0E0,0E0,0E0,0E0,0E0,0E0,0E0,0E0,0E0,0E0,0E0,0E0,0E0,0E0,0E0],"parents":[2147483647,0,0,1,1,2,2,3,3,4,4,5,5,6,6,7,7,8,8,9,9,10,10,11,11,13,13,15,15,16,16,17,17,18,18,21,21,22,22,24,24,25,25,27,27,29,29,30,30,31,31,33,33,35,35,39,39,40,40,42,42],"right_children":[2,4,6,8,10,12,14,16,18,20,22,24,-1,26,-1,28,30,32,34,-1,-1,36,38,-1,40,42,-1,44,-1,46,48,50,-1,52,-1,54,-1,-1,-1,56,58,-1,60,-1,-1,-1,-1,-1,-1,-1,-1,-1,-1,-1,-1,-1,-1,-1,-1,-1,-1],"split_conditions":[7.028305E-2,1.1239898E-1,3.272426E-2,2.0020723E-1,9.9326156E-2,3.4581497E-2,1.0145805E-1,1.1997285E-1,3.576763E-2,8.55E1,4.15E1,1.2942147E-1,9.54669E-2,4.0104356E-2,-2.8180176E-2,5.3977616E-2,5.817093E-2,1.0485645E-1,1.5985155E-2,2.407829E-1,2.2073528E-2,4.8571743E-2,1.4103907E-1,8.1101105E-2,8.5E0,2.5600437E-2,-6.4360485E-3,2.758643E-2,1.2546395E-1,5.3537577E-2,1.15E2,1.0855204E-1,1.591975E-1,8.920455E-1,-2.8175522E-2,9.656927E-2,4.4037152E-2,1.3926391E-1,2.9603738E-2,1.8354025E-1,2.1364404E-2,2.0564882E-2,2.1649808E-1,-7.7387474E-2,4.7181275E-2,2.9191056E-1,6.538613E-2,-7.679703E-2,8.678161E-2,-9.915963E-2,8.190688E-2,1.3183998E-1,1.1686706E-2,-7.7461354E-2,3.9162245E-2,-9.5006235E-2,-1.6571924E-2,-4.605475E-2,7.171525E-2,3.1216457E-2,1.4868052E-1],"split_indices":[218852,195358,193983,81931,421127,255837,380854,81931,419599,0,1,423150,0,216492,0,136151,193983,421985,211574,0,0,236708,195358,0,5,2,0,96841,0,359024,0,328928,0,9,0,24936,0,0,0,218852,6848,0,411764,0,0,0,0,0,0,0,0,0,0,0,0,0,0,0,0,0,0],"split_type":[0,0,0,0,0,0,0,0,0,0,0,0,0,0,0,0,0,0,0,0,0,0,0,0,0,0,0,0,0,0,0,0,0,0,0,0,0,0,0,0,0,0,0,0,0,0,0,0,0,0,0,0,0,0,0,0,0,0,0,0,0],"sum_hessian":[2.978811E3,2.9578218E3,2.0989138E1,2.9404624E3,1.7359356E1,1.1317347E1,9.671791E0,2.0649656E1,2.9198127E3,3.8932583E0,1.3466099E1,9.763241E0,1.5541055E0,8.036486E0,1.6353053E0,1.3904916E1,6.7447414E0,2.914829E3,4.9836535E0,2.5798316E0,1.3134266E0,1.1330633E1,2.1354651E0,1.8877206E0,7.8755198E0,6.8113537E0,1.2251322E0,1.2900083E1,1.0048335E0,2.3569493E0,4.387792E0,2.9137793E3,1.0497333E0,3.856887E0,1.1267663E0,1.0300288E1,1.0303446E0,1.0240932E0,1.1113719E0,4.7430243E0,3.1324956E0,1.3364133E0,5.4749403E0,1.18999815E1,1.0001007E0,1.010292E0,1.3466573E0,2.8153088E0,1.5724833E0,2.910791E3,2.9883444E0,2.7829576E0,1.0739297E0,9.258316E0,1.0419729E0,3.6274695E0,1.1155548E0,1.7262143E0,1.4062812E0,1.039099E0,4.435841E0],"tree_param":{"num_deleted":"0","num_feature":"426016","num_nodes":"61","size_leaf_vector":"0"}},{"base_weights":[-9.5182616E-1,-9.6377057E-1,3.186929E-1,-9.7588414E-1,1.169398E-1,5.1248886E-2,1.4639616E0,-9.7932804E-1,1.0139018E0,-3.7722465E-2,7.585506E-1,-1.20828636E-1,1.4645798E0,1.8506616E0,6.569485E-1,-9.818643E-1,1.7071004E0,1.5929735E0,-5.5814993E-1,-2.0612277E-1,7.529736E-1,-8.72448E-2,9.476025E-1,1.0724211E0,-2.9712906E-1,1.0424937E0,-1.9992001E-2,-9.859341E-1,6.470549E-1,2.3534021E-1,2.026881E0,-3.7794194E-1,7.581278E-1,-1.8126656E-1,1.4277245E0,1.4643866E0,2.5570574E-1,2.449115E-1,-6.86746E-1,-9.892395E-1,8.095405E-1,-3.885249E-1,1.6469477E0,6.9266886E-1,-5.9309185E-1,1.1093011E0,9.364693E-2,-1.923817E-1,6.2185645E-1,4.602933E-1,-3.8211143E-1,-8.357941E-1,3.150882E-1],"categories":[],"categories_nodes":[],"categories_segments":[],"categories_sizes":[],"default_left":[true,true,true,true,true,true,false,true,true,true,false,false,false,false,true,true,false,false,false,true,true,false,false,false,true,false,false,true,true,false,false,true,false,false,false,false,false,true,true,false,false,false,false,false,false,false,false,false,false,false,false,false,false],"id":28,"left_children":[1,3,5,7,9,11,13,15,17,19,21,23,-1,-1,25,27,-1,29,-1,31,33,-1,35,-1,37,-1,-1,39,41,-1,-1,43,45,-1,-1,-1,47,49,51,-1,-1,-1,-1,-1,-1,-1,-1,-1,-1,-1,-1,-1,-1],"loss_changes":[4.1553223E1,3.5367188E1,7.90867E0,1.9241943E1,3.079278E0,5.5680676E0,3.1280804E-1,1.9793457E1,5.5251055E0,3.5804286E0,1.0450368E0,4.670149E0,0E0,0E0,8.3959794E-1,1.8253418E1,0E0,1.8682661E0,0E0,3.9301417E0,3.2414827E0,0E0,1.414556E0,0E0,4.1396375E0,0E0,0E0,1.6533447E1,8.122246E0,0E0,0E0,4.864134E0,7.498889E-1,0E0,0E0,0E0,6.693909E-1,1.3375008E0,1.9363189E0,0E0,0E0,0E0,0E0,0E0,0E0,0E0,0E0,0E0,0E0,0E0,0E0,0E0,0E0],"parents":[2147483647,0,0,1,1,2,2,3,3,4,4,5,5,6,6,7,7,8,8,9,9,10,10,11,11,14,14,15,15,17,17,19,19,20,20,22,22,24,24,27,27,28,28,31,31,32,32,36,36,37,37,38,38],"right_children":[2,4,6,8,10,12,14,16,18,20,22,24,-1,-1,26,28,-1,30,-1,32,34,-1,36,-1,38,-1,-1,40,42,-1,-1,44,46,-1,-1,-1,48,50,52,-1,-1,-1,-1,-1,-1,-1,-1,-1,-1,-1,-1,-1,-1],"split_conditions":[3.92949E-2,6.459047E-2,4.576373E-2,7.1326196E-2,1.5E0,6.5E0,4.0243164E-2,8.125685E-2,1.7001485E-2,1.0482086E-1,2.2644773E-1,1.8081962E-1,1.4645799E-1,1.8506616E-1,2.507918E-2,6.9650814E-2,1.7071004E-1,8.510561E-2,-5.5814993E-2,5.0523434E-2,3.5E0,-8.72448E-3,2.5E0,1.0724211E-1,1.165E2,1.0424937E-1,-1.9992E-3,8.978842E-2,3.7188515E-2,2.353402E-2,2.026881E-1,6.5E0,5.648209E-2,-1.8126657E-2,1.4277245E-1,1.4643866E-1,1.6E1,5.7804693E-2,5.3959094E-2,-9.892395E-2,8.095405E-2,-3.885249E-2,1.6469477E-1,6.9266886E-2,-5.9309185E-2,1.1093011E-1,9.364693E-3,-1.923817E-2,6.2185645E-2,4.602933E-2,-3.8211145E-2,-8.357941E-2,3.1508822E-2],"split_indices":[218852,136615,421127,101948,3,3,43443,379728,208017,170313,236708,170313,0,0,2,302329,0,419097,0,419242,5,0,3,0,0,0,0,129173,419097,0,0,7,64089,0,0,0,5,6848,6848,0,0,0,0,0,0,0,0,0,0,0,0,0,0],"split_type":[0,0,0,0,0,0,0,0,0,0,0,0,0,0,0,0,0,0,0,0,0,0,0,0,0,0,0,0,0,0,0,0,0,0,0,0,0,0,0,0,0,0,0,0,0,0,0,0,0,0,0,0,0],"sum_hessian":[2.716932E3,2.6918665E3,2.5065363E1,2.662124E3,2.974244E1,2.1167143E1,3.8982186E0,2.6580315E3,4.0926414E0,2.4723879E1,5.018561E0,1.9684946E1,1.4821967E0,1.7611141E0,2.1371045E0,2.6561582E3,1.8731668E0,2.981197E0,1.1114445E0,2.099231E1,3.7315702E0,1.0151987E0,4.003362E0,1.8797002E0,1.7805246E1,1.0175569E0,1.1195477E0,2.6499321E3,6.2260647E0,1.0955995E0,1.8855975E0,1.8333517E1,2.6587913E0,1.8715856E0,1.8599846E0,1.6525648E0,2.3507974E0,7.601432E0,1.02038145E1,2.645511E3,4.421258E0,3.3588097E0,2.8672547E0,2.696408E0,1.563711E1,1.3015215E0,1.3572699E0,1.2705314E0,1.080266E0,5.8558574E0,1.7455746E0,9.026614E0,1.1772002E0],"tree_param":{"num_deleted":"0","num_feature":"426016","num_nodes":"53","size_leaf_vector":"0"}},{"base_weights":[-9.380372E-1,-9.516108E-1,9.776797E-2,3.2631618E-1,-9.620758E-1,2.0757037E-1,-7.1863145E-1,-2.661673E-2,2.1841378E0,-9.70917E-1,2.2435275E-1,-5.8613694E-1,3.0737904E-1,-8.1071556E-1,-2.1507156E-1,-3.351868E-1,2.008413E0,2.6861541E0,6.219489E-1,-9.793971E-1,8.631749E-2,-4.8825753E-1,1.68353E0,-6.8384565E-2,-7.5666267E-1,8.081254E-1,9.52463E-2,-5.3270304E-1,1.300533E0,1.975056E0,-9.8190695E-1,-6.6386104E-1,3.7663132E-1,-7.8463435E-1,7.8488415E-1,2.0577269E0,3.9166737E-1,-4.1925922E-1,1.05424E0,2.1129549E-1,-7.804058E-1,-8.554769E-1,1.9654566E-1,-9.8710334E-1,5.3102523E-1,1.7752531E-1,-8.7537676E-1,1.8042812E-1,1.561251E0,-9.312822E-1,3.543695E-1,1.6908804E0,-5.254602E-1,1.3425488E0,-2.1975817E-1,3.2847983E-1,-6.837814E-1],"categories":[],"categories_nodes":[],"categories_segments":[],"categories_sizes":[],"default_left":[true,false,true,true,true,false,true,true,false,true,true,false,false,false,false,true,false,false,false,false,false,false,false,false,false,false,true,true,false,false,true,false,true,true,false,false,false,false,true,true,false,false,